1001 16
837 0.022316 0.020434 0.012044 -0.023896 0.012166 0.003465 -0.021912 -0.025652 -0.001687 -0.003765 -0.006632 -0.026641 0.004117 0.007453 0.016799 -0.020498
762 -0.000959 0.028860 -0.024540 0.017335 -0.023598 -0.013500 0.027004 0.003624 -0.010227 0.030652 -0.030200 0.020560 -0.026949 0.026407 0.017546 0.021645
755 -0.021805 0.024530 0.027037 0.022066 0.003109 -0.006773 0.029689 0.007338 0.005798 -0.010952 0.017970 0.011752 0.010140 0.000598 -0.015820 0.024501
758 0.003383 0.007919 -0.023760 0.019864 -0.009630 0.018286 0.027738 -0.030314 0.007724 0.022581 -0.003962 -0.006174 -0.009447 -0.015519 0.031182 -0.011392
756 0.000117 0.030315 -0.013553 -0.013777 -0.011544 0.011355 -0.019546 -0.019751 -0.004559 -0.000875 0.015763 -0.012883 -0.024352 0.018927 -0.017031 0.006724
753 -0.023256 0.009868 0.002660 -0.016167 -0.016623 0.011649 -0.009845 -0.023365 -0.002358 -0.009765 0.015884 0.028567 0.016276 0.011032 0.019123 -0.021889
752 0.018722 0.028015 0.006362 0.011541 0.022287 0.017325 0.006088 -0.022100 -0.000125 0.006524 0.027904 -0.009043 -0.015584 -0.013824 0.012407 -0.003998
825 -0.026759 -0.003199 -0.009049 -0.008971 0.014780 0.000713 -0.027795 -0.008960 0.016481 -0.022746 0.010275 -0.002147 -0.016269 0.019499 -0.012998 0.019434
757 0.026095 0.028758 -0.007722 -0.022060 0.013331 0.004012 0.005316 0.007572 -0.025568 -0.013188 0.022961 0.003324 0.022480 0.029775 -0.019363 0.019251
761 0.003021 -0.007935 0.030658 -0.004091 0.023943 -0.021897 0.019517 0.008284 -0.021638 -0.002939 0.009440 0.015790 -0.019042 0.021103 -0.012258 0.000510
819 -0.005133 -0.023255 -0.029460 0.017192 -0.024809 0.027251 -0.015940 -0.025796 -0.025249 -0.011009 0.011038 0.010647 0.007954 0.014980 -0.007713 -0.007482
791 -0.018786 0.025198 -0.030041 0.010637 0.015310 -0.004103 -0.020628 0.021337 0.010576 -0.030732 0.021156 0.020983 -0.014718 0.010023 0.028807 -0.000913
857 -0.022365 0.021611 -0.030988 0.026345 -0.027455 0.027709 0.005055 0.020430 0.002407 0.027094 -0.005616 0.030985 -0.011065 0.030866 0.002470 0.019233
842 0.003492 0.010007 0.008396 0.026165 0.003182 0.000444 -0.020735 0.026112 -0.013398 -0.016233 0.007353 0.026520 -0.019304 0.003672 -0.029912 -0.029026
780 0.004096 -0.010285 -0.031155 0.028113 -0.014677 -0.001402 -0.027918 -0.019046 0.017064 -0.000268 0.006203 0.019893 0.027335 0.009218 -0.020777 0.000555
770 0.001789 0.001661 0.026182 0.021206 -0.024655 -0.012425 0.004326 0.014695 0.030845 -0.005487 0.022051 -0.028924 0.012726 -0.012023 0.020947 0.007367
804 0.005735 0.022305 -0.012697 0.014591 0.029518 -0.001186 -0.020235 -0.021734 -0.029801 0.025927 0.005436 -0.023384 0.007433 0.014493 -0.020336 0.011745
844 -0.014447 -0.016321 0.013417 -0.003917 -0.002479 0.023666 -0.025032 -0.013661 0.010475 -0.027529 -0.001753 -0.011001 -0.021766 0.002239 -0.020562 -0.015039
773 -0.017608 0.028105 0.005523 0.025699 -0.012960 -0.017714 -0.011417 -0.021000 0.010612 -0.002085 0.018672 -0.016661 0.028596 -0.029311 -0.027240 0.012121
820 -0.004536 -0.002820 -0.017296 -0.014385 -0.018475 0.019773 -0.030148 -0.022700 -0.003490 -0.029232 -0.020041 -0.000026 0.000040 -0.010925 -0.028812 -0.013426
798 0.025545 0.018721 -0.019827 -0.023867 -0.027239 -0.027439 0.003875 -0.029243 -0.012724 0.018693 -0.022501 0.010743 0.027311 -0.021238 -0.030456 -0.007040
764 -0.010655 0.026537 0.020722 0.010622 0.025210 -0.025013 -0.010553 0.025099 0.013121 0.002238 -0.015434 -0.003376 0.024446 -0.000503 -0.023852 -0.021854
824 -0.009001 -0.027765 0.029685 -0.003809 -0.001096 -0.007318 0.006400 -0.002730 0.012855 0.008868 -0.009524 0.009320 0.007861 -0.012319 -0.030932 -0.024097
814 0.016458 -0.003910 -0.030910 -0.012671 0.001439 0.020344 -0.003322 0.000255 -0.010207 -0.001649 0.020955 -0.006679 0.016883 0.001170 0.028298 -0.009952
828 -0.017211 0.012397 -0.025256 0.001109 0.003836 0.011992 -0.013531 -0.005194 -0.005966 -0.007786 0.007373 0.023877 -0.023671 -0.029620 -0.009616 -0.004639
852 -0.030370 -0.018137 0.002043 -0.001546 0.002207 -0.023517 -0.014094 0.012524 -0.027641 0.020553 0.029147 -0.027807 0.028237 -0.016038 -0.006154 -0.007968
767 -0.006530 -0.017056 -0.005457 0.002359 -0.008150 -0.008620 -0.008628 -0.003748 -0.020777 0.009919 -0.012358 0.019414 0.008289 -0.012870 0.018461 -0.021996
874 -0.000808 -0.011693 -0.012188 -0.011321 -0.006637 0.009849 0.021430 -0.003770 0.016396 -0.003536 0.010965 0.008771 0.025063 -0.021722 -0.005423 -0.009889
835 0.012153 -0.000658 -0.022520 -0.021791 0.002557 -0.024445 -0.001112 0.013675 0.006974 -0.025844 0.023543 -0.027514 -0.000170 0.002272 -0.012968 0.003465
790 0.020684 -0.007776 -0.019695 -0.004834 0.030377 -0.014388 -0.009617 -0.028571 -0.003152 -0.024760 0.028339 -0.018325 -0.031053 0.027766 0.014950 0.016754
865 0.008980 0.019841 0.014226 -0.030747 -0.008997 -0.025220 0.012398 -0.022673 -0.021694 0.008821 0.001537 0.006182 0.000462 -0.004181 -0.011303 0.030756
794 -0.021237 -0.013834 -0.003225 0.003216 -0.017211 0.018073 0.021686 -0.018918 0.027599 -0.025461 0.009971 0.010969 -0.017941 -0.025335 -0.018517 -0.021795
851 -0.007666 0.013144 0.003977 -0.010406 0.020148 0.031216 -0.018346 -0.014341 -0.011554 0.011523 -0.009591 -0.027028 -0.006772 -0.028310 0.020980 -0.022346
799 0.021553 -0.020320 0.006898 -0.016892 0.010312 0.016559 0.029307 0.010963 0.012377 0.012138 -0.007706 0.010683 -0.028556 -0.007797 -0.024022 0.020456
792 -0.030822 -0.017660 -0.030139 -0.010117 -0.027323 0.014355 -0.011675 0.024760 0.011750 -0.013400 -0.024017 -0.017949 -0.015171 0.022356 -0.024091 -0.024757
772 -0.023501 0.026097 0.009458 -0.004031 -0.025329 0.030105 0.003643 -0.006250 0.007626 -0.020867 0.008542 0.027980 -0.016272 -0.018755 0.029951 0.027297
816 -0.010381 0.000632 -0.001735 -0.014998 0.020603 -0.026469 -0.009607 -0.006011 -0.028049 0.022510 0.017856 -0.008131 -0.029491 0.005602 -0.013667 0.009110
877 -0.006550 -0.001470 0.010242 0.031078 0.002308 0.029653 -0.001386 0.002702 -0.015245 0.001699 0.025307 0.024284 -0.007886 -0.022181 0.007976 0.029968
945 0.015616 0.007321 -0.026292 -0.021521 -0.030102 0.006668 -0.028179 0.021312 -0.019372 0.015957 0.008432 -0.014845 0.017858 -0.009535 0.005952 -0.000523
760 -0.024594 -0.009664 0.017375 0.000687 -0.002938 -0.000972 -0.002647 -0.030051 -0.002952 -0.003008 0.018588 -0.001996 -0.026287 0.006332 -0.026138 -0.006937
880 0.018985 0.008710 -0.003164 -0.027623 0.006391 0.000273 -0.003739 0.016325 -0.002630 -0.026885 -0.017212 0.020534 0.023440 0.014476 0.008952 0.006776
873 0.030661 -0.021323 -0.023689 0.003439 0.029505 0.019486 0.023636 0.002497 0.028371 0.024258 0.010757 -0.026772 0.018308 0.019521 0.014007 0.028513
776 -0.029125 0.029635 0.014909 0.021822 0.000076 -0.007643 -0.007520 0.027404 0.025896 -0.020208 0.017618 -0.002475 0.007968 0.013100 0.011650 -0.021287
777 0.029064 -0.002582 -0.014149 -0.023174 -0.023080 0.003772 -0.024256 0.003553 0.017221 -0.025126 0.003032 -0.027128 -0.003995 -0.006570 0.000214 -0.007849
809 -0.011099 0.018714 0.015873 0.002100 0.003837 0.024144 -0.021961 -0.027437 -0.030677 0.020071 -0.031008 -0.000050 -0.004262 -0.023833 -0.023036 -0.013837
813 0.004178 0.001995 0.013008 -0.008170 0.014514 0.003869 -0.024769 -0.010885 0.005073 -0.009429 -0.004648 -0.008394 0.022805 0.027533 -0.002577 0.008946
815 -0.019162 0.027698 -0.025431 0.030514 0.012224 -0.031167 -0.011815 -0.007805 -0.016884 0.030858 -0.014972 0.009212 0.026140 0.016147 -0.003159 0.024051
789 0.027856 -0.023606 0.027227 -0.015449 0.003475 -0.006575 0.003857 0.017413 0.030349 0.014474 -0.006071 0.030234 0.007913 -0.016719 -0.011372 0.000976
803 0.013928 0.005001 0.007057 0.022525 0.019186 0.017313 0.021382 0.005373 0.014485 0.029019 -0.019919 -0.017002 0.019783 -0.003901 0.003287 -0.010527
766 -0.015024 -0.018231 0.027356 -0.004159 0.027038 0.029446 0.010623 -0.025305 -0.005633 0.027979 0.030344 0.026512 -0.001506 -0.006718 0.026194 0.029876
826 -0.002897 0.003117 0.015542 0.029954 0.026160 0.023643 -0.019234 -0.023432 0.021655 -0.001300 -0.017810 0.001133 -0.000770 0.015277 0.007748 -0.001476
778 -0.009874 -0.015164 0.004650 -0.012821 0.006646 0.010592 -0.029860 0.006907 0.001106 -0.000476 -0.016147 -0.018827 0.014959 -0.009976 -0.019769 0.001652
763 0.011551 0.004319 -0.013480 -0.002256 -0.026178 0.008134 -0.019898 -0.024607 0.025532 -0.026527 -0.002621 -0.022605 0.014527 0.026312 0.010719 -0.015165
786 -0.002543 0.015685 0.012930 -0.021006 0.011907 0.026450 -0.026399 -0.017623 -0.020963 0.026132 0.030843 0.010979 -0.001874 -0.007724 -0.024464 0.015324
827 0.000426 0.022120 -0.025224 0.030832 0.024715 0.017639 0.031006 -0.020155 -0.002105 -0.016947 0.003644 -0.003975 0.003862 -0.000867 -0.009997 0.028271
849 -0.005607 -0.012075 -0.028944 -0.030431 -0.011961 0.030126 0.015886 0.018907 -0.026346 0.010765 0.014952 -0.019648 -0.005471 -0.026080 0.018110 -0.010162
1038 0.021005 -0.021796 0.008623 -0.025246 0.001663 -0.024887 -0.026967 0.019666 -0.014940 0.024053 -0.000926 -0.006196 -0.026419 0.025043 -0.015177 0.024935
771 0.027931 0.024162 -0.015346 0.000913 -0.023153 0.025557 0.009203 -0.025063 0.010534 0.016934 -0.012204 0.002239 -0.002722 -0.012585 0.011708 -0.016101
839 0.018018 -0.012822 -0.027314 -0.012001 0.001233 -0.008847 -0.021714 0.021332 0.015130 0.027512 0.016852 -0.011745 -0.012759 0.005122 -0.002909 0.006424
806 0.000978 0.027286 0.018269 0.012315 0.011892 0.022465 0.002579 0.023412 -0.011434 0.007184 0.031091 0.021282 -0.017875 0.017264 0.007538 0.024944
843 0.007903 -0.012058 0.016187 0.007752 -0.008555 -0.006254 -0.010013 0.001705 0.005793 0.007526 -0.008691 -0.006744 -0.027867 -0.003252 -0.012667 -0.013618
829 -0.020077 -0.028088 -0.028861 0.008241 -0.017989 -0.023314 0.001663 0.013130 0.027303 -0.025546 -0.026955 0.019950 -0.013505 0.010570 0.003007 0.003571
858 0.029728 0.001454 -0.020261 0.002920 -0.006605 -0.025850 0.028017 0.029931 0.010943 0.003882 0.019015 -0.003000 -0.022855 -0.027658 -0.030767 -0.015587
936 -0.018899 0.010053 -0.011079 0.003314 0.021501 0.010949 -0.013050 0.013400 -0.022006 0.009070 -0.012066 0.017028 -0.016524 0.030737 0.017135 -0.006999
821 -0.031065 -0.028665 -0.001638 -0.019768 0.025050 -0.010864 0.006661 -0.009158 0.000860 -0.020431 -0.002294 -0.024668 -0.026076 -0.000274 0.002403 0.030788
787 -0.010325 -0.019003 0.010189 -0.014540 -0.019851 0.006879 0.007217 -0.010269 0.020838 0.027968 0.023596 0.012614 -0.019980 -0.024800 -0.027450 0.021321
879 0.016237 -0.027139 -0.008651 0.020952 -0.012505 -0.030254 -0.024592 0.006786 -0.025618 -0.018320 0.026188 0.029867 0.006232 0.029665 -0.014404 0.001348
982 0.014318 -0.008426 0.029118 -0.012808 -0.015000 -0.018037 0.025073 0.023554 -0.006527 -0.020504 0.029979 0.023412 0.014643 0.003137 -0.017967 -0.029244
1055 0.030359 -0.006754 -0.003319 0.013960 -0.004230 0.000803 0.014236 0.018610 -0.013559 -0.003434 -0.010380 0.022579 0.021774 -0.009703 0.007558 0.031196
838 -0.028604 0.028967 -0.028329 0.018150 0.005168 0.018334 0.006509 -0.003080 0.029028 -0.030530 0.011368 0.028242 -0.012019 -0.000464 -0.013911 0.021945
822 -0.002450 0.001223 0.006806 -0.013540 0.023806 -0.022842 0.022955 -0.022264 -0.004337 0.015588 -0.012958 -0.004966 0.027199 -0.009105 -0.023952 -0.019095
856 -0.022366 0.031037 0.027199 -0.013377 0.002880 0.000173 0.009235 0.004509 -0.009477 -0.026100 0.030523 -0.001222 -0.028901 0.026999 -0.015065 0.001160
859 0.000880 -0.029627 0.005068 -0.005570 0.024696 -0.027819 -0.005834 -0.003232 0.010841 -0.023191 0.003391 0.012361 -0.006799 -0.007754 -0.025191 -0.025028
818 0.012643 0.018064 -0.023050 -0.025429 0.008962 -0.016408 -0.016194 -0.026722 0.009193 0.011952 0.024793 -0.030976 0.005331 0.014534 0.004849 -0.025222
793 -0.023769 0.012166 0.001963 -0.015158 0.027247 0.010238 0.009847 -0.022438 0.026384 0.017719 -0.024187 0.012142 -0.016826 0.028074 0.028696 0.005342
850 -0.002018 -0.013165 -0.010767 -0.010166 -0.018408 0.019210 -0.014734 0.009231 0.005929 0.009922 0.010261 -0.022757 -0.023907 0.023075 0.004041 -0.007519
811 -0.005902 0.019313 -0.010446 0.010039 -0.015727 -0.012908 -0.006397 0.023053 0.030356 -0.024858 -0.011664 0.005813 -0.013557 0.029168 -0.027226 -0.026361
832 0.016711 0.019599 0.013454 -0.012090 -0.012430 -0.016576 0.018044 -0.028361 -0.026234 -0.016930 0.024458 0.001940 -0.015220 -0.018189 -0.011244 0.018146
774 0.027675 -0.007045 0.030488 0.018986 -0.013792 0.030296 0.025865 0.019429 -0.021282 0.025353 -0.012135 -0.012336 -0.001770 0.003266 0.026867 0.017329
805 0.020822 -0.014190 0.009845 -0.022906 -0.006036 -0.029248 0.004981 -0.010640 -0.025674 0.011739 0.013499 -0.019452 -0.030381 0.005242 -0.014109 0.024826
861 0.021410 -0.026652 -0.012804 -0.000766 0.021096 -0.001954 -0.016483 -0.025522 -0.016638 -0.006167 -0.009194 -0.025411 -0.017354 0.004110 0.021901 -0.028650
871 0.016552 -0.014844 0.011409 -0.030188 0.013859 0.029552 -0.014512 0.026510 -0.011575 0.026347 0.011355 0.020911 -0.024388 -0.021294 -0.016988 -0.017035
848 -0.025223 0.012268 -0.001770 -0.013164 0.004185 0.006652 -0.020252 0.022454 0.030194 -0.024774 -0.024024 -0.004614 -0.017395 0.018857 0.005627 0.001354
860 -0.005155 -0.000984 -0.029928 -0.018823 0.000903 -0.014943 -0.031157 -0.000216 -0.008077 0.017800 -0.029665 -0.018648 -0.003399 0.019252 0.011028 -0.002876
781 -0.000364 -0.016952 -0.007608 0.003620 -0.000838 0.015815 0.028625 -0.010301 -0.002285 0.018239 -0.026677 -0.028326 0.006246 -0.012158 -0.015561 -0.004727
951 0.016066 -0.000083 0.002504 0.023178 0.019383 0.019652 -0.001088 0.000070 0.015623 0.011059 -0.008129 0.011673 -0.023880 0.001699 0.005489 0.002323
872 -0.018731 -0.003115 -0.029442 0.006420 -0.029027 -0.020449 0.005517 -0.009567 0.020309 -0.005628 0.010057 0.025226 0.001661 0.018244 -0.015647 -0.025356
765 0.029077 -0.000288 0.020756 -0.002735 0.029511 -0.023750 0.027461 -0.029513 -0.028979 0.023079 0.009879 -0.012770 0.023075 -0.020040 0.029666 0.003589
853 0.014155 0.002205 -0.005742 0.009620 0.003689 0.007240 -0.000030 -0.025243 -0.014031 0.019380 -0.011463 -0.012664 -0.008326 -0.009433 0.013482 0.003932
797 -0.006847 0.010450 0.002588 0.007585 -0.016082 0.018918 0.010814 0.014005 -0.021257 -0.011063 0.012141 0.027878 -0.009410 0.027811 -0.005660 -0.008576
846 -0.013719 0.011566 0.028562 -0.003849 -0.001489 -0.022660 0.015869 0.001164 0.015887 -0.007615 0.001206 -0.015798 -0.028661 0.002030 0.001083 0.008130
768 -0.014362 0.028470 0.017383 -0.011962 -0.001414 -0.008878 0.002072 -0.008419 0.008192 0.004581 0.013808 0.019172 0.020344 0.026576 -0.005891 0.001546
775 -0.016869 -0.007056 0.012780 -0.000176 0.004879 0.026768 0.009776 -0.001462 -0.004174 -0.022689 0.001734 -0.012760 -0.000920 0.029498 -0.003745 0.012004
845 -0.006405 0.018583 0.010809 0.010966 -0.018660 0.027304 0.030898 0.000361 0.025527 -0.015540 -0.015813 0.015075 0.023934 -0.013484 0.028430 0.026194
862 -0.015777 -0.011423 -0.007875 -0.018306 0.003166 0.003914 -0.005877 -0.026183 0.017359 -0.021311 -0.020747 0.001068 -0.029551 0.005499 -0.005533 0.004430
863 -0.024817 -0.021996 -0.016526 0.000563 0.031131 -0.025857 -0.024610 -0.024039 0.019996 0.018650 -0.022457 -0.021820 -0.021056 -0.024514 -0.017659 0.020141
779 0.029113 0.030441 -0.019628 -0.014077 -0.008791 0.007709 -0.023078 -0.018369 -0.022180 0.021115 -0.018875 0.018106 -0.023006 -0.007424 -0.010245 -0.027942
840 0.029128 -0.012300 0.008198 0.018153 0.024852 -0.000202 -0.018904 0.027501 0.028260 0.022221 0.012455 -0.024037 0.023421 -0.016175 -0.004442 0.025571
808 0.011058 -0.003623 -0.001730 0.007329 -0.014369 -0.003177 0.015643 0.022796 -0.023077 0.009918 0.028213 0.005866 -0.015265 0.017480 -0.030943 0.018129
783 0.020243 -0.000139 0.020887 -0.000608 0.002238 -0.028304 0.001819 -0.002765 -0.001880 -0.014586 -0.019349 -0.008499 -0.011490 -0.012109 -0.014103 -0.005566
796 0.009761 0.015817 0.019274 0.023722 0.018961 -0.021693 -0.006244 -0.016877 0.000970 -0.004890 0.030222 0.020692 0.028319 0.001770 -0.022480 0.010818
782 0.007552 0.015956 0.019318 -0.024276 -0.031239 -0.005310 0.019016 -0.030450 0.017958 -0.017970 0.014402 0.010688 0.017883 -0.030643 -0.004759 0.017057
836 0.010100 0.019145 -0.029294 -0.008876 -0.015679 0.029788 0.026156 0.025955 0.017071 -0.015355 0.006856 -0.031110 0.026406 -0.025921 -0.028113 0.014990
34 0.006877 -0.029384 0.009829 -0.027691 0.014258 0.012300 0.022222 -0.025860 -0.016117 0.006777 0.004292 -0.015264 0.012422 0.006695 -0.014513 0.010610
834 -0.018707 0.024377 0.011082 -0.005363 0.003661 -0.007664 0.030362 0.028417 0.011623 -0.020049 -0.023178 -0.018499 0.025030 -0.029788 -0.003055 0.030587
864 0.002985 -0.007833 -0.015426 0.007849 0.001393 -0.021723 0.002097 0.000918 0.024927 -0.017610 -0.029651 -0.005959 0.013767 -0.009549 0.002472 -0.001536
784 -0.005812 0.001302 0.023148 0.013716 -0.019539 -0.027439 -0.008740 0.021859 0.029113 -0.020536 -0.012685 -0.013807 0.008060 0.025084 -0.016474 -0.000208
854 -0.003247 0.010269 0.016962 0.018942 0.004904 0.001826 -0.003507 0.013794 0.027628 0.014822 -0.023829 0.026555 -0.027780 -0.006240 -0.021285 0.018445
841 -0.000866 0.028777 -0.005282 0.025409 -0.014585 0.013095 0.002310 -0.017892 0.014200 -0.001748 0.026961 -0.000434 -0.001658 0.017281 -0.003722 -0.029400
769 -0.018344 0.013294 -0.023885 0.009476 -0.021642 -0.026855 -0.022372 -0.016796 0.028802 -0.020515 -0.015910 -0.007388 -0.013978 0.024820 0.015975 -0.016331
966 0.030199 -0.013274 -0.022857 -0.010715 0.014579 -0.024964 0.015970 0.028078 -0.006794 0.017654 0.023185 0.030253 -0.030022 0.017942 -0.012695 -0.012597
810 -0.017065 0.024621 0.018364 0.012945 0.003977 -0.013539 -0.019188 0.024426 0.002461 0.028900 -0.028625 0.029995 0.003320 -0.029071 -0.024587 0.030164
812 0.013123 -0.010431 -0.000939 -0.026474 0.021108 0.002788 -0.029548 0.013328 0.029417 0.024022 -0.001143 -0.003265 0.012713 -0.010741 0.003558 -0.011835
831 0.025383 0.030330 -0.026448 -0.025823 -0.019824 0.014416 -0.022745 -0.005602 -0.024123 0.014691 -0.001561 -0.023233 0.006477 0.006848 0.002040 0.005265
788 -0.031100 0.014497 -0.010786 -0.027908 -0.002038 0.014251 0.021056 0.027036 -0.021809 -0.010313 -0.014772 0.021335 -0.028766 -0.013964 0.001545 -0.022739
960 0.013802 0.006886 0.005515 0.012267 -0.012157 0.017259 -0.017806 -0.025040 0.022637 -0.029358 -0.010748 0.001787 -0.014000 -0.000131 0.029382 0.015004
1005 -0.010624 0.008002 -0.016635 0.006340 0.029382 -0.007368 -0.008031 0.023163 0.002541 -0.024859 -0.022319 0.014231 -0.018782 -0.025857 0.012880 0.000651
830 -0.019756 0.007353 -0.019162 0.015508 -0.017079 0.028446 -0.014878 0.015042 0.006116 0.006280 -0.025526 0.000828 0.001689 0.020537 -0.018487 -0.026803
833 -0.015242 -0.028323 0.019333 -0.000442 0.020062 -0.015068 -0.013201 0.002690 0.008157 0.015802 0.031119 0.007109 0.001038 0.026623 -0.022709 0.001560
1138 0.021755 0.025824 0.008724 -0.013707 -0.008957 0.002200 -0.024563 0.007706 0.027630 -0.027764 0.007602 0.019733 -0.014940 0.009704 -0.012299 0.023780
902 -0.002883 0.026093 0.015808 -0.001077 -0.005337 -0.019435 0.023979 0.024647 -0.014145 0.028786 0.029023 0.008378 0.014677 -0.006567 -0.020525 -0.016562
1741 0.028762 -0.001921 0.020498 0.027756 -0.022432 -0.006048 -0.017243 -0.006184 -0.020399 0.020141 -0.021685 -0.009094 0.017971 0.012363 -0.025922 -0.022879
751 -0.017331 0.016581 0.001027 -0.017530 0.031136 0.000007 0.026228 -0.011966 0.011826 -0.009445 0.002558 -0.015446 -0.020039 -0.003631 0.021071 0.025206
1712 -0.013858 -0.010845 0.002620 -0.010556 -0.021957 -0.020954 -0.020153 0.003110 -0.016416 0.016128 -0.012802 0.027478 -0.021708 0.027867 0.008325 -0.003637
1027 -0.017799 -0.029502 -0.022192 0.016068 0.020243 -0.002939 -0.019749 -0.020473 -0.021050 -0.002936 0.024462 0.015096 -0.011763 0.031036 0.027967 0.029016
1212 0.008090 0.004409 0.017129 0.013967 -0.007247 -0.019677 0.014684 -0.000552 -0.001979 -0.013407 -0.026015 -0.019664 0.006082 -0.027813 0.018855 -0.023448
1378 0.013886 0.018289 -0.021292 0.023627 -0.014447 -0.012849 -0.000855 -0.029229 0.000889 -0.020074 -0.010670 -0.006208 0.030853 0.009052 -0.026306 0.022680
1725 0.017514 -0.015757 -0.008133 -0.019765 0.013838 -0.004681 0.016553 0.028923 -0.011645 -0.015451 0.007590 0.002645 -0.019887 -0.001400 -0.013108 -0.030849
1351 -0.028178 0.016126 -0.015573 0.020382 -0.006509 0.002699 0.028703 0.016140 0.028843 0.023996 0.004389 0.008186 -0.021921 -0.019726 0.002115 -0.000729
1668 0.014156 -0.015268 0.029109 -0.003531 -0.011618 0.000036 0.006660 0.008052 -0.013026 0.004176 -0.023721 0.017691 -0.025537 -0.004160 0.011069 -0.000614
1102 -0.015170 0.017697 0.020970 0.024043 -0.001466 0.012625 -0.027712 -0.000420 0.006787 0.015216 0.025441 0.019190 -0.029135 0.028639 -0.008923 -0.003217
1505 -0.001739 0.001305 0.007631 -0.005024 0.028474 -0.003641 0.008089 0.008139 0.026272 0.009495 0.014760 0.022472 0.020842 -0.018021 0.021745 -0.013279
1486 -0.029840 -0.019067 0.006089 0.026634 -0.022105 0.030482 0.028176 -0.007725 0.021225 -0.017474 -0.022232 0.016701 -0.024867 0.017558 -0.026067 0.002547
1336 0.013664 0.004478 -0.026890 0.025120 -0.014493 0.028284 -0.021406 0.028592 -0.002678 -0.010154 -0.024955 0.027225 0.005346 0.027097 -0.008195 0.002368
1074 -0.021885 -0.029037 -0.020502 0.001308 -0.019171 -0.017273 0.011705 -0.023632 0.029113 0.003489 0.016645 -0.019443 0.015289 -0.030843 -0.003576 0.023104
928 -0.020534 -0.021361 0.028118 0.000988 -0.022829 0.027424 0.022830 -0.002886 0.002880 -0.030342 0.014186 0.027929 0.026010 0.010289 0.009479 0.003608
1348 -0.015117 -0.008268 0.026965 -0.015028 0.012074 0.028075 0.001358 -0.005446 -0.014116 0.022566 0.025485 -0.018853 -0.024988 0.001716 -0.015240 0.007566
1454 -0.019705 0.005337 -0.027794 -0.008247 0.005005 0.007970 0.008151 0.025818 0.014294 -0.007651 -0.021810 -0.003083 0.002996 -0.030633 0.026550 -0.010430
1341 -0.020367 0.022009 -0.019451 -0.012463 -0.018715 0.025043 0.016816 -0.026217 -0.021091 0.016128 -0.000282 -0.011632 -0.012681 -0.007556 -0.027663 0.000007
1329 0.014187 -0.012566 -0.017670 0.019061 0.000126 -0.030416 0.028949 0.022363 -0.023905 0.011547 0.011889 -0.009514 0.025356 0.026603 0.011677 0.011889
1501 0.006693 0.003613 0.001759 -0.014062 -0.016645 0.019571 -0.029548 -0.002866 -0.001060 0.014752 0.002899 0.016280 0.012000 -0.019195 -0.023439 -0.011536
1527 0.021143 0.026180 0.005154 -0.000388 0.021708 -0.027937 -0.026477 0.001439 -0.017594 -0.027964 -0.018927 0.025366 -0.011767 0.010798 0.017907 0.027479
1466 -0.001812 0.008812 0.027576 -0.009081 -0.017007 -0.027500 -0.024070 0.003377 -0.022689 -0.021452 -0.005023 -0.016418 -0.001842 0.020162 -0.017176 -0.020424
1648 -0.007598 0.029425 0.023133 -0.028780 0.028611 0.006048 0.029609 0.023358 -0.013059 0.006852 0.000641 0.025844 -0.019487 -0.022117 0.031147 0.021536
938 0.017048 0.006355 0.027421 0.006860 -0.022900 -0.007040 -0.027943 -0.017419 -0.002687 -0.002786 0.001963 -0.012555 -0.002704 -0.008440 0.009347 -0.013929
1056 0.002801 -0.015442 0.011334 -0.015014 0.024383 -0.007574 -0.025241 -0.010609 -0.005638 0.023368 -0.025806 -0.010361 0.006892 0.030334 -0.027042 -0.012526
1091 -0.004084 -0.029300 -0.027148 -0.011537 0.029721 -0.001637 -0.013848 0.024460 -0.020889 -0.015599 -0.002088 -0.004056 -0.015872 0.028954 0.000921 0.027006
1245 0.019321 0.010448 0.016755 0.030691 -0.011568 0.029846 0.009482 0.022601 -0.010827 0.009247 -0.021962 0.008126 -0.001029 -0.028464 0.021732 -0.003348
1556 0.004571 -0.021923 0.003786 0.002092 -0.001819 -0.008362 -0.017025 -0.000483 -0.003882 0.026789 0.011641 0.007631 0.014841 -0.021897 0.003838 -0.015642
887 0.008703 0.021337 -0.006354 -0.027417 -0.030214 -0.015757 0.004576 0.025375 -0.008133 -0.029807 -0.022286 0.013978 -0.029278 -0.002743 -0.007731 -0.002680
1163 -0.024495 0.003840 0.024199 0.005098 -0.028536 0.030184 0.031115 0.015545 -0.023534 -0.024314 -0.015105 -0.026951 0.006207 0.010584 0.007931 0.026031
1732 0.010327 -0.015218 -0.026743 -0.004500 0.010024 0.003387 -0.019805 -0.024637 -0.016830 0.018919 -0.009761 -0.017901 0.006963 -0.017666 0.012927 -0.021591
759 0.009212 0.006160 0.021422 0.025177 0.008121 -0.011904 0.019065 0.010150 0.006612 0.004250 0.026961 0.002438 -0.002185 -0.014248 -0.014009 0.026050
1691 0.008955 0.027075 0.018186 -0.016084 0.005878 -0.027392 0.005067 -0.016390 -0.024324 -0.003260 -0.014884 -0.001510 -0.021113 0.018493 0.016836 0.030017
1599 -0.024477 0.025111 0.004291 -0.003036 0.011781 -0.018023 -0.010762 -0.027181 -0.025450 0.005238 0.025790 0.012783 -0.010607 0.012362 -0.003397 0.023361
1164 0.020125 0.023244 -0.005172 0.016573 -0.030644 0.007844 -0.026333 0.021815 -0.008982 -0.005836 -0.026592 -0.005847 0.026911 0.010227 0.006537 -0.019036
1590 -0.016774 -0.020088 -0.012416 0.022806 -0.014361 -0.000241 -0.028632 0.029162 0.018555 -0.010466 -0.029994 -0.028155 -0.026256 -0.013452 -0.006747 -0.019764
1567 -0.005988 0.007038 -0.025936 -0.022470 0.025836 0.006735 0.026496 0.018241 0.029326 0.022718 0.018706 -0.008155 0.012656 -0.028600 0.021439 -0.026625
1185 -0.020569 -0.027768 0.000126 0.017441 -0.007627 -0.004262 -0.026391 0.003441 -0.026369 -0.018847 0.023425 -0.029734 0.006175 0.006119 -0.025089 -0.029043
800 -0.003347 -0.009042 0.027864 -0.018257 0.009614 -0.008702 -0.013699 -0.005516 -0.019003 -0.008943 -0.016577 -0.015607 0.009859 0.027153 -0.019254 -0.001447
908 -0.009076 0.002981 0.019922 0.006198 0.022238 0.023792 -0.012996 0.002399 -0.015897 -0.011239 0.025915 0.024360 -0.003460 0.001638 0.005411 -0.017264
890 -0.016009 0.001051 0.029684 0.003142 -0.005659 -0.008961 -0.029671 0.021663 0.023635 -0.027196 -0.023640 0.004295 -0.027096 0.021144 0.000113 0.000674
1279 -0.013116 -0.031230 -0.008973 -0.006112 0.008982 -0.029269 0.022359 -0.015594 -0.000111 -0.011501 0.002318 0.019090 0.012382 0.001873 0.007842 0.022899
1482 0.014862 0.024070 -0.016641 0.022928 -0.030425 0.010705 0.010201 -0.030374 0.020907 0.009274 0.021001 -0.005177 -0.013537 0.007687 0.004732 -0.002433
817 -0.012112 0.013091 -0.014294 -0.002327 -0.014482 -0.016883 0.017827 0.007292 -0.017169 -0.026531 0.006837 -0.018618 0.011656 0.023715 0.024405 0.001129
1496 -0.007628 0.022736 -0.003139 0.004664 -0.008795 0.011093 -0.018057 -0.024369 -0.015879 -0.026530 -0.021373 0.001997 -0.024498 -0.021240 -0.022905 0.011132
1623 0.001184 -0.002873 -0.013436 0.023387 0.027565 0.010984 -0.012033 0.028605 0.016000 -0.017474 -0.016164 0.019375 -0.014781 -0.029791 0.001440 -0.015854
1081 0.028950 0.008637 -0.026836 0.006473 0.004860 0.029345 0.011606 0.012940 -0.024431 0.018562 0.012990 -0.008604 -0.025956 -0.010090 -0.003034 0.007738
918 -0.018564 0.018405 -0.022718 0.026798 -0.008693 0.007707 0.002497 0.013363 -0.028487 0.018755 -0.002294 0.003997 0.015038 -0.010797 0.012966 -0.015385
1616 0.017907 -0.008881 -0.019717 -0.027678 0.002509 0.002110 0.002119 -0.005576 -0.029109 -0.010623 -0.019417 0.009187 0.009210 -0.000229 0.001414 -0.009979
1068 0.022185 -0.014840 0.000797 -0.023818 -0.018239 0.016388 0.019987 0.010725 -0.000359 0.021351 -0.031044 0.029758 -0.001267 0.011555 -0.013402 0.021403
1317 -0.004055 -0.031079 0.022673 -0.002776 -0.030680 -0.027491 0.015500 0.008664 -0.000154 0.007506 -0.017263 0.008906 0.013992 0.023492 -0.024914 0.029009
1080 -0.020011 0.010034 -0.006579 -0.027296 0.019232 0.024704 -0.028148 -0.016570 -0.001162 0.002577 -0.028035 -0.006156 -0.010270 0.023789 0.004004 -0.025413
1260 -0.025914 0.014840 0.012136 -0.021776 0.009362 -0.012691 0.024113 -0.021021 0.020919 0.024717 0.021586 -0.017194 0.023592 0.018848 0.025309 -0.012311
1175 -0.009659 0.019533 0.025062 0.003360 -0.013851 0.000238 -0.007324 -0.009820 0.003412 -0.016547 -0.004521 0.015394 0.021472 0.011809 -0.029966 -0.021259
1498 -0.006891 0.012670 0.005747 0.021905 0.000848 0.023755 0.021538 0.009899 0.021620 0.012333 0.018565 -0.010277 0.019549 0.003359 -0.006536 0.014973
1082 -0.005284 -0.022112 0.023422 -0.020279 0.015887 0.026278 0.021816 0.022678 -0.028787 0.016387 -0.005418 0.016115 0.010190 0.028272 -0.018524 0.029983
1730 0.002355 0.030575 -0.015062 -0.016571 0.030900 -0.027579 0.026893 0.026416 -0.010542 0.018452 -0.026882 -0.027262 -0.001298 -0.021552 -0.020217 0.022361
903 0.008253 0.010211 0.019912 -0.001421 0.005102 0.013816 -0.026492 0.015298 0.029225 -0.016712 0.019660 0.006173 -0.012300 -0.017225 -0.004853 0.006271
1248 -0.024429 0.025519 0.004822 -0.030257 0.028512 0.009036 0.015456 -0.002367 -0.013646 0.013732 -0.019392 0.025246 0.016306 -0.025638 -0.020452 0.023604
1303 -0.020787 0.005212 -0.013328 -0.019360 0.025108 0.025489 -0.027585 0.010641 -0.025076 -0.026092 0.001278 0.001810 -0.026173 0.014222 0.003427 0.021145
1194 -0.028930 -0.010992 -0.023898 0.009401 0.005389 0.011814 0.014424 -0.000201 0.025483 0.018093 0.011641 -0.003936 0.027125 -0.016138 -0.013070 -0.025795
1607 0.026709 -0.019307 0.006269 0.008250 -0.007465 -0.020670 -0.013020 -0.010059 0.006494 -0.016337 -0.026293 -0.022187 0.023124 -0.009583 0.010882 -0.024177
926 -0.030683 0.028861 -0.008683 0.018239 0.020182 0.026581 -0.009526 0.010151 0.022499 -0.026884 0.016983 0.016370 -0.008681 0.014849 0.031227 -0.000150
1101 0.011977 -0.005950 -0.007019 0.001781 -0.030766 -0.003023 0.020041 0.013685 -0.012863 0.001559 0.004628 0.024002 -0.028419 -0.020422 -0.028109 -0.011619
1374 0.024790 -0.019821 0.004332 -0.002947 0.024133 -0.024957 0.005737 0.030921 -0.025163 -0.029015 -0.012291 0.008083 0.009937 -0.015179 -0.031162 0.024414
1695 -0.011163 0.009662 0.013856 -0.025957 -0.004382 0.024509 -0.021189 -0.018862 -0.025684 -0.015504 -0.010680 0.023576 -0.013379 0.017180 0.018734 0.030157
1128 -0.002902 0.017994 -0.024346 -0.008099 -0.028679 -0.014761 -0.024081 0.024346 -0.009926 0.026503 -0.003062 -0.001036 -0.010482 -0.011246 -0.024916 -0.031098
1090 0.012508 -0.017395 0.024138 0.007519 0.004069 0.009267 -0.010440 -0.012089 -0.028778 -0.021114 -0.021706 -0.025162 0.000433 -0.002175 -0.011646 0.023901
1152 -0.027892 -0.020669 0.013863 0.005728 -0.020646 0.000933 -0.005964 -0.027455 0.030042 -0.007740 -0.021593 0.015009 0.015671 -0.029769 0.004685 0.025888
1439 -0.005977 0.023851 -0.028684 0.023550 0.015531 0.028536 -0.012672 0.013096 0.030146 -0.005567 0.029406 0.024980 0.023494 0.018403 -0.022435 -0.002543
1609 0.004095 0.000636 -0.021357 -0.022276 -0.008834 -0.018545 -0.004633 -0.006560 -0.022516 0.019276 -0.002137 -0.026944 -0.013742 -0.013532 0.016354 -0.008601
1489 -0.019043 0.007543 0.000844 0.025228 0.031048 0.004340 0.021403 -0.002031 0.022861 -0.030462 -0.002987 0.009430 0.028862 0.026890 -0.010054 0.004636
1423 -0.020353 -0.020541 -0.020789 -0.030090 -0.024485 0.014358 0.005530 -0.010984 -0.021580 -0.027234 -0.001925 -0.018356 0.011113 0.025947 0.028844 -0.021130
1272 -0.010261 0.019690 -0.003741 -0.021735 -0.031033 -0.016810 0.024109 0.000825 0.018723 -0.007422 -0.006044 0.003734 0.023333 0.025156 0.023774 0.022454
1016 -0.015442 0.014613 0.009833 -0.019532 -0.026452 -0.007019 0.000898 0.013505 0.003012 0.006584 0.027849 -0.028455 0.007277 0.020901 -0.005906 0.010220
1222 0.019707 0.012522 0.019367 -0.023782 0.019182 0.024186 -0.013004 -0.025150 -0.030461 0.013327 0.011561 -0.028219 -0.013279 -0.027741 -0.030724 -0.013059
937 -0.017656 0.023228 -0.008829 0.004309 -0.002391 0.012321 -0.012874 -0.006085 0.008266 -0.008700 0.004318 -0.027876 -0.001381 0.017231 0.014399 -0.019958
988 -0.012433 -0.013980 0.014372 0.008780 -0.015812 0.004971 -0.021567 0.027511 0.023841 0.006630 -0.001254 0.005700 -0.001739 -0.018037 -0.014073 0.007351
1418 -0.002885 0.019776 -0.010551 -0.023580 -0.025865 -0.024327 0.023155 0.018728 -0.029467 -0.029948 -0.030346 -0.009341 0.026785 0.022009 -0.006983 0.027698
1726 -0.014025 0.029633 0.028923 -0.014347 -0.008004 0.020268 -0.016130 0.009085 -0.011863 0.008070 0.018485 -0.018531 0.021042 0.020693 -0.021694 0.004565
1521 0.022105 -0.009280 0.018138 -0.012819 -0.007298 0.023138 -0.026918 0.020733 -0.022355 -0.029056 -0.008081 -0.007376 0.025174 -0.010451 0.007135 -0.028100
956 -0.024577 0.030903 -0.015150 -0.013013 0.014751 0.019266 -0.020568 0.012037 0.023862 -0.013323 -0.017276 0.027113 0.027869 -0.025504 0.003172 0.027857
1582 0.010611 -0.014382 -0.030153 0.007105 -0.012407 -0.016103 0.001479 -0.024069 0.005096 0.009861 0.000076 0.024866 0.021644 -0.006768 -0.016130 -0.021504
823 0.029402 0.002381 0.018256 0.012410 0.000407 -0.025307 -0.021192 0.020665 0.012799 -0.027386 -0.000835 0.029414 0.021319 -0.017067 -0.025989 0.028245
1631 -0.010708 -0.002859 0.027486 0.003224 -0.007494 0.006697 0.019536 -0.011595 -0.011945 0.013266 0.027428 -0.000686 0.023122 0.007403 -0.025079 -0.013362
992 -0.010649 -0.014695 -0.024834 0.019410 -0.002487 -0.018701 -0.017147 0.021323 -0.026582 0.020843 0.026050 -0.015029 0.018063 0.028155 0.020944 0.001728
1029 -0.012739 -0.026449 0.006991 0.016673 0.004150 0.018130 -0.029898 -0.001553 0.006178 -0.010451 -0.023722 -0.025549 -0.018598 0.019867 -0.011649 0.005341
1671 0.022605 0.024645 -0.026152 -0.007211 0.025165 0.000757 -0.010117 0.011478 -0.012719 -0.004970 -0.018197 -0.024863 0.004288 -0.003005 -0.016854 0.010168
1257 0.001191 -0.007296 -0.027740 -0.021800 -0.009071 -0.026124 0.029936 -0.029853 0.011707 -0.030958 0.015879 -0.005993 0.008311 -0.013423 0.020290 -0.019948
1026 -0.009866 0.003720 -0.003536 -0.019867 0.004137 0.005679 0.027647 -0.001908 -0.009732 -0.030645 0.028263 0.011672 -0.017418 0.001564 0.007735 0.021471
801 0.002535 0.018886 -0.021001 0.024986 -0.009768 -0.015602 0.029888 -0.021673 0.014185 0.004296 0.005112 -0.005016 0.013790 -0.002516 0.001265 0.026431
1530 0.003210 0.016751 0.022763 -0.014999 0.007818 0.007055 -0.009684 0.025386 0.017047 0.026840 0.001070 0.003077 -0.003921 0.013468 -0.016886 -0.011196
1181 -0.004585 -0.024397 -0.029214 -0.012286 -0.019389 -0.013879 -0.030815 -0.024915 0.020831 0.015150 -0.027503 -0.023726 0.007678 0.009170 -0.005964 0.002292
1710 0.003718 0.021642 0.025479 0.014349 0.000429 0.023459 0.021471 0.025113 0.026773 -0.027949 -0.008938 0.024738 0.024197 -0.030240 0.005795 -0.028872
1135 -0.017630 0.001790 -0.021770 0.009095 -0.007834 0.000107 0.021542 0.013922 -0.015871 -0.020025 0.016921 0.007463 -0.008875 -0.004280 -0.030215 0.020967
1666 0.019428 0.021265 -0.010457 0.010234 -0.026447 -0.010548 -0.022547 0.006842 0.016140 -0.009432 -0.026101 0.025772 -0.004756 -0.024232 0.004137 0.009759
1020 -0.028656 -0.023654 -0.026706 0.029118 -0.017855 -0.031116 0.024103 -0.003366 0.025133 0.027814 0.002748 -0.029050 -0.016624 -0.000417 0.003077 -0.016462
855 -0.006702 -0.003318 -0.005984 -0.015664 0.016052 -0.012327 0.023816 0.006150 -0.012290 0.000048 0.016746 -0.008482 -0.027608 -0.028044 -0.005881 0.027406
1706 -0.018148 -0.028628 -0.012080 0.011438 0.016027 0.016172 0.025345 -0.011744 -0.017776 0.025710 -0.003869 0.009719 -0.019781 -0.018535 0.018921 0.026619
1162 -0.002009 -0.005748 -0.003139 0.020720 0.029300 0.007205 0.003121 0.027885 -0.023339 0.000985 -0.017255 0.029819 0.000712 0.014015 0.000048 -0.015728
1184 -0.003635 -0.002050 0.011577 -0.003676 0.028924 0.005013 -0.028012 0.025939 0.006954 0.019840 -0.024808 -0.015764 -0.021806 -0.027093 -0.018811 -0.001090
1424 0.024572 0.021836 -0.004134 0.009063 0.021567 0.020466 -0.015712 0.002262 0.002146 -0.029649 -0.015376 0.016020 -0.025906 0.023070 0.008814 -0.016058
1683 -0.017388 0.020736 -0.028271 0.028437 0.002059 0.009501 -0.013712 -0.005151 0.030714 -0.023319 -0.024612 0.001923 0.027657 0.002627 0.004402 0.008606
954 0.022913 -0.016089 -0.030689 -0.000742 -0.004851 -0.008838 0.026795 0.019858 0.027887 -0.006757 -0.003654 0.017890 -0.017001 0.005819 0.000868 0.004737
948 0.014694 -0.023019 0.016510 0.009578 -0.003181 0.010118 0.028000 -0.017822 -0.023511 0.030919 -0.000641 -0.013849 0.027859 0.014835 -0.002817 0.030438
1749 0.028094 -0.014983 -0.010511 0.004241 0.020650 -0.001104 -0.010563 -0.023389 0.009557 0.022006 0.018902 0.024012 0.006464 0.002949 -0.024904 0.029066
1670 0.018874 0.010801 -0.027178 0.010219 0.023452 0.001095 -0.011491 -0.007483 0.005544 0.005521 0.022806 0.011570 0.000416 0.016649 0.024930 0.005442
1714 -0.025756 0.004192 -0.007105 -0.002753 0.020151 0.013418 0.007734 0.021709 -0.024905 0.031088 -0.025882 -0.024805 -0.015014 -0.026296 0.004995 -0.003989
1168 -0.014069 -0.030900 0.029659 0.020496 0.014910 -0.024054 -0.024271 -0.019663 0.026230 -0.007863 -0.001034 0.009344 0.014637 -0.010883 0.030198 0.020898
1046 -0.015570 0.018667 0.018256 0.000591 0.016357 0.028903 0.006555 -0.019289 0.023542 0.023150 0.021831 -0.003432 -0.028699 -0.023242 0.012526 -0.000039
1293 0.027088 -0.022540 0.020510 0.019528 -0.005388 -0.027216 0.010387 0.023916 -0.004838 -0.004600 0.003339 -0.002193 0.023154 -0.000760 -0.023386 -0.009894
847 -0.004573 -0.026985 0.020385 -0.028622 0.006801 -0.003709 -0.030835 0.028774 0.031180 -0.013541 0.002838 -0.016493 0.024610 -0.002641 -0.005108 0.015536
754 0.030274 0.012970 0.005747 -0.005384 0.006392 0.024963 0.010903 -0.028209 -0.000683 0.031039 -0.011289 0.020475 0.002504 0.011734 -0.004831 0.016676
1411 0.031058 -0.016733 0.008500 -0.017007 0.009406 -0.013444 0.020940 -0.014952 -0.022947 0.021102 -0.021246 -0.011463 0.013900 -0.017711 -0.026098 0.014544
1702 0.007510 -0.005008 0.030358 -0.010358 -0.012384 0.027284 0.022945 0.019743 -0.024562 0.024154 0.019998 -0.015399 -0.025015 -0.024340 -0.014094 0.011897
1137 -0.023621 0.006524 0.010199 -0.000875 -0.004394 0.001013 -0.006720 -0.012740 0.009244 -0.029493 -0.021683 -0.004710 0.021924 -0.016659 -0.023403 -0.009217
1266 -0.022200 -0.015016 0.027047 0.005382 -0.015258 -0.026834 -0.021556 -0.029567 -0.001556 -0.000356 -0.019464 0.000196 0.016135 0.001555 -0.030771 -0.019546
1456 0.025064 0.004942 -0.027231 -0.024763 0.021806 -0.018516 0.028566 0.001382 -0.022106 -0.028319 0.012490 -0.018055 0.009541 -0.026323 0.029627 -0.021100
1655 0.001705 0.002797 0.002821 0.023885 -0.030617 -0.001580 0.023612 -0.029025 -0.013973 -0.005932 -0.021342 0.012708 0.025059 -0.006298 0.011509 -0.024479
1204 0.022024 0.001107 0.009818 -0.027176 0.029066 0.014289 -0.018582 -0.011905 0.011605 -0.006745 0.005166 -0.007431 0.002887 0.014817 0.002638 0.014781
1473 -0.030622 -0.009419 0.013612 0.017721 -0.024317 -0.025934 -0.012657 -0.031057 0.014153 -0.003302 0.005903 0.002728 0.014758 -0.007474 -0.004782 0.010835
1478 -0.022515 0.001444 0.016339 0.026272 0.003373 0.002637 0.006540 -0.004955 -0.005928 0.003566 0.018864 -0.012130 -0.029695 -0.016278 0.020726 -0.017739
1312 0.009789 0.021959 0.017144 -0.026370 -0.019888 -0.030745 -0.021323 -0.009995 0.013071 -0.000929 -0.005476 0.019349 0.008636 0.029282 0.014499 -0.029419
1376 0.007808 -0.013177 0.000265 0.009895 -0.009112 -0.012899 0.002806 0.007622 0.018947 0.014421 -0.031200 0.016630 0.025736 -0.015580 0.030877 0.018566
1638 -0.014869 -0.007348 0.016475 -0.012612 0.026840 0.017116 0.010442 0.020856 -0.003079 -0.020613 -0.030530 -0.000711 -0.013749 0.022917 0.030923 -0.005681
1571 0.004477 -0.012962 0.022962 -0.008056 -0.005488 0.011624 -0.016668 0.008757 -0.024850 -0.023857 -0.025075 0.013947 0.020142 -0.029664 0.006467 -0.020513
1267 0.011891 -0.002652 0.012573 -0.020006 -0.023247 -0.031113 -0.016548 -0.001845 -0.004864 -0.001129 0.006348 0.018365 -0.027537 -0.005640 0.011837 -0.029408
1438 -0.028959 0.020196 -0.012965 -0.013591 -0.000140 -0.012445 0.021896 -0.008760 0.011027 0.003646 -0.019385 -0.027381 0.001204 -0.025131 0.010915 -0.027215
1528 0.029319 0.023943 0.023108 -0.018808 -0.023275 0.016747 0.029304 0.017835 -0.010017 -0.008609 -0.008896 -0.003106 0.011879 0.023613 -0.008820 -0.003370
1736 0.002740 0.013843 0.030715 0.027829 0.030965 -0.011205 0.013229 0.013492 0.020176 -0.010174 0.016217 0.018513 0.027633 0.018692 0.019277 0.007798
1094 -0.027099 0.022302 -0.024440 -0.028716 -0.002948 -0.005878 -0.005546 -0.023200 0.005796 -0.008808 0.001670 0.022974 -0.010387 0.015023 -0.020853 -0.020638
1580 -0.028990 -0.005097 -0.026716 0.005310 0.006549 0.009661 -0.011515 0.020549 -0.001264 -0.015496 -0.014442 -0.001870 -0.021772 0.012621 0.022525 0.029686
1342 -0.025579 0.006844 -0.011389 -0.001928 0.022729 -0.006564 0.013093 -0.006373 -0.026758 -0.010531 0.017953 -0.026492 -0.022783 0.009055 -0.018545 -0.029848
1568 0.012801 -0.026489 0.029898 -0.024273 -0.009087 0.029005 0.021124 -0.010560 0.027574 -0.025671 -0.015329 -0.022382 -0.030719 -0.010750 -0.015171 0.007038
1412 0.012964 -0.015966 0.023336 -0.006183 0.001820 0.009195 -0.021097 -0.018393 0.012335 -0.028555 -0.003365 -0.006003 -0.029741 -0.018234 0.022861 -0.024549
1215 -0.028850 -0.020173 0.017310 -0.002857 -0.021879 -0.024154 -0.005940 0.016635 0.008496 -0.021766 -0.006654 -0.027542 -0.029706 0.026063 -0.003659 -0.009198
1731 -0.018317 -0.028081 -0.028468 0.005135 -0.006147 0.028898 0.020792 -0.023544 0.022980 0.011287 -0.007766 0.030705 0.002254 -0.002058 0.028705 -0.013492
1354 0.005361 -0.013804 -0.029016 0.005279 0.011574 0.012077 -0.029939 0.003023 0.003947 -0.011553 -0.018564 0.006939 -0.020467 0.015069 0.027958 0.020773
1674 -0.008799 0.007255 0.013136 -0.016013 0.029877 0.003530 -0.026421 0.015747 0.015499 -0.021789 -0.022518 -0.014791 -0.008658 -0.008307 -0.015545 -0.002784
1569 -0.018982 -0.008505 0.026463 0.028169 -0.024534 0.019371 0.009634 -0.000428 0.028047 0.000553 0.020838 -0.007312 -0.021726 0.001104 -0.014292 0.011956
1579 0.012635 -0.028608 0.029431 -0.019105 -0.010479 0.028351 0.003042 0.007765 -0.026757 -0.023039 0.001801 -0.018072 0.014602 -0.015798 0.014140 0.021215
1605 -0.018417 -0.026665 -0.013273 -0.030571 -0.003691 -0.024653 0.028182 0.012618 -0.016237 -0.025901 0.008240 0.011876 0.007468 -0.012264 0.019886 -0.002302
1433 -0.004193 -0.029865 -0.024895 -0.027792 0.010922 0.003628 0.024399 0.025177 0.030744 0.017144 -0.019538 -0.010463 0.013039 -0.004436 -0.025497 0.013465
1277 0.011779 -0.010922 -0.010488 -0.016944 0.024603 -0.011122 -0.016428 -0.016955 -0.003233 -0.003917 -0.006492 -0.005001 0.029020 0.011008 0.008328 -0.024819
1552 0.021107 -0.013358 0.029636 0.029056 0.010536 -0.029517 -0.008090 -0.021260 -0.007003 -0.021559 -0.007773 -0.010873 0.010808 0.021351 -0.002494 0.007201
1310 0.016658 0.022085 0.022700 0.028382 -0.028264 -0.004148 0.030701 0.013201 -0.011925 -0.004673 0.010799 -0.017072 0.020154 0.019407 0.016776 -0.007670
1176 -0.015322 0.003123 -0.010393 0.026528 0.005875 -0.016681 -0.019691 -0.024004 0.018415 -0.026895 -0.005286 0.019068 0.026096 -0.010416 -0.017743 -0.007897
1218 0.020285 -0.017183 -0.007784 0.008592 -0.022072 0.013673 -0.027224 0.028759 -0.002446 0.010777 0.004875 0.027923 0.026742 -0.008992 0.024632 0.020802
1265 0.019184 0.006719 -0.003839 0.003739 0.003719 -0.013404 -0.005147 -0.029976 -0.029748 0.013400 -0.021688 -0.010075 -0.011149 -0.006160 0.016072 -0.015995
1006 0.018426 0.010674 -0.012066 0.020316 -0.019618 -0.007456 -0.003295 -0.028006 0.007635 0.027950 -0.027702 0.030615 -0.002722 0.006108 -0.017102 -0.013229
1425 -0.017718 -0.013525 0.026362 0.009140 -0.001783 -0.001528 -0.017575 0.015334 -0.011193 -0.003702 0.002296 0.024338 -0.016493 0.028784 -0.015680 -0.010949
1574 0.028344 0.021697 -0.002514 -0.022559 -0.005791 0.016421 -0.005616 -0.016060 0.005662 0.023087 0.026668 0.003846 -0.003417 -0.009685 0.022131 0.013336
1663 -0.000956 0.008577 -0.026916 0.021483 -0.010362 0.015267 -0.028836 -0.007611 0.024254 -0.013398 -0.001813 0.031231 -0.002509 0.024550 0.022006 -0.026428
1328 0.001703 -0.014765 0.006999 0.020979 0.026041 -0.009777 -0.007406 0.030011 0.024017 0.021597 0.003781 0.008527 -0.002542 0.025261 0.002146 0.015093
1502 0.024136 0.021327 0.026394 0.024438 0.030303 -0.012550 -0.027294 0.026006 0.011592 0.005443 0.013703 0.029621 -0.011266 -0.002661 0.024167 0.011652
1224 -0.013838 0.017883 -0.016782 0.026938 -0.015176 0.022668 -0.027639 -0.016985 0.014751 0.031034 -0.011793 -0.017401 0.001396 0.008353 0.003836 -0.000417
1092 -0.006372 0.030105 -0.025506 -0.021887 -0.020935 -0.030427 0.017259 -0.011675 -0.025555 -0.025191 -0.021654 -0.001597 0.004112 0.028552 0.016324 -0.004580
1120 -0.016933 0.001441 -0.018717 -0.014318 0.003616 0.002299 0.021563 -0.002071 -0.002245 -0.000820 -0.003001 0.016312 0.011633 -0.013645 0.000874 -0.006783
1656 -0.005034 -0.007853 -0.005583 0.007049 -0.015362 -0.002792 0.024041 0.024726 -0.000257 -0.000149 -0.014277 -0.025629 0.005652 -0.030397 -0.018273 -0.017358
1472 0.003142 -0.006248 -0.017462 -0.008685 0.030646 0.019631 0.015637 -0.030077 -0.019516 0.012628 0.031074 -0.017272 0.024047 -0.003468 0.019708 0.011122
1116 -0.021696 -0.018345 -0.006257 0.030354 -0.015532 -0.021147 -0.021871 -0.021209 -0.003292 0.002597 -0.015811 0.028369 0.002720 -0.009605 0.023576 0.025633
1096 0.003747 0.005802 0.005431 0.014284 -0.030874 -0.020948 0.014812 -0.014998 0.029222 -0.018937 -0.027737 0.022111 -0.001235 -0.000540 -0.002660 -0.009433
998 0.022605 -0.027905 0.022999 -0.003649 0.011028 0.029271 -0.014223 -0.024133 -0.009014 -0.011049 -0.004689 0.004573 -0.016231 -0.026782 -0.000116 0.014163
1434 -0.012518 0.018555 -0.009720 -0.001880 0.026935 -0.006212 -0.023076 -0.023814 -0.025844 0.009100 0.019177 0.012470 -0.026203 0.004063 0.026863 -0.003318
1512 -0.014254 -0.027329 0.000892 -0.011750 0.021622 -0.023373 -0.024357 0.005433 -0.001962 0.010138 -0.017408 0.009057 0.020423 0.020922 0.020151 0.025315
1591 0.023907 0.006008 0.012182 -0.026728 0.007724 0.004023 -0.001695 -0.003586 0.014330 0.017808 -0.013112 0.030777 -0.022939 -0.002039 -0.014862 0.013157
1073 0.022167 -0.007359 0.011138 -0.004702 0.015807 -0.020373 0.001493 0.000907 0.021392 0.018516 0.002285 0.024667 0.004288 -0.002342 0.012277 0.003357
1112 -0.018414 -0.012347 -0.031025 -0.016003 -0.025870 0.004155 0.017394 0.021297 0.006564 -0.024807 0.015080 -0.020409 -0.009927 -0.000511 -0.005706 0.017416
1420 0.011777 -0.031204 0.001811 0.016466 -0.022432 0.015657 -0.023788 -0.013777 -0.027645 0.016452 0.000310 -0.022228 0.014936 0.015774 0.009392 0.025145
1685 -0.016327 -0.007501 -0.031219 -0.030624 0.004844 0.009103 0.006729 -0.011062 -0.011674 -0.013544 0.025084 0.021836 0.001926 0.012966 0.002357 -0.026578
1119 -0.018383 -0.028351 -0.020738 0.023948 -0.023963 0.029355 0.006375 0.007605 0.030769 -0.008827 0.027106 0.009265 -0.021708 0.030686 -0.025446 0.001203
1738 -0.004802 -0.017000 -0.023583 0.012612 0.001317 0.015556 -0.028142 -0.027320 -0.016316 0.025680 0.009994 -0.026916 0.014529 0.006353 -0.012041 0.020887
920 0.021140 -0.027569 -0.016072 -0.021647 -0.000919 -0.014558 0.012074 -0.006024 -0.006701 0.001990 -0.028279 -0.006935 -0.025783 0.012775 -0.021643 0.008055
1343 0.014530 -0.014307 -0.009947 -0.006116 -0.017927 0.003002 0.000988 0.001566 0.026141 -0.004803 0.008830 -0.028522 -0.002852 -0.028826 0.015371 -0.027652
1060 -0.001603 0.012266 -0.025279 -0.014563 0.000551 0.014099 -0.022815 -0.012023 -0.012820 0.025475 0.026414 0.023795 -0.011216 -0.025861 0.023663 -0.027329
1031 0.016207 -0.005886 -0.005255 -0.004048 -0.014673 -0.009542 -0.021332 -0.018009 0.001018 0.024154 -0.023639 -0.028271 0.000561 0.013009 0.018674 0.003448
1661 -0.016917 -0.012117 -0.009447 0.020418 0.016852 0.031007 0.011292 -0.007166 0.013728 0.001074 0.016575 0.002837 -0.013892 0.007704 -0.022961 -0.026356
1318 -0.000276 0.019416 0.011475 0.023137 0.000918 0.028337 0.009164 -0.024737 -0.011649 0.002374 0.006991 0.005964 0.012328 -0.029320 0.030433 0.016155
1201 0.020824 0.007439 -0.016778 0.001882 -0.019897 -0.021335 0.026391 0.019974 -0.025556 0.014627 0.027528 -0.010565 -0.015668 0.009847 -0.018139 0.024370
939 -0.024395 -0.008159 -0.010770 -0.019328 0.001527 -0.025746 0.021270 0.022366 0.012161 -0.011943 -0.021042 0.000765 0.017669 -0.021205 -0.020878 -0.005496
1146 0.008406 -0.019756 -0.029935 -0.027200 0.005495 -0.024315 0.000834 0.020442 0.001728 -0.013708 -0.005785 -0.003988 0.009370 -0.010846 0.003486 -0.006622
1083 0.010140 0.003197 -0.014516 -0.000272 0.030852 0.029459 0.014501 0.007647 0.007101 -0.002506 0.013674 0.029789 -0.026331 -0.002789 0.016867 0.000407
1523 -0.006257 -0.002791 -0.015663 0.000296 -0.027457 -0.029940 0.025204 -0.007165 0.012183 -0.030939 0.019440 0.024148 -0.024778 0.002393 0.023346 0.015843
1682 -0.025119 0.008809 0.003860 -0.027642 -0.014906 0.028764 0.004983 0.000243 -0.003611 0.029300 -0.026866 0.005984 0.030166 -0.009700 -0.025545 -0.004530
1397 -0.007479 -0.020063 -0.023105 0.009993 0.003273 0.019474 0.018131 -0.008612 -0.000798 0.029419 0.019789 -0.030739 -0.009592 -0.006241 0.007354 -0.024923
1561 0.010187 -0.013095 -0.003889 -0.031161 0.013873 -0.024666 0.014519 -0.009307 0.028353 0.022170 -0.009573 0.000209 -0.022778 0.000496 0.016354 -0.019592
1344 -0.014393 0.028277 -0.026603 -0.006503 0.020572 0.022013 -0.005961 0.025304 0.017746 -0.030507 -0.008764 0.015554 -0.028184 -0.001597 0.013612 -0.020007
1234 -0.000448 0.009380 -0.007432 -0.014358 -0.028796 0.012795 0.029760 -0.001603 -0.009231 0.008508 -0.026861 -0.030586 0.023931 0.030029 0.011249 -0.017324
1333 0.022237 -0.008207 0.031206 -0.020601 0.029520 0.013727 0.018341 0.030186 0.017230 -0.030956 0.016913 -0.019107 0.017936 -0.026835 0.026083 -0.019178
1353 -0.027011 0.024706 0.008891 -0.004609 0.020090 -0.011287 0.028928 -0.010864 -0.024425 0.006616 0.014719 -0.023050 -0.009203 -0.026647 -0.009414 0.010316
1469 -0.015578 -0.005886 0.012794 0.020090 -0.019993 -0.012174 0.021507 0.014554 -0.014254 0.027753 0.029946 -0.018451 0.016924 0.014755 0.021852 -0.008473
1541 0.025603 -0.002686 0.009240 -0.029419 0.006359 -0.005561 0.004619 -0.024954 0.025639 0.018200 0.029603 0.018080 -0.009019 0.024185 -0.016483 -0.026908
1155 0.018255 -0.002800 -0.011919 0.002915 0.029356 0.027410 0.025521 0.028776 0.000918 0.016493 -0.025949 -0.005552 0.023907 -0.006201 -0.022824 0.006494
1288 0.010078 0.028045 0.012073 0.004486 0.024279 0.013466 0.023668 -0.026657 0.021938 0.030045 0.026894 0.010761 0.030027 0.022300 0.004618 0.010865
1217 -0.019780 -0.024089 0.016414 -0.028648 0.022238 0.011873 -0.018142 0.004359 -0.004734 0.029635 -0.007562 0.008855 0.020542 -0.024338 -0.009230 -0.011213
1035 0.011146 -0.011121 0.007554 -0.009355 -0.029500 0.009126 0.031151 -0.019564 -0.019009 -0.004927 0.029648 -0.028045 0.005516 0.011970 -0.023252 0.018882
1309 -0.024498 -0.018524 0.013925 -0.014146 -0.016933 0.002341 0.024785 -0.017071 -0.028936 -0.016957 0.028225 0.007428 0.009186 0.029706 -0.016401 -0.006543
979 0.000355 0.021962 -0.019561 0.016268 -0.025698 -0.025301 -0.007558 -0.010905 -0.013625 0.030105 -0.022686 -0.019332 0.007073 -0.027006 0.028295 -0.025387
1733 0.016512 -0.030369 0.013052 -0.011266 -0.025601 0.012706 -0.013465 0.013921 0.016218 0.019752 -0.014982 -0.008517 0.000092 0.010987 -0.012210 -0.008947
1664 -0.002761 -0.020335 -0.010823 0.024013 -0.027487 -0.003668 -0.028280 -0.030608 0.011724 -0.021297 -0.021935 0.005778 -0.003910 -0.005131 -0.018598 -0.026700
1447 0.018031 0.016790 -0.006440 -0.018018 -0.007233 -0.017142 0.008355 -0.028927 -0.005916 -0.002207 0.000234 0.012454 0.022226 0.030123 0.006877 0.003763
1180 0.031244 0.008466 0.006034 0.028070 0.027921 0.011025 -0.021645 0.012519 0.000539 -0.010029 0.013740 0.007285 -0.019495 -0.012870 0.016449 0.007035
1507 0.028253 -0.002925 0.017163 -0.008963 -0.013063 -0.020761 0.006528 0.025475 0.020367 -0.024533 0.000824 -0.003979 -0.021620 0.000313 0.019700 -0.005099
875 -0.015298 0.025195 -0.016019 -0.006472 -0.008406 -0.024317 -0.000563 -0.019188 -0.013822 0.015358 0.023112 -0.002986 -0.001826 0.007320 0.012530 0.018161
1587 0.001085 -0.031090 0.010977 0.004522 -0.025502 0.004499 -0.003234 0.026462 -0.006343 0.004509 -0.024743 -0.006127 0.014135 -0.022944 0.024812 -0.016344
1048 -0.013870 0.008887 0.025792 0.006513 0.016909 0.003402 0.010836 0.016965 -0.023336 -0.019214 0.025374 0.014307 -0.029579 -0.015796 0.004936 -0.026652
1166 0.027165 0.024615 -0.029211 0.007521 0.003414 -0.016997 -0.009430 0.018047 -0.002638 0.002481 -0.025579 0.014894 -0.020809 0.006489 -0.004808 0.011928
1233 0.012240 -0.030172 0.021977 0.028352 -0.003905 -0.007900 -0.005548 0.014229 -0.004313 0.006078 0.018119 -0.010606 -0.030249 -0.030782 -0.030406 0.025485
1389 0.008487 0.026285 -0.016009 -0.015498 0.001541 0.023926 -0.017358 -0.028609 -0.018707 -0.016472 -0.006435 0.011519 0.000123 -0.009153 -0.009948 -0.017347
1054 0.026084 0.020480 0.022462 0.028922 -0.028608 -0.026281 0.009240 -0.000303 0.009551 -0.027062 0.007587 -0.006515 0.021591 -0.018459 0.013919 -0.026522
1721 0.000024 -0.031083 0.021039 -0.012260 0.024410 0.020105 0.008306 0.017981 0.028764 -0.002124 0.020194 0.009301 -0.028653 -0.007657 0.011093 0.030456
1114 0.001914 -0.018954 -0.026408 0.011873 0.009722 -0.005665 0.007836 -0.011846 -0.006919 0.025994 0.009491 -0.004324 -0.027058 -0.022346 0.011001 -0.010660
959 -0.009536 0.027918 -0.030614 -0.022457 -0.019502 -0.005452 0.021827 -0.019253 -0.023659 -0.006386 0.002396 -0.029588 -0.000130 -0.022325 -0.019275 -0.023692
984 -0.016900 -0.000391 -0.000171 -0.000054 -0.012786 -0.003652 0.009619 -0.025799 -0.028082 -0.013913 -0.001980 0.009451 0.003819 0.015711 0.016280 -0.002857
1594 -0.023932 0.028193 -0.024511 -0.031049 -0.016756 0.028952 -0.015179 0.029923 0.000305 0.009489 0.026743 0.006780 0.019656 -0.003499 -0.020462 -0.012654
1652 -0.011930 -0.022642 -0.029806 -0.025357 0.016820 0.002838 0.018295 -0.022467 0.006399 -0.012701 -0.028998 -0.009386 -0.019345 -0.006717 0.012726 0.015311
1650 -0.013343 0.030997 -0.022501 0.021959 -0.026080 -0.000978 0.025360 0.023385 0.021174 -0.001230 0.019998 0.022342 -0.011376 -0.016528 -0.001290 -0.008859
1208 0.018331 0.028250 0.015475 0.015057 0.006437 -0.024258 -0.015023 0.030874 0.026191 -0.025164 -0.005577 -0.023472 0.002218 -0.011870 0.009829 -0.029336
1285 0.021675 -0.015372 -0.009005 0.017217 -0.002683 0.018898 -0.013988 0.010445 0.022269 0.014943 -0.019311 -0.001682 -0.021047 0.005345 0.018834 0.009026
1401 -0.007760 0.009167 0.029403 -0.005390 -0.019103 -0.030726 -0.011017 0.011661 -0.011837 0.018771 -0.024204 -0.024069 0.005950 0.014366 0.016047 -0.000949
1131 -0.007776 0.027453 0.011875 0.022333 0.003964 -0.027177 0.012186 0.003644 -0.009514 0.019535 0.026335 -0.003569 -0.019856 0.026209 -0.018485 0.013165
947 -0.014711 0.026339 0.030242 0.012565 -0.023531 -0.026753 -0.023489 -0.011366 -0.014694 -0.008011 -0.011491 0.021599 0.009974 0.018936 -0.016284 0.022498
1443 -0.028292 -0.010672 -0.027527 0.023457 0.019125 0.011816 0.006650 -0.022893 -0.021903 -0.016240 -0.003774 0.025939 -0.007841 0.006093 0.008486 -0.008618
807 0.010866 0.003893 0.017492 0.030491 -0.021113 -0.025742 -0.003546 0.010812 0.008520 0.024139 0.029598 0.019921 0.025636 0.023621 0.027205 0.015244
1345 -0.011266 0.009515 0.021229 -0.023492 -0.023166 -0.017326 0.027252 -0.027626 0.001140 0.003788 -0.007091 -0.017314 -0.027409 0.020178 0.027515 -0.020818
1405 0.022576 -0.022842 -0.026735 0.028597 -0.001864 -0.008518 -0.017740 -0.011972 -0.013816 0.029340 -0.021623 0.029174 -0.017600 0.001455 -0.016147 -0.009039
795 0.026831 -0.029002 0.015222 0.013828 0.014867 0.001931 -0.015867 -0.002531 -0.026351 -0.014205 0.030288 -0.031064 0.012282 0.028414 0.002915 0.018897
1559 0.027702 0.007242 0.030202 -0.013358 -0.011799 0.017049 0.003423 -0.020026 0.023763 -0.006049 -0.003209 0.029956 -0.009312 0.000764 0.024521 0.003776
961 0.010961 0.010770 0.011242 -0.010933 0.021829 0.020265 0.022902 0.020118 -0.006644 -0.027316 0.012394 -0.004947 -0.014965 0.026390 -0.006178 -0.017963
1283 -0.027105 0.007780 -0.013223 0.013627 0.023601 -0.010006 0.018491 -0.027619 -0.024835 -0.024837 -0.013191 0.008597 -0.012191 0.024064 0.004755 0.028986
1340 -0.024674 0.018748 -0.004396 -0.002029 -0.017399 -0.028247 0.008288 -0.000479 0.017007 0.028287 0.012914 0.026084 -0.016090 0.008040 0.021926 -0.000390
1247 -0.005954 -0.007493 0.013088 0.002387 0.001997 0.024606 -0.021027 -0.019054 -0.017468 0.030311 -0.030859 0.026871 0.025733 -0.007540 -0.015950 0.001042
1145 0.002384 -0.022391 -0.026545 -0.005498 -0.002761 -0.020611 0.002678 0.008101 0.019418 0.007015 -0.025692 0.015589 -0.025623 -0.003227 0.017901 0.011575
952 0.001930 0.016741 -0.016107 0.026753 0.005066 0.018646 -0.022169 -0.026046 -0.017359 0.022679 -0.025904 0.013607 -0.001203 -0.006380 0.000620 0.019102
1513 -0.027670 -0.000809 -0.019956 0.002907 -0.029468 0.005081 -0.004979 -0.003227 0.013024 -0.020578 -0.005525 0.008896 0.012176 -0.027368 -0.004686 -0.025360
1130 -0.026465 -0.029620 -0.004693 0.025315 0.021059 -0.030210 -0.022019 -0.001822 -0.027542 0.025985 0.017791 -0.029045 0.030144 -0.014044 -0.008537 0.011228
1370 0.005923 -0.027568 0.014398 -0.017117 -0.009082 0.015013 0.008379 0.012670 -0.030677 -0.023935 -0.001044 -0.014624 0.017135 -0.018136 0.027101 0.018144
1619 -0.013234 0.023438 0.002214 0.006961 -0.016264 -0.006185 -0.004198 0.018070 -0.013826 0.000375 0.019447 -0.024184 -0.000004 -0.012497 -0.001093 -0.003815
1284 0.010331 0.020235 -0.022609 -0.007137 0.013760 -0.025417 -0.014948 -0.030432 0.013352 -0.004157 -0.010529 -0.013576 0.001487 0.010241 -0.002150 0.018337
1493 0.017637 -0.022499 0.024241 -0.007584 -0.027975 0.005328 0.022736 0.000947 0.015534 0.013467 0.025147 0.024137 -0.014877 -0.016779 0.016234 0.024388
1491 0.006876 0.018708 0.031076 0.015023 0.028938 -0.010607 -0.012517 -0.017770 0.017668 0.009859 -0.027927 0.015065 -0.024578 0.012883 -0.030997 -0.020989
933 -0.013846 0.016690 0.020866 0.024360 -0.019531 0.019498 0.009200 -0.026509 -0.029120 0.020369 -0.030420 -0.021146 0.005208 0.017583 0.030918 0.010994
1296 0.004280 -0.017848 0.004746 0.022379 -0.001415 -0.016190 0.027601 0.007746 0.018340 -0.010480 0.024144 -0.022565 -0.019718 -0.002857 -0.006251 0.023128
1275 0.021895 0.026344 -0.029788 -0.028383 -0.001396 0.018661 0.017772 0.025206 -0.008020 0.004004 0.024004 -0.028930 -0.010048 -0.020460 -0.011722 0.023089
1007 0.028169 -0.011300 0.014055 0.013372 -0.008985 -0.019235 -0.021886 -0.028662 0.023476 0.029152 -0.012295 -0.013747 0.001298 -0.018262 -0.016855 0.000017
987 -0.027177 0.002872 -0.014956 -0.000234 -0.021323 -0.017939 -0.012392 -0.018958 0.014628 -0.010079 -0.002951 0.010751 0.019979 0.027478 -0.015654 0.026631
944 -0.022089 -0.006172 -0.022425 -0.017275 0.010022 -0.016929 -0.004796 -0.019621 -0.031147 0.017508 -0.020483 -0.029516 0.006246 -0.013790 0.022308 -0.026292
1610 0.011914 -0.021752 -0.004591 0.010052 0.031172 0.025521 -0.002407 0.021777 -0.012988 0.005067 0.008935 -0.020288 0.012947 -0.021578 -0.006596 0.008195
1372 0.021460 -0.024373 -0.002760 -0.008326 0.020084 -0.030194 0.021024 0.011274 -0.016365 -0.016612 -0.006763 0.018744 0.013613 0.022026 0.026025 0.009418
1301 -0.000005 -0.019322 -0.011165 -0.021220 -0.002028 0.026748 -0.006441 -0.026288 -0.001598 -0.020705 -0.010230 0.003132 -0.000194 0.029615 0.019495 -0.018330
1451 -0.029533 0.016991 0.003136 -0.022881 -0.010071 0.027138 0.007546 -0.021941 0.027911 -0.000484 -0.026366 0.003661 0.009403 -0.018741 0.028628 0.030025
1667 0.001906 0.028541 0.002616 0.006392 0.019651 0.010761 -0.024455 0.007210 0.001453 0.014754 -0.026740 0.024305 -0.005224 0.015486 0.006226 0.004365
1289 0.025100 -0.010705 0.013817 0.005046 -0.021299 0.027408 -0.024503 0.031011 0.016567 0.003350 -0.002293 0.008715 -0.013276 -0.002564 0.020285 -0.019140
1658 -0.023708 -0.011537 0.025193 -0.005215 -0.008585 -0.021110 0.007253 -0.025245 -0.028769 0.028657 -0.022500 0.026720 0.014129 -0.030992 -0.026084 0.013971
1707 0.018788 -0.028981 -0.031238 0.027933 0.002231 0.027001 0.007375 0.019093 0.016222 -0.030784 -0.021907 -0.024683 -0.030160 0.015930 0.023590 -0.007544
876 -0.016366 -0.001846 0.023393 0.023767 0.004835 0.021586 -0.019887 0.010901 -0.006292 -0.029922 0.022156 0.002294 -0.008397 -0.025402 -0.002066 0.031244
1011 -0.003982 -0.017803 0.022687 -0.030710 -0.024075 -0.004905 0.026470 -0.027756 0.013002 -0.013030 0.003354 -0.027840 0.027080 -0.030485 -0.027710 0.026016
1537 0.027585 0.007617 0.021841 0.019711 -0.005235 0.005323 -0.005078 -0.030031 0.009065 -0.007131 0.020709 0.020987 0.008749 0.010033 -0.026633 0.010472
1444 -0.020393 -0.001185 -0.010591 -0.017268 0.019691 0.020869 0.020898 -0.007220 -0.021271 -0.023919 0.004068 -0.003416 -0.013773 -0.028018 -0.028614 0.029425
1525 0.001894 -0.029129 -0.014095 0.004953 0.018890 0.027261 -0.014493 0.005591 -0.004689 -0.013065 -0.006635 -0.027151 0.019195 0.007956 0.008583 -0.018080
1565 0.003145 0.029424 -0.017760 0.016750 -0.031004 0.023109 -0.021427 0.028259 -0.001205 0.023942 -0.009086 0.012405 0.016242 0.024781 -0.029259 -0.011876
1063 0.028916 0.026461 0.014609 0.007812 0.024801 -0.017817 -0.001409 -0.020132 0.012281 -0.009817 0.021312 0.027576 -0.005397 -0.014889 -0.019347 0.028835
1380 0.009640 -0.027995 0.018370 -0.010047 -0.004513 0.022060 -0.027254 0.029456 0.000412 -0.004463 0.007783 0.010472 0.025869 -0.015669 -0.026431 -0.025262
1173 -0.021320 0.012238 -0.028112 -0.019853 0.007431 -0.005122 0.010707 -0.006562 0.001782 -0.006246 -0.005035 0.014180 0.022515 0.005264 -0.005474 0.027278
869 -0.020919 0.029285 0.002659 0.003999 -0.023799 0.003769 -0.017604 -0.011098 0.001871 0.003180 -0.017164 -0.023868 0.005275 -0.014902 -0.019226 0.002299
897 -0.021759 -0.028035 0.017856 0.016933 -0.016343 -0.017273 -0.007822 0.003101 -0.016037 -0.008485 -0.025483 0.016145 -0.017461 -0.028550 -0.016384 -0.008770
1600 -0.006195 0.014499 0.022365 0.030746 0.009403 -0.014589 -0.029135 -0.000598 0.014741 0.030969 -0.015218 0.016091 -0.014717 -0.001160 -0.001030 0.005576
1357 0.018214 -0.014521 0.021575 -0.020342 -0.030139 -0.024237 0.005522 -0.027355 -0.001223 0.014927 0.006569 0.025938 -0.024868 -0.014214 0.015639 -0.008154
950 0.016830 -0.025703 -0.008280 0.029898 0.004443 -0.002553 0.015912 -0.003069 -0.006472 0.021989 -0.020929 0.025167 0.004891 -0.029356 -0.012016 0.013540
1259 -0.025216 0.023121 0.020553 0.001631 -0.025198 0.025539 -0.002882 -0.026578 -0.027178 0.021399 -0.015177 0.024392 0.016191 -0.023707 0.022851 0.003580
1626 -0.003879 -0.005206 0.008836 0.006310 -0.005530 0.027743 -0.028226 -0.016339 0.012856 -0.031157 0.003839 -0.027870 0.020776 -0.012961 -0.000025 -0.011489
881 0.004722 -0.018787 -0.028905 -0.026330 0.013202 0.031200 -0.008048 -0.003707 -0.008045 -0.012306 -0.011794 0.018398 -0.020510 -0.024422 -0.028608 -0.001602
1139 0.021158 0.023616 0.002347 0.012897 -0.015361 -0.007592 0.018896 -0.002224 -0.013321 -0.024756 -0.005276 -0.026093 -0.017130 0.009384 0.000880 0.025899
1403 0.003277 0.021840 -0.009131 0.014105 0.025623 -0.025519 -0.009379 -0.029425 -0.015020 -0.001836 0.006810 -0.020440 0.012361 -0.021409 0.019235 0.014153
1529 -0.013113 0.023141 0.012126 0.023922 0.014035 0.023041 0.021016 -0.010803 0.006948 -0.002656 -0.000998 0.016370 -0.016847 -0.015902 0.017612 -0.010766
1716 -0.004779 0.009614 -0.008388 -0.013707 -0.028068 0.030897 0.009601 -0.028537 0.006062 -0.004055 0.001550 -0.015469 -0.003210 -0.031213 0.025653 -0.024058
1018 -0.015984 -0.013265 -0.024924 -0.029925 -0.014460 0.029574 -0.005162 -0.006503 0.029807 0.002438 0.030045 0.016172 -0.030793 -0.011365 0.004247 -0.007485
1701 -0.002115 -0.011752 -0.014593 0.009242 -0.009048 0.015596 -0.004525 -0.010607 0.026506 0.017529 0.027794 0.028208 0.009001 -0.025615 0.005870 0.020901
965 -0.021691 0.017856 -0.020842 0.002772 0.020401 0.030389 -0.023473 -0.028267 -0.017733 0.028943 0.019110 0.011761 0.022721 -0.028086 0.014870 0.020662
924 0.025628 -0.027190 -0.001191 0.028147 0.001074 -0.000976 0.013332 0.022958 -0.011015 0.009465 0.029465 0.002024 -0.012608 0.024527 -0.011942 -0.007281
927 0.025792 -0.024719 0.006086 0.005989 -0.014017 -0.006747 -0.014530 0.022803 -0.002544 -0.020224 0.030511 -0.026836 0.007089 -0.027244 -0.028415 0.002719
1379 -0.012666 -0.007654 0.015237 -0.022001 0.002831 -0.021692 -0.026168 0.006483 0.014039 -0.015749 0.027494 0.027212 0.019533 0.009628 -0.027398 -0.004757
1665 0.016392 0.019995 -0.000605 0.028619 -0.026189 0.027578 0.028200 -0.014967 0.015982 0.012809 -0.025637 0.029789 0.029224 -0.025413 0.012042 0.012718
1533 0.020610 0.018762 0.027417 -0.028951 -0.009594 -0.015423 -0.028927 0.019049 -0.006010 -0.019553 0.001257 -0.000268 -0.030312 0.002063 0.001523 -0.011991
1095 -0.002494 0.030852 0.008328 -0.008334 0.028931 -0.017680 -0.030468 0.017982 0.029270 0.016921 -0.019212 0.018363 0.011504 0.010763 0.008133 0.007173
997 0.000153 -0.017312 -0.022403 0.012828 0.024541 -0.027135 0.012697 0.030987 -0.006172 0.013450 0.029526 -0.027987 -0.000118 -0.010805 -0.019606 0.008687
1325 0.022346 0.015977 0.010872 0.008908 -0.012452 -0.023331 0.014781 0.006100 0.010567 0.013307 -0.022825 -0.030271 0.022345 -0.015177 -0.027555 -0.029086
1127 -0.023823 0.008865 0.007268 -0.027722 -0.019132 -0.004448 0.015189 -0.029912 -0.019899 0.022630 -0.009555 0.025210 -0.016218 -0.005823 -0.020063 0.023927
1051 0.022513 0.022221 0.004121 0.006961 -0.001042 0.018673 -0.012743 -0.016873 -0.001615 -0.027230 -0.026658 -0.004823 -0.003320 -0.017237 0.015280 -0.020690
1349 0.002747 -0.006245 -0.008128 0.002772 -0.007605 0.004753 -0.026750 -0.014763 0.015510 0.025833 -0.026742 0.010481 0.023549 0.004084 -0.028497 -0.019158
904 -0.010873 -0.025511 -0.022333 0.011345 -0.028170 0.028304 -0.017638 -0.025459 0.008630 0.003123 -0.028501 -0.022877 -0.014784 -0.004199 -0.015541 0.009508
1720 0.019342 0.003252 0.013615 -0.007705 -0.013405 -0.003588 -0.002545 -0.014662 -0.018700 -0.012771 0.010163 0.026351 0.015885 -0.016580 -0.016430 -0.015246
1193 0.008557 -0.003717 0.019364 0.024568 -0.000139 -0.002664 0.016946 0.027241 -0.003336 -0.004194 -0.026174 0.020120 -0.008706 0.029286 0.010641 0.008855
785 -0.006190 0.016339 -0.025654 -0.012024 -0.003716 0.031155 0.030813 0.005914 -0.017379 0.028497 0.012855 0.016899 -0.014889 0.030567 0.023623 -0.022855
1002 0.021685 0.020865 0.004395 -0.002415 0.029072 -0.010937 -0.009312 0.007466 0.004850 0.000594 -0.016744 0.018018 0.021700 -0.012720 0.019197 0.018974
1147 0.012115 -0.016776 -0.019874 0.028136 -0.016084 -0.009019 -0.021696 0.004230 0.025282 0.020046 -0.030032 0.018665 0.013288 0.001199 -0.013692 0.009807
1729 0.004202 0.007978 0.005429 -0.011192 -0.019193 -0.009299 -0.015791 0.025153 0.007859 -0.004911 -0.010224 -0.024507 0.019961 -0.030394 -0.019544 0.010382
1551 -0.002599 0.006974 -0.022417 -0.021517 -0.004747 0.016281 0.027633 -0.019674 0.025116 0.008252 -0.003985 -0.014376 0.001807 -0.008407 -0.019168 0.024909
1290 0.031243 0.008434 0.027035 -0.005833 -0.013745 0.011425 0.016478 -0.027999 -0.000625 0.016370 -0.010547 -0.016067 0.011304 -0.024566 -0.020877 0.004903
1066 0.023084 0.026725 -0.007963 0.010847 0.007858 -0.029336 -0.013343 -0.011634 0.017278 0.000445 0.015412 -0.030213 -0.025797 -0.027513 0.011714 -0.011234
1276 0.015537 0.003656 0.027002 -0.000774 0.006385 -0.012446 -0.023806 -0.006549 0.024597 0.000273 -0.013286 0.021815 -0.001640 0.019611 0.012934 -0.009355
1697 -0.011136 -0.023223 0.016293 0.015290 0.019282 -0.013437 -0.023496 0.000066 -0.010065 -0.007933 0.006429 -0.008010 -0.028923 -0.024709 0.019015 0.016164
906 0.022048 0.001142 -0.028735 0.005409 -0.024368 -0.026190 -0.023236 -0.008419 -0.017391 0.004645 -0.005431 -0.014249 0.023320 0.021625 0.023942 -0.004447
1053 -0.006131 0.016907 -0.024209 0.001211 0.018474 -0.009455 0.011673 0.012594 0.024514 0.014166 -0.026950 -0.017888 0.002816 0.014084 -0.014216 0.004732
1000 -0.027804 0.002409 -0.013924 -0.023933 -0.030243 0.020949 0.024758 -0.022459 0.028384 -0.010068 0.030346 0.019559 0.015037 -0.012094 -0.028186 -0.012293
1069 -0.023844 -0.012522 -0.016569 0.005462 0.028737 -0.017421 0.014077 0.029511 0.007617 -0.022038 -0.017658 0.012050 -0.015200 0.007831 0.015444 -0.003661
1065 -0.001698 0.002377 0.019322 -0.021567 0.016234 0.027792 -0.023850 -0.029112 -0.001247 -0.025788 0.008990 0.001937 0.015663 -0.026723 -0.010004 -0.017230
802 0.001383 0.023554 0.004759 -0.025031 -0.023191 0.017815 0.024603 0.025716 0.020608 0.022470 -0.009058 0.003336 0.018219 0.007236 0.017182 0.010919
1639 0.030397 -0.030651 -0.027782 0.027948 0.020683 -0.006363 0.020898 -0.024767 0.009229 0.002465 -0.030885 -0.027877 0.002815 -0.020529 0.018110 -0.011681
1122 0.003124 0.007689 0.018526 0.002285 -0.007139 -0.005039 0.025686 0.010257 0.020046 -0.002214 -0.022029 0.023755 0.007097 0.030339 -0.025515 0.015364
1480 0.013557 0.005690 -0.013473 -0.029425 -0.017760 0.026530 -0.029026 -0.007955 -0.016454 -0.007154 0.014534 -0.005611 -0.026328 -0.017370 -0.023710 -0.002094
886 0.023319 0.000529 0.008227 -0.026058 0.026510 0.001559 -0.010149 0.030888 0.013205 -0.018551 0.006729 0.000209 0.004720 -0.029160 0.000381 -0.007317
1524 0.014534 0.013911 0.029789 0.023625 0.031247 -0.015711 0.001216 0.016608 0.019254 0.022074 0.015331 0.016022 -0.020284 0.030854 -0.028427 0.016663
1402 0.011822 -0.024516 0.021646 0.002621 -0.026876 -0.022772 0.000927 0.007701 -0.009848 -0.021192 0.014365 -0.013396 -0.019342 0.027442 -0.011673 -0.022875
1154 0.007445 0.020774 -0.027932 0.017283 0.005860 -0.002736 -0.012816 -0.025814 0.022095 0.019031 0.018893 -0.029553 -0.026078 0.003217 -0.022419 -0.006910
1377 -0.030885 -0.014576 0.019321 0.019888 -0.010572 0.019823 -0.000298 0.001631 -0.023845 -0.015329 0.030944 -0.019427 -0.010270 -0.001905 -0.020636 0.006844
1410 0.021293 0.025144 -0.010692 -0.012896 0.031000 -0.019715 0.018109 -0.027734 -0.004611 -0.015577 -0.003685 0.000382 -0.006257 -0.005911 0.008381 0.015999
1750 -0.004895 -0.031039 0.007034 -0.004378 0.022134 -0.008501 -0.015124 -0.008652 -0.013869 0.030254 0.030222 0.004710 0.014300 -0.014598 -0.007398 -0.007285
1514 0.008229 -0.022482 -0.023859 -0.028598 0.024296 -0.017565 0.009485 0.026907 -0.025305 0.023807 -0.010023 -0.026628 -0.015835 -0.013072 -0.022531 0.021295
1570 0.009584 -0.007241 0.010780 -0.004030 0.003033 -0.028827 -0.013604 -0.012265 0.013627 0.019457 -0.012209 -0.018050 0.020200 0.008981 0.022962 -0.007411
922 0.023227 -0.021545 -0.025223 -0.004854 0.007615 -0.007674 0.024418 0.017000 -0.015266 0.009624 0.020900 0.005536 0.025442 -0.012352 0.008866 -0.015441
1280 -0.000140 0.024790 0.029673 -0.011921 -0.021008 -0.026838 0.005501 0.028385 0.010076 0.004075 -0.025719 -0.013337 0.002241 -0.015639 0.004624 0.012652
1192 0.012568 -0.012998 -0.027681 -0.025169 0.018436 -0.030356 0.005413 -0.020044 0.001172 0.008040 0.005258 0.022662 -0.026857 -0.014296 0.030562 -0.014959
1673 0.023256 0.028103 0.028336 -0.004044 0.025966 -0.021736 -0.005964 -0.025896 0.010749 -0.023071 -0.021053 -0.010980 0.030638 0.019806 0.000204 0.026484
1728 -0.020907 0.002538 0.021247 0.002932 -0.025725 0.013956 -0.007905 -0.018580 0.000690 -0.024277 0.027052 -0.006445 -0.018681 0.019285 -0.011926 0.018256
1592 0.015164 0.004438 0.006017 -0.024150 0.009691 0.010052 -0.031161 -0.020270 0.023296 0.030395 -0.024533 -0.006728 -0.007415 0.025345 0.014725 -0.001787
1606 0.027902 0.001220 0.000217 -0.021339 -0.026463 -0.002055 -0.009795 -0.012499 0.009017 0.004422 -0.009506 0.008173 -0.016033 0.010891 0.017044 -0.026860
1395 -0.027805 -0.028718 -0.007765 -0.022385 -0.023472 -0.015559 -0.011063 -0.023622 -0.025721 0.020601 -0.011068 -0.009070 -0.025951 -0.001737 0.026403 0.010349
1672 -0.024573 0.024421 -0.004053 0.001973 -0.018619 0.008762 0.006471 -0.017026 0.018730 -0.012738 0.005926 0.026766 0.016789 0.029303 -0.013382 0.009952
1544 -0.002170 -0.015996 0.017251 -0.013674 0.024693 -0.004996 0.004103 -0.026765 -0.030484 0.000460 -0.022786 -0.019870 -0.009029 0.027830 -0.000746 -0.000444
1540 -0.004271 -0.022755 0.027924 0.013085 0.014097 -0.021191 0.005031 0.025343 0.017913 0.001755 -0.006017 0.027400 -0.005361 0.018529 0.016005 -0.026803
1308 -0.011919 -0.009479 -0.013991 0.028201 0.018677 -0.005158 -0.013622 -0.005850 0.028833 -0.024279 -0.024148 0.022989 -0.028422 -0.012719 0.029945 0.000084
1352 0.009134 0.008631 0.011212 -0.024666 0.023748 -0.007024 0.009402 0.031160 0.010327 -0.027377 0.015971 0.002000 -0.016824 -0.003657 -0.014976 0.009678
1475 0.013347 -0.021016 0.023631 -0.006697 0.021340 -0.013691 0.024722 -0.028583 -0.000364 0.028327 -0.019436 -0.029190 0.010427 -0.026584 0.018750 0.014578
1241 0.006456 -0.012383 -0.027728 -0.024861 -0.009941 -0.009235 -0.014450 0.006559 -0.010286 -0.001398 0.022987 0.016800 -0.022600 0.011738 0.022750 -0.008784
1642 -0.023084 0.028190 -0.009511 0.010714 0.030884 0.002632 -0.011359 0.031110 -0.029483 0.021435 0.000512 -0.002599 0.007444 -0.025917 -0.001296 0.024913
888 0.031164 -0.028556 -0.008727 0.013125 0.027215 -0.003858 0.027079 0.003552 0.014548 -0.009650 0.009210 0.003686 0.029703 0.013373 -0.005677 -0.022502
919 0.006048 -0.006578 -0.015977 -0.004976 -0.000052 0.011772 -0.013847 -0.021580 0.024621 -0.024626 0.007402 0.030780 0.015484 -0.006477 -0.003239 -0.022041
1172 0.027162 -0.010400 0.029208 0.007996 -0.001249 -0.018039 -0.005341 -0.001620 0.016630 0.027337 -0.023203 -0.003483 0.017514 -0.004633 -0.027921 -0.025979
1684 0.008322 -0.012576 -0.012926 0.010358 0.028059 -0.015119 -0.020621 -0.002342 0.015721 0.017476 0.012493 -0.027496 0.023833 -0.000748 0.027458 -0.029888
1657 0.025722 0.027076 0.003808 -0.023333 0.017593 -0.001876 -0.001920 0.005218 -0.022591 0.009007 -0.029947 0.030456 -0.021984 0.006085 -0.023487 -0.013669
1061 -0.011030 0.024970 -0.013746 0.013507 -0.015513 -0.022955 -0.012256 0.026624 -0.010279 0.001630 0.020870 0.022258 -0.008524 -0.030034 -0.024016 0.013546
1747 -0.024134 -0.001179 -0.022507 0.017969 0.013064 0.009472 0.011508 0.008102 0.010325 0.017345 0.026643 -0.004837 -0.011418 -0.005217 0.005229 0.020274
1598 0.011996 -0.008617 -0.020840 0.025916 0.000078 -0.008349 -0.012395 0.024435 -0.008352 0.011829 -0.013328 0.009792 -0.005262 0.024092 0.001361 -0.012521
1485 0.019260 0.001438 0.018913 0.000742 -0.003084 -0.004297 -0.016536 -0.004626 0.001463 -0.022038 0.005642 -0.006699 -0.020382 0.014497 -0.010195 -0.024834
1393 -0.028585 0.026168 0.017065 0.026708 -0.027361 -0.000092 0.008065 0.026746 0.024668 -0.031095 -0.029594 -0.022487 0.028721 -0.014147 0.004253 0.022963
1008 -0.023402 0.020440 -0.006663 0.028220 -0.007908 -0.027052 -0.026593 0.029851 0.005946 -0.026220 -0.009908 -0.022954 0.007903 0.025195 -0.014893 -0.007405
1445 0.009845 -0.008058 0.025708 -0.014799 0.011554 -0.008012 -0.026493 -0.007580 0.018178 -0.024382 -0.016848 0.014857 -0.020584 -0.028858 0.012987 -0.006635
1118 -0.028197 -0.002707 -0.006457 0.005167 0.021255 0.020946 0.017458 -0.022886 0.002325 -0.004825 0.005527 -0.013995 -0.031141 -0.008092 -0.026319 0.000782
1213 -0.009134 0.025898 -0.008586 0.030427 0.026667 -0.010933 -0.019705 -0.025944 -0.022578 0.025007 -0.009282 0.011705 -0.007209 0.011254 0.020579 0.004771
1688 0.001974 0.012803 -0.012103 0.014718 -0.024495 -0.008145 0.020022 -0.022328 0.014455 0.007837 -0.024111 -0.029456 -0.000839 0.028631 -0.018167 -0.025224
1014 -0.022367 0.023882 0.028230 -0.003807 0.028985 -0.001950 -0.008475 -0.026097 -0.024023 -0.001469 0.010625 -0.025864 -0.010685 -0.013851 -0.019668 0.018134
1474 -0.028020 0.018024 0.003459 0.028260 -0.024424 0.013151 0.019233 0.006241 -0.016068 -0.024572 0.029839 0.020897 -0.024467 -0.011064 -0.029409 -0.025393
1314 -0.014500 -0.002851 0.004149 -0.009555 0.012849 -0.000662 0.018898 0.018356 0.022615 0.019554 -0.007524 -0.003480 -0.008365 0.030128 -0.012848 0.028276
1337 -0.005932 -0.031235 -0.029528 0.028572 0.027152 -0.019591 0.011929 0.001274 0.007498 -0.031215 -0.001769 0.000441 0.024922 -0.025120 0.017210 -0.019770
1576 0.017823 0.019845 -0.019727 0.002598 0.000913 0.019867 -0.012860 -0.023879 -0.025005 0.008352 0.005287 -0.022530 -0.023441 0.007871 -0.009876 -0.012412
1417 -0.003741 -0.027034 0.012500 -0.014144 -0.000025 -0.015092 0.012872 0.004403 0.028544 -0.025184 0.030374 0.001982 0.022806 -0.014630 0.006093 -0.002366
1534 -0.011538 -0.018678 -0.031056 -0.019146 -0.028457 -0.019546 -0.018144 0.029465 -0.001311 0.020778 -0.004435 0.011949 0.004612 0.008419 -0.015429 -0.009757
1148 0.006735 -0.019498 0.029824 0.017141 -0.019042 -0.018954 -0.023171 -0.007388 -0.000440 -0.024970 0.007498 0.031041 -0.008046 0.000377 0.015089 0.015445
957 -0.008347 -0.027778 0.025566 -0.015634 0.020655 0.005420 -0.022227 -0.020121 -0.028286 -0.029352 0.028077 -0.003893 0.029914 -0.011149 0.012309 -0.002448
1161 -0.008112 -0.002825 -0.018115 0.025868 0.002353 -0.024746 -0.027899 0.023335 0.024859 -0.005040 -0.028745 0.000053 0.030625 0.022110 0.002104 0.001005
1078 0.008843 0.022401 -0.005505 -0.007405 0.030378 0.026518 0.000170 -0.010056 0.027193 0.026979 0.020894 -0.000382 -0.024517 -0.010098 -0.005880 0.026178
994 -0.018601 0.017945 0.018469 0.009823 0.017596 -0.009967 -0.019541 -0.001615 -0.027583 -0.011928 -0.016869 -0.020961 -0.020097 0.021589 0.008794 0.025918
1414 -0.028784 0.027311 -0.024912 -0.024443 0.015559 -0.007065 -0.024752 -0.001161 -0.023809 -0.008781 0.008867 0.003136 0.021549 -0.002727 0.015972 0.004262
1156 0.027580 -0.013460 0.014781 0.022036 -0.027210 -0.022204 -0.026377 -0.026063 0.010231 -0.028002 0.019036 -0.018235 -0.026185 -0.025963 -0.014302 -0.018347
1562 0.013422 0.027273 -0.022841 0.029028 -0.016056 -0.001560 0.008724 -0.022078 -0.028073 -0.027138 0.029359 0.016803 -0.030955 -0.002940 0.025655 -0.013305
1298 -0.028186 -0.004435 0.016100 0.025521 -0.001543 0.013143 -0.014710 0.004474 0.002898 0.017259 -0.005205 0.016900 0.019291 0.016828 0.031011 0.027963
1518 -0.004402 0.026711 -0.001801 0.009819 0.022757 0.003517 -0.026850 0.002397 -0.016085 0.024575 -0.006080 -0.018908 -0.000609 0.024613 -0.013694 -0.007268
1522 -0.019855 -0.012030 -0.001040 0.019531 0.008981 -0.027071 0.023810 -0.026571 0.010363 0.013157 -0.008538 -0.029909 0.002183 -0.027912 0.005822 0.008245
1117 -0.025798 0.001972 0.010858 -0.018973 -0.014868 0.010895 -0.012714 -0.009317 -0.010270 -0.025088 0.010315 0.013753 0.011744 0.028584 -0.005136 -0.008186
883 0.000266 -0.005735 0.020794 -0.016743 0.019106 0.000265 0.019256 -0.004972 0.014153 0.019820 -0.006255 0.004235 -0.025865 0.002218 -0.005197 0.019348
1743 0.017956 0.018071 -0.018792 0.006947 0.023853 0.014368 -0.012936 -0.015759 0.028349 0.018686 -0.030113 -0.009590 0.007848 0.026156 0.000515 -0.016007
1436 -0.001251 0.011453 -0.011220 0.021346 0.010592 -0.027343 -0.000720 -0.002031 0.003729 0.006033 0.018700 0.013611 0.027877 -0.020565 0.012331 0.010831
1550 0.023515 0.023696 0.016972 0.029643 -0.007054 0.019911 -0.000697 0.016844 -0.022842 0.007854 -0.005229 0.027707 0.006290 -0.016676 -0.019054 -0.000694
978 0.000199 0.015827 0.018528 0.001802 -0.024234 0.004915 0.006153 -0.026719 -0.005196 0.012397 0.014900 0.007414 -0.015064 0.014714 -0.007119 -0.024078
964 0.018203 0.015310 0.000057 -0.007643 -0.013867 0.025483 0.003344 0.003256 -0.003669 0.009967 -0.022336 -0.006345 -0.003317 -0.006296 -0.026443 -0.002632
1249 -0.023527 -0.020605 0.013123 0.019896 -0.018980 0.007888 -0.018503 -0.028560 -0.023118 0.024146 0.014442 -0.009810 0.029558 -0.023943 0.018160 0.008274
905 -0.005874 0.006174 0.027104 -0.019572 -0.025232 -0.017867 -0.029112 -0.017384 0.019258 -0.009746 -0.026317 0.017462 -0.027098 -0.011782 -0.005970 0.005462
1358 0.000919 0.028912 -0.018235 -0.000165 0.003796 -0.013289 0.003895 -0.002908 -0.001595 -0.007525 0.004332 0.027750 0.021206 -0.004219 -0.019970 0.004173
1415 0.001052 -0.008251 0.014956 0.030360 0.006777 0.025878 -0.030167 0.028939 0.026469 0.011809 0.003096 -0.010824 0.010337 0.007492 0.012058 0.011850
1143 0.017291 0.024510 -0.011987 0.003846 0.004375 0.003355 0.020289 0.019921 -0.030227 0.028601 -0.005123 -0.028138 0.022696 0.018806 -0.024892 0.021243
1087 -0.001585 0.022502 -0.023058 -0.007300 0.016875 0.008584 -0.014635 -0.006259 0.030765 0.010579 0.020865 -0.021376 0.030094 -0.029933 -0.015158 -0.013046
1315 -0.006360 0.006661 0.017441 0.008155 -0.013897 -0.016418 -0.013212 0.013604 0.030063 -0.012608 -0.000384 -0.029844 0.016357 0.027636 0.003799 -0.016665
1177 -0.020133 0.026294 0.014468 0.020983 -0.017501 0.021109 -0.029330 -0.019836 -0.018796 0.009277 0.022756 -0.030295 0.012734 0.017108 0.028907 0.029464
989 0.018906 -0.007450 -0.002083 -0.000364 0.026735 -0.005303 -0.002841 -0.017906 -0.016133 0.019517 -0.031059 -0.027634 0.017093 -0.027484 -0.014101 -0.004675
1004 0.030602 0.027622 0.022376 0.023302 0.004422 0.013271 -0.020712 -0.001433 -0.025452 -0.007948 -0.023427 -0.023519 -0.010624 0.022523 0.009014 0.015048
892 -0.001760 0.023726 -0.008070 -0.024807 -0.012802 0.016582 0.002960 0.020430 -0.013561 -0.006214 -0.023496 0.022962 0.011502 0.014064 -0.009226 0.009642
1653 -0.005863 -0.009547 0.015748 0.008520 -0.022435 -0.004142 0.018042 0.005368 0.020739 -0.025693 -0.028706 0.005776 -0.020999 0.027625 0.010797 -0.011875
1583 0.020299 0.026681 0.012215 0.026012 -0.005532 0.028722 -0.030869 0.016965 -0.030889 0.020255 0.015007 0.013482 0.026962 -0.004217 -0.029206 0.000963
1516 0.029459 -0.020644 0.020672 -0.028865 0.018749 -0.012984 0.007078 -0.018193 -0.005460 -0.002115 0.016134 -0.027915 0.030899 0.003884 0.004323 0.019036
1662 -0.004884 -0.028294 -0.019027 0.028544 -0.024317 0.002039 -0.002979 -0.027648 0.027809 -0.013281 0.003630 0.023316 -0.006989 0.020126 0.006696 -0.029356
1086 -0.014781 -0.001647 -0.020162 0.013318 -0.019598 0.016733 0.028589 -0.009347 0.005672 -0.014205 0.003866 0.016763 0.028364 0.016111 -0.028015 0.020247
1013 0.021850 0.007142 -0.007272 -0.005491 0.023160 -0.030285 -0.005959 0.030262 0.017134 -0.026726 -0.012426 -0.002902 -0.029467 -0.006535 -0.017361 0.007397
962 -0.030906 0.012538 0.029968 0.021874 0.025241 -0.028855 0.015017 0.018314 0.000111 0.012072 -0.014547 -0.001285 0.029903 -0.021897 -0.029771 -0.009806
1686 -0.008890 0.001288 0.026528 -0.012554 0.026958 -0.026929 0.006579 -0.024412 0.006045 0.004110 0.005044 0.012509 0.017870 0.012568 -0.011840 0.012041
1210 -0.015696 0.011315 0.020665 -0.011965 0.024281 0.023215 -0.003350 -0.006320 0.012787 -0.018608 -0.030852 -0.017979 0.023777 0.008090 -0.021386 0.008218
1206 -0.004154 -0.005340 -0.016726 0.005390 0.003991 -0.011018 0.022555 -0.021857 -0.001028 -0.004895 -0.028211 0.010377 0.010890 0.025337 0.009109 0.013278
1699 0.000677 0.000338 0.006586 0.025966 -0.000073 -0.008577 -0.011531 -0.011323 0.017759 -0.006637 0.022388 0.020673 0.004789 -0.007697 -0.026360 0.030502
1109 -0.013693 0.028096 -0.014932 -0.022133 -0.016434 0.017104 0.022360 -0.008247 -0.021827 0.019497 0.017655 -0.002090 0.024078 0.009886 -0.002690 -0.015255
1517 0.002850 0.004896 -0.005783 0.006868 -0.026819 0.010272 -0.019465 0.016789 -0.031105 -0.011662 0.008155 -0.027206 -0.022798 -0.008609 0.027545 0.030840
916 0.021948 -0.019633 0.018404 0.012256 0.006614 0.004612 0.022674 0.026448 -0.000680 0.022456 -0.002818 -0.005182 0.019748 -0.006293 -0.002500 0.028654
1459 0.012061 0.012208 0.011059 0.006365 0.013764 0.014854 -0.030488 -0.031044 0.028849 0.010873 -0.005366 0.001459 0.014929 -0.017510 0.010975 0.009628
1238 0.005276 -0.004247 -0.017319 0.025454 -0.025655 -0.025699 -0.004728 -0.013315 -0.030372 -0.021228 0.011809 -0.010951 -0.030962 0.026102 -0.029261 0.003289
1195 -0.018936 0.012461 -0.031103 0.005698 -0.016402 0.017065 -0.014061 -0.004137 -0.004826 -0.018362 0.015223 0.012915 -0.019734 -0.021686 -0.005364 0.016502
867 0.021245 -0.011596 -0.014217 0.027663 -0.008101 0.027499 0.010417 0.030856 0.029838 -0.026333 -0.005513 -0.008154 -0.029077 0.012847 0.015716 -0.022332
1263 -0.030086 0.015561 0.025948 -0.016854 -0.001905 -0.001910 0.018413 -0.008060 -0.030332 -0.021404 0.022226 -0.003471 0.009111 -0.021850 -0.014141 0.020608
1708 -0.029819 -0.003319 0.022907 0.002941 0.028062 0.015540 0.007721 -0.003091 -0.005011 0.006730 -0.008743 0.023833 0.013788 0.025796 -0.001292 -0.027388
1214 0.002182 0.024277 0.017104 -0.002715 0.001096 -0.002683 0.022454 0.007627 0.021077 0.019177 -0.015119 0.027913 -0.014428 -0.019574 -0.006666 0.003719
1700 -0.031074 0.015340 -0.004145 -0.002374 0.023520 0.010922 -0.026778 0.030485 -0.026029 0.004378 -0.019937 -0.004081 -0.012533 -0.004939 0.026893 0.013237
967 0.017271 -0.016994 0.019619 0.014021 -0.018699 -0.001485 -0.022064 -0.019101 0.027520 0.020350 -0.005912 -0.013777 0.014122 0.001192 0.006531 -0.027189
1254 -0.003249 0.024237 -0.022314 -0.010803 -0.012870 -0.011535 -0.029394 0.006222 0.009360 -0.008679 0.012572 0.022050 -0.006214 0.010473 -0.027585 -0.007888
1307 -0.003179 -0.001819 -0.008463 0.021381 0.016205 -0.025822 -0.014273 0.008011 0.015921 0.018437 -0.011768 0.011123 -0.000415 0.023182 -0.011888 -0.018784
1689 0.020463 0.007977 0.008851 -0.025126 -0.005122 0.005194 -0.028224 0.019228 -0.002716 -0.025617 0.018432 0.008225 -0.000103 -0.023632 0.008312 -0.029924
974 -0.015353 -0.005823 -0.021969 0.030117 -0.010449 -0.023990 -0.024934 -0.013161 -0.003983 -0.014907 -0.011848 -0.002970 -0.021988 -0.004278 0.028689 0.003393
1174 0.005915 -0.012601 -0.025038 -0.004417 0.004081 0.024528 -0.002942 0.016426 0.023796 0.011763 0.014079 -0.002169 -0.007892 0.013600 0.005494 -0.013888
1453 0.027283 -0.024192 -0.011639 0.028641 -0.009964 0.015287 -0.017387 0.009144 -0.014108 0.020175 0.003178 -0.013865 -0.004009 -0.008017 -0.003782 0.028442
1070 0.009314 -0.024791 0.009587 0.000391 -0.006918 0.026068 0.015866 -0.004797 0.013956 -0.030083 0.002318 -0.023776 -0.027181 -0.025190 -0.007309 0.023045
1274 0.013418 -0.016399 0.009613 0.025750 -0.001865 0.019190 0.026876 0.022102 -0.010132 0.002707 -0.023808 0.020893 0.020113 -0.019688 -0.017359 0.010378
1291 -0.002977 -0.023512 -0.022122 0.013117 0.019367 -0.022494 -0.016795 -0.018832 -0.020162 -0.030439 -0.016654 0.003459 0.010558 0.016690 0.006641 0.003406
899 -0.014139 0.008964 0.019172 -0.000070 -0.019756 0.024351 0.016298 0.028594 -0.008973 -0.024513 -0.015434 -0.030066 -0.021247 0.012091 0.025640 0.021680
1441 0.022933 -0.002958 0.016181 -0.020389 -0.025225 -0.026618 0.007947 0.003412 -0.003359 0.008219 -0.002407 -0.006417 -0.010362 -0.017072 -0.021556 -0.006892
1129 0.030466 -0.006943 -0.025307 -0.006508 0.009939 0.008172 0.008551 0.025100 -0.014166 0.007712 -0.019961 -0.001371 -0.023392 0.000271 0.004502 0.009655
990 0.017529 0.013809 -0.019985 0.012145 -0.019460 -0.019381 0.003333 -0.005866 -0.020512 -0.020474 -0.018334 0.004003 0.009521 -0.026742 0.027146 -0.014141
1330 0.016339 -0.027010 -0.018946 0.006424 0.025403 0.027782 0.000517 0.022514 -0.025750 0.016810 0.000859 -0.021368 0.004710 0.027053 -0.026430 0.013515
1158 0.007592 -0.012282 -0.024354 -0.028123 0.016823 -0.014209 -0.023626 0.027986 0.013263 -0.020829 0.006104 -0.007195 0.024270 0.009692 -0.020672 -0.027281
1385 -0.017924 -0.016125 -0.030008 -0.023022 -0.025337 0.025556 -0.005080 -0.007082 -0.026998 0.015355 0.030942 0.017261 0.008700 -0.018221 0.030967 -0.014161
1465 -0.004934 0.012960 0.008405 -0.013805 0.004821 -0.017750 0.018571 -0.009575 0.005759 0.026140 -0.026514 0.027266 0.020343 0.007587 0.010426 0.006709
1694 0.028001 -0.017756 0.020235 -0.015959 -0.027794 -0.018653 -0.025787 0.002624 -0.024697 0.003401 -0.024693 0.005149 0.030337 -0.011291 0.028455 -0.003896
949 -0.004505 -0.018789 0.024064 0.007760 0.015163 -0.012036 -0.026770 0.001633 -0.003936 0.005144 0.021122 -0.022299 -0.004774 0.027641 0.018302 0.003741
1644 -0.018674 -0.024679 -0.011203 0.019596 -0.008588 -0.008373 -0.019947 0.028347 -0.019143 -0.022716 0.004994 0.026844 -0.027579 -0.013240 0.014542 0.021395
1585 -0.030602 0.009480 -0.030129 -0.002084 -0.028382 -0.023999 0.007210 0.007720 -0.021568 -0.028810 -0.004899 -0.012745 -0.002804 0.015662 0.004270 0.006088
1432 -0.007891 0.028428 0.004921 0.009898 0.007751 -0.007342 -0.008722 -0.029588 -0.005751 -0.010309 0.016604 0.001655 -0.007059 0.019311 -0.010070 -0.021895
1170 0.015674 -0.007392 -0.017226 0.029300 0.015163 -0.013130 -0.006726 0.018296 -0.014786 0.011533 -0.020117 -0.016723 -0.005809 -0.009391 -0.005338 0.018558
1253 0.006863 -0.030259 0.017297 -0.029483 -0.027760 -0.023180 0.013196 0.003470 0.003267 -0.030781 -0.026270 -0.023020 -0.030324 0.011482 0.019891 0.014612
1394 -0.024778 -0.000213 0.025051 0.023994 -0.028065 -0.008570 -0.017281 -0.017560 -0.009943 0.026889 -0.006052 0.029694 -0.019593 0.011041 -0.010348 -0.027802
1640 -0.030700 0.003766 -0.018856 0.026774 0.005651 0.003687 -0.027900 -0.013350 0.020748 0.015024 -0.026692 -0.018777 -0.004153 0.011811 -0.018038 -0.016861
1442 -0.014414 -0.008074 0.011189 0.000596 -0.015894 0.017362 -0.001434 -0.008866 0.020920 -0.008882 -0.026718 -0.016386 0.027402 -0.025139 -0.031155 -0.029062
1209 0.015844 0.031144 -0.012210 -0.012107 -0.015757 -0.025605 0.024039 -0.031203 0.030405 0.009053 0.006592 -0.000482 0.001117 -0.008988 0.004371 -0.015316
1711 -0.013863 -0.005837 0.005194 -0.003229 0.015433 0.024122 0.001534 -0.018134 0.015066 0.016464 -0.003511 0.010366 -0.001657 -0.018266 -0.026020 -0.002220
1299 -0.006378 0.016153 -0.018434 -0.018044 -0.003340 0.009661 -0.009804 -0.016438 -0.023826 -0.021937 -0.024180 0.026361 0.023169 -0.005690 0.016324 0.007502
1111 0.005648 0.029598 0.014815 -0.021662 -0.015413 0.028739 0.022335 0.007115 0.007054 -0.030720 0.001711 -0.030951 0.025736 0.019878 0.028789 0.021488
1646 -0.004249 -0.014391 0.024249 -0.009481 -0.014024 0.003366 0.000344 -0.017993 0.018214 0.022030 -0.009857 -0.030506 0.002950 -0.000935 0.006635 0.003394
1104 -0.009077 -0.005330 0.009945 -0.013637 -0.031057 -0.023032 -0.003792 -0.029178 0.015173 -0.005267 0.028541 0.014638 0.016136 -0.005968 0.022641 -0.001868
1365 -0.030491 0.004121 -0.019854 0.012478 0.024699 0.008563 -0.006573 -0.022679 -0.012269 -0.006450 0.027866 -0.012606 0.023437 -0.006817 -0.023441 0.018992
1246 0.013881 0.012402 0.010274 -0.004712 0.013214 0.002750 0.002119 0.009952 -0.014406 -0.018975 -0.026824 -0.022955 -0.002137 -0.026606 0.005887 0.022233
980 -0.029293 -0.006409 -0.016754 -0.025253 -0.015433 0.007841 0.025647 -0.030289 -0.031127 0.017079 -0.027034 0.028636 0.022534 0.026797 0.028826 0.016350
1560 -0.009612 0.028064 -0.030588 -0.007678 0.020292 0.003744 -0.007372 -0.021549 0.010124 0.018824 -0.022348 -0.029393 0.023790 0.017825 0.014916 0.005942
1197 0.014632 0.021086 0.006366 -0.007743 -0.004440 0.013206 -0.009889 -0.002363 0.026073 -0.020030 0.003558 -0.007941 -0.020146 0.024117 -0.015554 -0.020152
1458 -0.014771 0.025093 0.013053 0.025077 -0.000538 0.018854 -0.005302 0.014419 -0.018606 -0.017583 -0.027784 0.014638 0.029453 -0.004203 0.028511 -0.027789
1079 -0.013314 0.010474 -0.003034 0.012819 0.019872 0.004871 0.027614 -0.017783 0.018417 0.022549 -0.022667 0.023391 -0.000879 -0.019119 -0.016523 -0.014431
1294 -0.025121 0.000737 -0.015429 -0.000137 -0.015887 0.030929 -0.004472 0.027403 -0.006437 -0.027795 0.013469 -0.024046 0.028361 -0.028454 0.026225 -0.016772
931 0.006958 0.005336 -0.007147 -0.007592 0.021027 0.031106 0.013087 -0.023935 -0.018146 -0.016585 -0.007240 0.025859 -0.030838 0.028130 0.000042 0.023985
1542 -0.012104 0.007222 -0.000493 0.020854 0.029805 -0.025799 0.020401 -0.003620 -0.028707 0.024783 -0.016376 -0.026055 -0.022382 0.026874 0.012826 0.012046
1319 0.016675 -0.021421 -0.017960 -0.002577 0.014390 -0.016847 -0.027951 0.019899 -0.015107 -0.004406 0.016075 -0.012341 -0.028386 -0.002083 -0.013800 0.009501
1696 -0.005378 0.017198 -0.014487 0.019296 0.016067 -0.001222 -0.024001 -0.028117 0.022643 0.013906 0.015913 0.021061 -0.001496 -0.018649 0.002955 -0.011055
941 0.002261 0.002990 -0.023892 -0.025219 0.027718 -0.019632 0.014522 0.015744 -0.011423 0.006181 -0.015154 0.009735 0.024667 -0.031121 -0.025101 0.028185
1133 0.018514 0.023646 -0.011506 -0.028314 -0.015495 -0.020878 -0.028936 0.012342 -0.003279 -0.025699 -0.028108 -0.003677 0.008825 -0.011529 0.026266 -0.012681
1364 0.005118 0.001567 0.019683 -0.005920 0.020949 -0.003392 0.030481 0.002995 -0.014888 -0.022068 0.030066 0.026428 0.031094 -0.005117 0.027318 -0.028473
914 0.016308 0.010926 -0.029247 -0.003143 0.011716 0.010878 0.004601 0.013735 -0.010868 -0.017692 0.001149 -0.011197 0.006979 -0.016795 0.005665 -0.006210
1628 0.007864 -0.023207 -0.005774 0.016308 -0.007798 -0.018511 0.022451 -0.025337 -0.014150 0.009896 0.012344 0.013054 0.030341 -0.024358 0.012621 0.013140
866 -0.023392 0.019458 -0.007381 0.030740 -0.024478 0.003016 0.011074 -0.020122 -0.000964 0.006284 0.008311 -0.015398 0.030560 0.016822 0.004896 0.029531
1338 -0.023526 -0.007237 0.009721 0.011387 -0.030893 0.027955 0.017044 -0.000828 -0.007077 -0.025096 -0.017088 -0.009808 0.030562 0.024964 -0.004202 0.011988
1239 0.006234 -0.027695 -0.022909 -0.002391 -0.009960 0.004248 0.011106 0.007781 -0.000992 0.014560 0.010964 -0.029943 0.016958 0.025947 0.010200 -0.003200
1511 0.001305 0.009371 0.023376 -0.000582 0.028299 -0.019383 -0.025453 -0.004501 -0.008635 -0.007837 -0.001494 -0.029119 -0.002125 -0.004888 0.010057 0.029791
1651 -0.019431 0.018508 -0.013849 0.026487 0.010272 0.025503 -0.008971 0.026288 -0.008100 -0.018607 0.019163 -0.015026 0.011652 -0.008586 0.019833 0.011965
1416 -0.016863 0.020672 -0.009139 0.029016 -0.019257 0.027577 -0.030918 -0.026712 -0.002587 0.029408 0.004640 -0.015025 0.016839 -0.004691 -0.008328 -0.016112
1223 0.021197 0.021016 -0.016239 0.027715 -0.018855 0.015526 0.010206 0.027642 0.026575 -0.004816 -0.011075 0.009570 0.007695 -0.029541 -0.022681 0.023407
1159 -0.022690 0.018428 0.011688 0.029428 -0.003694 -0.023043 0.026273 -0.027245 0.011523 -0.031143 0.012092 0.003312 -0.027218 -0.018052 0.021538 -0.021256
1335 0.010155 0.017276 -0.023094 -0.008483 -0.006262 -0.029120 0.002683 0.023817 0.028876 0.026028 0.011057 -0.024917 0.000739 -0.020904 -0.016435 0.010097
1242 0.001696 -0.011730 0.015753 0.012843 -0.027436 -0.005730 0.009851 -0.009282 0.011949 -0.003661 -0.003674 -0.019418 -0.001106 0.031086 0.029384 -0.010107
1191 -0.021819 0.009497 0.006160 0.002001 -0.026369 0.003193 0.007879 -0.030841 -0.005418 0.029739 0.024600 0.026573 0.019467 -0.023670 -0.019603 0.027618
898 -0.014235 -0.011461 -0.004789 -0.020813 0.026468 0.005311 -0.024436 0.005126 0.007800 0.001851 -0.019731 -0.001793 0.014776 0.001722 0.023762 0.006950
1383 -0.023696 0.019270 0.020132 0.019168 0.010173 0.002518 0.004619 0.025718 0.024049 -0.027305 -0.014414 0.031172 -0.003482 -0.011497 -0.022116 0.030876
1548 -0.006828 -0.010345 -0.021308 -0.030893 0.001476 0.030478 0.013174 0.012203 -0.006064 -0.001725 -0.016135 -0.003002 -0.022283 0.004217 0.011474 0.000137
1025 0.029708 0.009977 0.019782 -0.002063 -0.001942 -0.016119 0.022858 -0.019058 -0.006815 0.001027 -0.013198 0.012425 -0.013857 -0.001640 0.029407 0.019666
1153 -0.011068 -0.001834 -0.002254 -0.026075 0.021102 -0.003407 0.031050 0.017460 -0.014131 -0.013347 -0.028302 -0.013335 0.005660 -0.025674 -0.005855 0.023673
1545 0.024082 0.021169 0.001216 -0.000107 0.021487 0.012800 -0.024076 -0.000510 -0.014273 -0.011254 0.012566 0.024515 -0.001981 0.027852 -0.014576 -0.023843
1221 0.019572 -0.023976 0.028766 -0.022208 0.023630 -0.027614 0.022094 -0.011784 -0.002448 -0.013390 -0.023202 -0.028507 0.002425 -0.015681 -0.023741 0.003346
1292 -0.021378 -0.008768 -0.013643 0.013691 -0.006966 -0.011500 0.012023 -0.009322 -0.027016 -0.009999 0.010906 0.023439 -0.010766 0.023486 -0.005312 0.008940
1404 0.026875 0.002771 0.026065 0.022549 0.019686 0.013371 -0.020064 0.016283 -0.007081 -0.017892 0.013936 0.030989 0.005575 0.003874 0.007601 0.008593
1717 0.013666 0.028969 -0.010742 0.008038 -0.003810 -0.011917 0.018232 0.005435 -0.027803 -0.020853 0.028144 0.001379 0.008787 -0.018691 -0.013556 0.003638
868 0.029723 -0.002494 -0.003204 0.023236 0.022967 -0.013634 -0.024922 0.000818 -0.024317 0.003025 -0.019832 -0.002474 -0.025966 0.023547 -0.008283 -0.015046
1021 -0.017085 0.006018 -0.003889 -0.026765 -0.027780 -0.001871 0.022173 0.005889 0.006726 0.002432 -0.011421 0.011576 -0.014394 -0.013134 0.006509 0.001668
1220 0.018099 -0.007451 -0.018220 -0.028282 -0.011110 0.007114 0.019368 0.024471 0.008118 0.012854 0.029862 -0.009874 -0.005135 0.017832 -0.027012 0.022088
1413 0.021753 0.024499 -0.014487 0.004747 -0.006380 -0.029202 0.004476 0.013062 -0.008610 0.010875 -0.014383 0.008088 0.021411 0.025228 -0.021301 0.009486
1105 -0.000668 0.001020 -0.029420 -0.007559 0.009185 -0.031020 -0.006450 -0.020125 -0.003274 -0.022077 -0.026245 0.019561 -0.016674 0.017482 0.009004 -0.015333
1408 0.014720 0.004235 0.023155 0.005976 -0.023134 0.031069 0.027146 -0.002288 -0.019934 0.024200 -0.005829 0.014134 0.013232 -0.021938 0.029719 -0.031102
1371 0.030452 0.001097 0.008689 -0.013529 0.016010 0.015668 0.017549 0.018312 0.000205 -0.015424 -0.013026 0.030047 -0.002399 0.020279 -0.026027 -0.014623
1632 0.005654 -0.024466 0.031216 -0.005224 -0.030250 -0.011538 0.023653 -0.013824 0.000222 -0.030816 0.021261 0.002475 -0.019262 -0.030121 -0.016637 -0.024725
1503 0.019989 -0.002375 0.021817 -0.004426 0.010866 0.011378 0.028285 -0.017053 0.015798 -0.009707 0.016009 0.023816 0.020774 -0.006685 -0.026742 -0.013871
968 0.028103 -0.022810 -0.010891 -0.022720 -0.016121 -0.024876 -0.019095 -0.015964 -0.012551 -0.016102 0.011432 -0.017624 0.006569 0.017449 -0.028621 -0.015905
1494 0.030986 -0.025950 0.006767 -0.011482 0.007912 -0.017572 0.010157 -0.009780 -0.017325 0.010202 0.019511 0.022626 -0.026947 0.017512 0.006704 0.016242
1231 0.005767 -0.031222 -0.010729 0.020677 0.006822 -0.002994 0.019815 0.022864 0.023566 -0.016774 -0.014312 -0.029747 0.027349 0.026852 0.005106 -0.029407
1641 0.003063 0.001192 0.023726 0.012013 0.028417 0.013293 0.026255 0.012472 -0.016778 0.028119 -0.002354 -0.023680 0.018844 0.009811 0.001594 -0.003595
1157 -0.025361 0.004204 0.001931 0.005813 -0.008434 -0.000226 -0.025377 0.004624 -0.011547 -0.010484 -0.031183 0.021451 0.003243 0.024683 -0.013100 0.001426
1660 0.029281 -0.002486 0.023788 -0.023120 0.008964 -0.016308 -0.025193 -0.014503 0.030970 0.029359 -0.023379 0.010807 0.018827 0.016723 0.027310 0.023021
1165 -0.003899 -0.024447 -0.016815 0.000549 0.028936 -0.015774 -0.008458 -0.012884 0.010675 -0.014935 -0.015199 -0.020742 -0.021468 -0.009233 0.017923 0.025681
1715 0.024642 -0.027315 0.001257 -0.012503 0.026536 -0.018494 -0.020828 0.024149 -0.001245 -0.007480 -0.020975 -0.022233 0.001448 0.014678 -0.001484 0.022895
1624 -0.021079 0.010877 -0.002386 -0.003060 -0.021047 -0.007672 -0.010435 0.015076 -0.024437 -0.028454 0.028119 0.028533 0.016307 -0.011628 -0.000868 0.011468
942 0.020274 -0.013742 -0.007640 -0.004563 0.012517 0.000732 -0.017880 -0.027002 0.018886 -0.003424 0.025831 0.030558 -0.021462 -0.003212 -0.024232 -0.018510
1705 -0.023049 0.012002 -0.028357 -0.010285 0.002619 0.016601 -0.016560 0.003324 0.009949 0.027232 -0.024552 0.026521 -0.013956 0.020879 0.000369 0.011147
1573 -0.010689 -0.013286 -0.020909 -0.005603 0.028766 0.000161 -0.011804 -0.013087 0.010125 0.005779 0.012005 0.026988 0.001384 -0.003421 -0.010380 -0.017581
1207 -0.026448 -0.001200 0.014187 -0.012893 0.002803 0.028642 -0.013782 0.029583 -0.020757 0.012699 0.012850 -0.023492 0.003539 -0.010166 -0.003397 0.005253
1584 0.004558 -0.007693 0.013552 -0.009402 0.002378 -0.008063 -0.028525 -0.018172 -0.027220 0.014566 0.021834 -0.009068 -0.029876 0.007621 -0.027626 0.003145
1100 0.001442 0.008084 -0.021989 0.023713 -0.024972 0.025522 -0.026454 -0.007981 0.022453 0.002671 -0.001040 0.019634 -0.025783 -0.021382 0.007564 -0.020720
1313 -0.013026 -0.007358 -0.011918 0.029270 0.022399 0.008325 0.028168 -0.009427 -0.004756 -0.016837 0.030531 0.015761 0.028848 -0.004487 -0.007240 0.022971
1426 0.009878 -0.012261 -0.017398 -0.005374 -0.023552 0.022886 0.010093 -0.024759 0.024532 0.029406 0.021726 -0.000863 -0.002115 0.002381 0.029077 0.016469
1356 -0.006270 0.014650 -0.030307 0.019880 -0.019989 -0.000704 -0.001977 0.016914 0.021009 -0.020939 0.022219 -0.019113 -0.002720 -0.015741 0.001583 -0.018948
1362 -0.019016 0.002538 -0.029922 -0.003042 0.005517 0.001610 -0.019680 0.030835 0.027861 -0.029114 0.009551 0.002772 -0.021326 0.004070 0.018769 0.002939
1240 -0.030364 -0.014007 -0.005483 -0.006336 -0.027367 0.014336 0.025962 -0.026288 0.024425 0.021940 -0.022555 0.012739 -0.017612 0.027483 -0.004976 0.012007
1347 -0.016444 -0.028244 -0.024396 -0.021822 -0.001516 0.029242 -0.019724 -0.000816 -0.002875 0.003934 0.030612 -0.000847 0.002958 -0.021081 0.013661 0.022703
1200 0.001409 0.003390 -0.006937 0.017071 0.006610 0.028269 -0.018714 0.024945 0.015613 0.011055 -0.030927 -0.019019 -0.006651 -0.006767 0.023338 -0.000089
1575 -0.014467 0.024628 -0.028427 0.017311 -0.018798 0.007606 -0.018405 0.008874 -0.019646 0.030471 0.010994 -0.023024 -0.005211 0.014427 -0.031151 -0.005543
1297 -0.002459 0.004878 -0.026099 0.018495 0.025596 0.003936 -0.025784 -0.013256 -0.011197 0.018787 0.014447 0.019196 0.000901 0.028301 0.002633 0.007887
930 -0.004304 0.029077 0.029237 0.011328 -0.008883 -0.013184 0.004130 -0.009558 0.023441 -0.013199 0.008693 -0.011831 -0.017868 0.017982 -0.029703 -0.027833
1350 -0.010981 -0.015069 -0.001121 -0.017604 0.022465 -0.030302 0.016761 -0.030839 0.001891 0.020319 0.026801 -0.012324 -0.016694 0.029171 0.018878 -0.014261
