1001 16
707 0.018007 0.028667 -0.020559 0.001046 -0.027269 0.029898 0.000976 0.015222 -0.005381 0.007789 -0.018056 0.018720 0.003890 -0.019365 -0.024747 0.009489
638 0.028444 0.006456 -0.016778 -0.011845 -0.024167 0.028214 -0.005441 0.013923 0.014372 -0.030558 0.023298 -0.027647 -0.028290 -0.006968 -0.019791 0.003308
625 -0.010431 -0.023822 0.026084 -0.026580 -0.014379 -0.006102 0.009823 -0.019360 0.000985 0.022955 -0.024706 0.002942 -0.022421 0.030893 -0.020206 -0.006155
628 -0.028447 -0.027097 0.000682 0.008967 -0.023387 0.013781 -0.030570 0.021995 0.011016 -0.018401 0.013490 0.024689 -0.029756 -0.008889 -0.030719 0.026983
626 -0.000799 0.027534 -0.017366 0.013044 0.020454 -0.014403 -0.026995 -0.019180 -0.013267 0.013949 -0.022371 -0.018365 -0.008021 0.000229 0.008085 -0.029692
623 -0.016311 0.018278 0.015399 -0.009937 -0.024458 0.026891 -0.002042 -0.011822 0.012834 -0.018776 0.011134 0.016633 0.022669 0.027192 -0.010655 0.007713
622 -0.011310 0.011261 -0.009283 -0.014740 -0.022295 0.020569 -0.012102 0.030219 -0.021439 0.002762 -0.003236 -0.002983 -0.024948 0.030419 0.003474 -0.000624
695 0.023941 -0.018736 0.004717 -0.025170 0.021086 0.026095 -0.018726 0.015739 -0.022661 -0.022542 0.016613 0.029926 -0.016665 -0.027554 0.026889 0.006454
627 -0.019529 0.016254 -0.015671 0.006284 -0.011509 -0.007861 -0.029737 -0.016100 0.002360 -0.012756 -0.015308 -0.018124 -0.011143 -0.012713 0.017449 0.017220
714 0.004351 -0.007268 -0.004249 0.003286 0.019937 -0.010945 -0.026805 -0.025871 -0.003271 -0.025534 -0.007116 0.022451 0.006598 -0.010032 0.029564 -0.003358
661 0.004561 0.000375 0.017293 -0.010693 0.008367 -0.005407 0.003579 0.021954 0.013893 -0.014826 0.030138 -0.014207 -0.025148 0.022307 -0.017164 0.003263
636 0.005513 0.025236 0.006642 0.005262 -0.021412 0.027504 0.006971 0.001126 -0.024645 -0.023223 -0.008265 0.021070 -0.028230 -0.013435 0.003418 -0.024535
715 -0.026197 0.004441 0.005386 -0.010763 -0.026798 0.003168 0.006460 0.023388 0.004954 0.004888 -0.029308 -0.021785 -0.019418 0.015888 0.005055 0.019840
630 0.012986 0.007411 -0.012638 0.012538 0.029604 -0.031218 -0.016228 0.025907 0.009015 0.002730 0.020163 -0.020176 -0.020668 0.016543 0.015791 -0.017812
689 -0.029892 0.030819 -0.012363 -0.005691 -0.002838 0.013880 0.008407 -0.026101 0.007350 0.025615 -0.005003 0.009518 0.024391 -0.001579 0.005672 -0.029188
727 0.027041 0.003807 -0.005037 -0.001232 -0.020921 0.018626 -0.011733 -0.023304 -0.015633 -0.019040 0.008349 -0.025798 0.003600 0.007714 -0.025927 -0.021216
641 -0.028853 0.023339 0.027202 -0.016568 -0.000704 0.007104 0.029444 -0.000666 0.001951 -0.025992 0.026652 -0.002075 -0.005566 0.020743 -0.023134 -0.002228
650 0.015535 -0.008392 0.028618 0.025002 0.002513 -0.021684 0.022606 -0.023792 0.014860 -0.011617 -0.019329 0.019695 0.005455 -0.011983 -0.024294 0.027576
827 0.011099 -0.024789 0.008273 -0.017676 0.029812 -0.008659 0.016065 -0.022015 0.017168 -0.024514 0.026812 0.020995 -0.001716 0.007228 0.020075 -0.024692
660 0.006971 -0.029323 -0.026349 0.030515 -0.030750 -0.023396 0.009736 -0.011393 -0.027250 -0.028419 -0.009245 0.015763 -0.025228 -0.014269 -0.002166 -0.026457
697 0.004671 -0.020374 0.010194 -0.003061 -0.029603 0.002344 0.011701 0.005313 -0.017318 -0.029983 0.019124 -0.026042 -0.014822 0.005851 -0.025401 0.030630
726 -0.020741 -0.013739 -0.024294 -0.008273 0.001121 0.006470 0.018173 0.013620 -0.021435 -0.025514 0.027673 -0.019217 -0.011121 -0.013960 -0.005938 -0.001050
684 -0.017205 -0.020210 0.008549 -0.027658 0.017563 0.016146 -0.023689 0.029338 0.006486 0.023670 -0.008202 0.006816 0.013850 0.010351 -0.028833 -0.013385
694 0.008085 -0.010655 0.024081 0.002722 -0.000492 0.011189 0.029870 -0.003755 0.000139 -0.008983 -0.030631 -0.026797 0.022750 0.003674 0.027482 0.017740
722 0.021391 -0.004240 -0.007144 0.021497 -0.022323 -0.016873 -0.016432 -0.030188 -0.006552 0.015101 0.010725 -0.026022 -0.001810 0.023013 0.023555 -0.017761
690 0.025008 -0.012285 -0.025313 0.013517 0.010028 -0.017378 -0.014993 0.005462 -0.005499 0.017441 0.000822 0.006809 -0.015631 0.016322 -0.014408 -0.027361
744 -0.015389 0.005428 0.012138 0.027629 0.011991 -0.014606 0.010431 0.029220 -0.020840 0.029794 -0.030837 0.028218 -0.003311 -0.014857 0.013291 0.020556
642 0.010777 -0.023794 0.005692 -0.023971 -0.025057 -0.001302 -0.026004 0.015017 -0.012417 0.024838 -0.006298 0.008084 -0.000383 -0.003540 0.030192 -0.022268
857 -0.013048 -0.026465 -0.026305 0.015253 -0.004207 -0.014255 -0.026470 -0.024213 -0.010730 -0.024951 0.027775 -0.029028 0.025756 -0.022735 -0.019707 0.007755
647 0.030693 -0.009398 0.006114 -0.024941 -0.002162 -0.008961 -0.030753 0.014999 0.020150 0.024233 -0.006031 0.015031 -0.002787 -0.010649 -0.003686 0.003944
705 -0.029755 -0.012572 -0.012242 0.001864 -0.010431 0.016338 0.010137 -0.013396 -0.004911 -0.022140 -0.000585 0.004014 -0.017217 0.004577 0.004048 0.018421
668 -0.019607 0.025119 -0.012194 -0.026041 -0.026374 0.013753 -0.020440 -0.011489 0.026971 0.029811 0.027311 0.005681 -0.029253 -0.005760 0.001975 -0.006369
835 0.015668 -0.028530 0.005952 0.002564 -0.026129 0.029006 -0.005306 0.028555 0.007335 0.004581 0.023119 0.030398 -0.006207 0.014359 -0.022861 -0.008270
747 0.029759 0.002758 0.012251 -0.003979 0.013835 -0.022673 0.013716 0.006557 0.021958 -0.009263 -0.015912 -0.015587 0.027257 0.022341 -0.030127 0.024450
624 -0.011248 -0.024268 0.018381 -0.010426 0.017758 0.012841 0.011401 -0.001034 -0.027592 0.028019 -0.007361 0.028005 0.014943 -0.004352 0.004301 0.023808
677 0.020609 0.022000 -0.023917 0.012299 -0.024703 0.016113 0.017808 -0.001824 -0.029096 -0.016497 -0.018777 -0.003955 -0.026224 -0.020209 -0.027480 -0.028025
664 0.021415 0.001607 -0.009824 -0.011406 -0.006073 0.024781 0.016758 0.001963 -0.030978 -0.026579 -0.014891 0.020247 0.024856 0.009487 0.010357 0.000961
750 -0.013530 -0.019005 0.017872 0.022343 0.030222 0.005927 -0.029219 0.020935 -0.019082 0.004531 0.022500 0.009502 -0.027012 -0.005485 0.008709 -0.026645
685 -0.014141 0.012784 -0.013920 -0.026661 -0.019880 -0.016128 0.005380 0.013850 -0.010003 0.002866 0.009588 -0.000346 -0.002146 -0.023272 -0.016631 -0.028646
741 0.026071 -0.014142 0.009011 -0.000212 0.011538 0.002467 -0.015103 0.004777 0.026618 -0.028322 -0.013126 0.002607 0.002982 0.019608 0.004285 -0.009554
735 -0.018420 -0.023881 -0.017829 -0.003113 0.028281 0.018506 -0.020588 0.005623 -0.017522 -0.013145 0.022292 0.031129 -0.023433 0.026320 0.012490 -0.013137
673 0.026785 -0.008021 0.001461 0.030045 0.015390 0.000922 0.018609 0.004927 -0.018298 -0.020907 -0.021055 0.017910 -0.009337 0.025985 0.004275 0.015091
637 -0.031154 0.003405 -0.012946 0.014836 -0.016962 -0.011893 -0.012821 0.005741 -0.030800 0.024394 0.002300 -0.019960 0.025835 -0.014358 -0.004128 0.015936
693 -0.020225 -0.004101 0.029940 -0.013126 0.030762 -0.008539 0.011429 -0.006145 0.019508 -0.022883 0.019902 0.002907 -0.022687 0.017902 -0.003003 -0.022538
749 0.004561 0.018014 -0.008939 -0.025982 0.028389 -0.030661 -0.004802 -0.011045 0.009256 0.015975 0.016778 0.004105 -0.015767 0.018897 -0.021358 -0.022512
666 -0.014361 -0.029414 0.018563 -0.029171 -0.016534 0.008246 0.020638 -0.026715 -0.000532 0.005540 -0.000967 0.026568 0.023165 -0.021235 -0.023131 0.001824
671 -0.002759 -0.000433 -0.025695 0.030075 -0.020867 0.016068 0.009385 0.003147 0.020949 0.001681 -0.021665 0.015596 -0.011863 0.020035 0.019986 0.011390
656 -0.028632 0.001272 -0.030416 -0.023553 -0.016609 0.011579 0.003067 -0.017462 0.004236 0.014610 -0.010077 -0.003488 -0.024879 -0.013204 -0.013189 0.003405
880 -0.018967 0.005872 -0.013342 -0.025469 0.000537 0.023766 0.030751 -0.004991 -0.027850 0.022841 -0.008348 0.022283 -0.017696 -0.011303 -0.009636 -0.016508
629 0.029968 0.016077 0.011133 -0.022992 -0.011155 0.016979 0.010221 0.013736 -0.030907 0.005699 -0.021921 -0.029106 0.006080 0.002017 -0.028398 -0.001738
683 0.021826 -0.000155 0.023893 -0.029182 0.000819 -0.021335 0.020881 0.023061 -0.024885 -0.025060 0.013334 -0.004680 0.003602 0.007605 -0.025731 0.012326
646 0.013292 0.019638 0.004436 -0.019433 -0.012501 0.013644 -0.009637 0.010914 0.029130 0.027629 -0.011965 -0.030838 -0.004185 0.019553 0.021533 0.021053
686 0.016477 -0.004186 -0.009965 0.009327 0.021388 0.021050 0.005289 0.024759 -0.013381 -0.012383 0.029273 0.022105 -0.002495 0.022927 0.011741 0.028622
719 0.029258 -0.017396 -0.001150 0.006459 -0.029326 0.011205 0.026787 0.025224 -0.023808 0.012554 0.028226 -0.011552 0.015612 0.015378 -0.016883 -0.011166
731 0.024916 0.027616 0.029447 0.019428 -0.019022 -0.015150 -0.014893 -0.022446 -0.006845 0.017571 0.030488 -0.021243 0.000466 -0.020609 0.008618 -0.031035
648 0.005333 0.002566 -0.003996 -0.028656 -0.029554 0.026241 0.005604 0.006688 -0.000467 0.027282 -0.030736 0.010383 0.000291 -0.002264 -0.007326 0.002151
713 0.022587 -0.024892 0.030786 -0.001359 -0.027390 -0.025404 0.003948 0.005443 0.021858 -0.005701 0.027707 0.006453 0.008388 -0.029185 0.011410 -0.003843
667 -0.007584 0.019336 -0.009453 0.029155 0.001553 -0.029267 -0.004199 -0.011645 0.016566 0.002225 0.028654 -0.006470 0.007588 0.006354 0.012393 -0.030371
676 -0.003403 0.025860 0.019375 -0.029792 -0.029002 -0.006252 0.009448 0.030077 -0.002877 0.029993 0.013520 -0.007426 0.028571 0.012810 -0.008701 0.000781
709 0.021933 -0.028453 0.024896 -0.023559 0.025512 -0.004229 0.002301 -0.022719 0.007522 0.007169 -0.021832 0.016980 -0.026675 0.009062 0.022173 -0.028768
717 0.007278 0.012816 -0.012231 0.010004 -0.012535 0.026624 0.014496 -0.023157 -0.014388 -0.027658 0.021743 0.010405 -0.024615 -0.022148 -0.000377 0.022544
663 -0.006954 0.014173 -0.014181 -0.008409 0.000363 0.020500 -0.018199 -0.001909 -0.015492 0.000147 -0.018281 0.020957 -0.024919 -0.001348 -0.019583 -0.007138
742 0.014915 -0.018887 0.020892 -0.016037 -0.007001 -0.024304 0.002347 0.020015 -0.005240 -0.008955 -0.021275 0.015562 -0.023813 -0.006402 -0.024624 0.020462
659 0.028707 0.013680 0.023660 0.030243 -0.015783 0.003772 0.004339 0.008650 0.020636 0.016974 0.013124 0.019225 0.015781 -0.030911 0.020155 -0.013637
662 -0.027995 0.007401 -0.029030 0.015778 -0.028768 0.026991 0.019182 0.024353 0.027876 -0.009099 0.028452 0.030486 0.016357 0.007371 0.021239 -0.009550
691 -0.004958 -0.016928 -0.008633 0.008385 -0.028147 0.011239 0.015566 -0.014499 0.003074 0.022967 0.030533 0.020394 -0.031151 0.007638 -0.017426 0.005582
725 -0.026801 -0.000236 -0.022036 0.001411 0.027058 0.001170 -0.003887 -0.028434 -0.019780 -0.006791 0.002451 0.005024 0.005210 0.020229 0.003656 -0.002067
703 -0.022615 -0.019315 -0.015713 0.030599 0.002614 0.018082 -0.030804 -0.011819 0.018113 -0.021935 0.001971 0.025291 -0.006755 0.002720 -0.024558 0.012611
943 0.007218 0.011968 -0.007352 0.007743 -0.008920 -0.005596 0.009320 0.005374 -0.024821 0.029438 -0.007182 0.020145 -0.026426 0.009708 0.030860 0.027051
645 0.018198 -0.006935 0.003620 -0.016583 -0.008697 0.003739 0.012196 0.009325 0.013719 0.029045 -0.026541 0.003782 0.005018 0.024813 0.015756 0.009624
644 -0.008815 -0.009865 -0.025552 -0.022275 0.008701 -0.017132 -0.027452 -0.028364 -0.022379 -0.022804 0.000062 -0.012610 -0.012873 -0.023973 -0.030331 -0.029459
657 -0.002746 -0.017376 0.006092 0.007057 0.009570 -0.004558 0.007610 0.007382 -0.012468 -0.014325 0.012932 -0.025946 0.029229 -0.030238 0.004138 0.003764
720 -0.000974 -0.010270 -0.006483 -0.009463 -0.020404 -0.002263 -0.008123 -0.004162 0.012777 0.006500 -0.022003 -0.009230 0.002406 0.031007 -0.010378 0.008779
634 -0.028224 0.027076 0.019626 -0.012123 -0.011498 0.010508 -0.016014 -0.004254 -0.022586 0.029164 -0.008185 0.011794 0.012796 -0.000771 0.030681 -0.007220
740 0.017684 -0.002453 -0.019663 0.003137 0.024017 -0.000081 0.005166 -0.016156 -0.023649 0.017159 -0.020752 0.029604 -0.011935 -0.021668 0.029663 -0.015287
818 -0.021335 -0.030887 -0.003764 0.016508 0.001500 -0.006337 -0.013753 -0.008135 0.026930 0.015208 -0.015715 -0.030979 -0.029253 0.028729 -0.021312 -0.017779
698 -0.004701 -0.021533 0.013512 0.008657 -0.003965 0.011526 0.000647 0.021156 0.010575 0.019539 -0.018370 -0.004673 -0.021285 -0.012899 0.012938 -0.012316
675 0.031189 -0.027669 0.001309 -0.027873 0.029964 0.016034 0.012584 0.010402 0.003599 0.010624 0.019593 -0.029461 -0.013943 0.029193 -0.012067 -0.000477
882 0.029363 0.005304 0.016420 -0.003784 0.018001 0.016449 -0.013413 -0.016738 0.016081 -0.024625 0.005394 -0.012744 -0.017242 -0.014973 0.011155 -0.013975
734 -0.007753 -0.015736 0.004588 0.017927 -0.027613 0.014416 0.022254 0.020106 -0.021971 -0.028365 0.016040 0.009122 0.029857 0.018344 -0.020406 -0.019185
730 0.010554 0.021501 0.019131 0.006805 0.015779 0.003971 -0.030224 0.021468 -0.006950 -0.000226 0.019095 -0.010996 0.029643 -0.022720 -0.028654 0.000925
60 0.009374 0.028668 -0.023947 0.026100 0.029660 -0.002128 0.005895 0.027276 -0.009956 -0.024858 -0.031193 -0.023073 0.017524 -0.024582 0.020585 0.025525
651 0.006140 -0.017176 0.004573 0.021537 -0.019790 0.003468 -0.015032 0.012975 -0.010690 -0.026088 -0.021918 0.010387 0.012654 0.021473 -0.009393 -0.021205
908 0.031035 0.010764 0.017869 0.019289 0.003352 0.021276 0.008913 0.006976 0.004633 0.002468 0.018361 -0.023282 -0.000915 -0.004340 -0.010638 0.011064
674 -0.028612 0.022077 -0.027061 0.023349 0.016870 -0.030777 -0.004118 0.003249 -0.003926 0.021626 0.031082 -0.001171 0.019094 -0.023399 0.015437 0.004821
635 -0.021455 -0.000107 0.018302 0.024702 0.013705 -0.012313 0.002131 0.028358 0.004446 -0.018613 -0.013983 0.012853 0.010650 -0.026521 -0.001830 -0.012310
721 0.020311 -0.013216 -0.004901 -0.020424 0.022261 0.010448 0.028050 0.002827 -0.006203 0.004994 0.001216 -0.013445 0.025679 -0.009470 0.005925 -0.017761
665 -0.003307 -0.012661 0.023990 0.014385 0.004331 0.005370 0.018656 -0.028437 0.006750 -0.023513 -0.006016 0.021697 -0.015397 0.015157 -0.001687 -0.027443
716 0.023667 -0.000169 0.025644 0.008462 0.003088 -0.020653 -0.030956 -0.010214 0.013257 0.021559 -0.031225 -0.018587 0.018743 0.012049 -0.021130 -0.010207
904 0.014819 0.005876 -0.013383 0.017370 0.007302 0.023540 0.001490 -0.018130 -0.022738 0.013739 -0.001323 0.026554 -0.008819 -0.027697 -0.005760 0.012637
723 -0.023783 -0.023883 -0.008795 0.011604 -0.004621 -0.011475 0.018980 -0.009365 -0.019614 -0.004937 -0.003806 -0.016645 0.013281 0.018388 0.003156 0.020801
655 -0.010111 0.000023 -0.027722 -0.008384 -0.022592 -0.008046 -0.023216 0.005196 0.005050 -0.005027 -0.019712 -0.010625 0.028679 0.006907 0.020163 -0.000175
729 -0.015033 0.024801 -0.026880 -0.000888 -0.001819 -0.006667 -0.014446 -0.020221 -0.022256 -0.015053 0.020812 0.027858 0.007818 0.019735 0.019928 0.007560
737 0.009265 0.016494 -0.022987 -0.008023 0.014581 -0.016505 0.008188 -0.002398 -0.010046 -0.012771 0.002083 -0.029311 -0.020214 0.029399 0.026632 0.008758
688 0.020564 -0.029886 0.022227 0.021397 -0.020611 -0.013462 -0.029551 -0.010887 0.022247 -0.014382 -0.011031 -0.012490 -0.006854 -0.012080 -0.013478 0.027042
912 -0.021805 0.022082 -0.026530 -0.018928 -0.026937 0.019282 -0.025882 0.026412 0.017920 0.015211 -0.011167 -0.014310 -0.021836 -0.018248 0.012063 0.017813
649 0.030032 0.007261 0.008596 0.000077 0.011559 0.016241 -0.021424 0.021631 -0.027344 -0.000564 -0.001353 0.009601 0.012811 -0.029341 0.003389 0.013302
712 0.026205 -0.002542 -0.019888 -0.030283 0.025565 0.024762 -0.011504 0.006490 0.011373 0.012003 -0.028881 0.014509 0.000329 -0.027070 0.010039 -0.029938
680 -0.007759 0.000340 0.018044 -0.030657 -0.008300 -0.027031 -0.003017 -0.006976 0.014102 -0.004852 -0.016747 0.004103 0.026225 -0.013075 -0.026478 0.009574
733 0.029940 -0.031029 -0.005477 0.009557 0.007476 0.028603 0.002735 0.024375 -0.016847 -0.028450 0.002838 0.004894 0.018542 -0.023844 -0.017147 -0.025326
654 0.020406 0.018754 0.008228 0.012881 -0.023746 -0.028783 0.018030 0.004181 -0.023114 0.017663 -0.027235 -0.011690 -0.005024 0.027280 -0.000709 0.013715
772 0.000838 -0.017693 0.018035 -0.028516 -0.004022 0.004662 -0.004342 0.002323 0.020250 0.009418 0.026404 0.011507 -0.026628 -0.002354 -0.005379 -0.005520
718 0.022579 -0.005872 0.010460 -0.019135 0.011819 0.030246 0.011451 0.001746 -0.030844 0.024151 0.024145 0.008514 0.015334 -0.014056 0.019750 0.014664
724 -0.019035 0.012730 -0.008247 -0.010552 0.002007 -0.009424 0.023286 -0.013665 0.006566 0.021469 -0.026034 0.008499 0.008766 -0.013637 0.023545 0.005309
892 0.026779 0.028779 -0.015906 -0.001246 0.016194 0.029838 -0.028972 -0.014332 -0.010803 -0.020024 0.001251 0.006244 0.020820 -0.014685 -0.019741 -0.021092
653 0.002645 -0.011003 0.016680 0.011054 0.026561 -0.025241 -0.004683 0.023988 -0.023886 -0.021765 -0.009649 0.008465 -0.014652 0.007738 -0.021882 0.007176
706 0.010655 -0.024201 0.006375 0.016048 -0.007526 0.010708 0.019239 -0.018553 0.017160 0.023237 -0.015323 0.018241 -0.023332 0.012741 0.028280 0.000178
640 -0.002905 0.008423 -0.014801 -0.029037 0.020311 0.004045 0.014914 -0.006504 0.021602 -0.018827 0.022086 -0.015033 0.000723 -0.029515 -0.013520 0.030799
736 -0.003087 -0.020330 0.027472 0.001989 0.020940 0.010874 0.003441 -0.005012 0.011346 -0.007732 -0.030262 0.029315 0.015893 -0.002619 -0.026717 0.006065
652 0.029335 -0.011441 -0.009799 -0.008603 0.013579 -0.022143 0.011562 0.020568 0.017633 -0.004036 -0.010917 -0.013949 0.021193 0.004534 -0.022998 -0.020729
679 0.016456 -0.021686 -0.025306 0.012770 0.009037 -0.003953 -0.000483 0.015976 -0.016522 0.014131 -0.024242 -0.000087 0.011726 -0.030873 -0.016185 -0.015814
682 -0.004785 0.013495 -0.030233 0.024529 0.022296 -0.016548 -0.028936 -0.030974 0.015780 -0.007075 -0.022688 -0.023123 0.023889 -0.000069 0.005224 0.004649
658 0.030258 -0.015850 0.014994 -0.011079 -0.030607 -0.027375 0.029433 0.008396 0.006452 0.018080 -0.019795 0.030275 -0.016572 -0.030171 -0.025455 0.014565
681 -0.023694 -0.026631 0.011819 -0.005810 -0.019653 -0.011826 0.014102 0.030674 0.023676 -0.023542 -0.026801 -0.028655 0.004690 0.013466 0.011040 -0.017716
699 -0.011769 0.023315 0.017529 0.017572 -0.008741 0.018403 0.000483 0.025621 -0.014769 0.002459 -0.004954 0.021761 0.008809 0.009565 0.018486 -0.024163
678 0.023218 0.012382 -0.016870 0.008235 0.021279 -0.027266 0.013344 0.020984 0.005806 -0.006534 0.025818 -0.011824 0.002512 0.001067 0.030329 -0.024498
704 0.013223 0.000134 0.023997 0.026385 0.004429 0.007872 -0.030449 0.018259 0.021548 -0.022051 0.003748 -0.022924 -0.000893 0.004297 -0.014833 -0.015122
700 -0.004186 0.023370 0.001090 0.020274 0.014308 0.011216 0.005047 0.012227 0.001937 -0.005908 -0.023899 0.011180 0.020066 -0.004680 -0.017062 -0.019849
708 -0.024878 -0.027808 0.006732 0.028612 0.028537 0.001202 -0.004601 -0.000214 0.004550 -0.012355 0.012240 0.022842 0.018504 -0.017270 0.016235 0.027834
1101 0.012893 0.027325 -0.025929 0.016419 0.029427 0.004738 -0.002237 -0.030086 0.025135 0.001519 0.011386 -0.029211 -0.012477 0.017231 0.015270 0.016566
1596 0.027730 0.031052 -0.013748 0.020688 -0.015236 -0.023568 0.028228 -0.009633 -0.030188 0.019780 0.000506 0.017606 -0.013298 -0.007811 0.030154 0.002558
811 -0.003507 0.009437 0.029823 -0.016501 -0.001044 0.028593 0.000984 0.017358 0.017262 -0.007517 -0.017719 0.002015 -0.004900 -0.012031 -0.016937 0.003222
672 0.026393 0.009396 0.011848 -0.023331 -0.021501 -0.016997 -0.025377 0.000393 0.005824 -0.023859 0.021772 -0.028836 -0.012585 -0.020321 -0.024806 0.026681
762 0.015378 0.024873 0.013324 0.010611 -0.027987 -0.028644 -0.010716 0.015718 -0.011881 0.026396 -0.013449 0.015088 0.012702 -0.006452 0.022874 -0.023632
1284 -0.005299 0.004082 -0.006447 0.019170 -0.027472 0.000835 0.029757 0.028501 0.026970 0.001513 0.000778 -0.014269 -0.009079 0.019080 -0.014287 -0.007382
867 -0.024529 0.030596 -0.004290 -0.017721 0.014943 0.003395 0.026615 0.028844 -0.025717 -0.010691 -0.005413 -0.014635 -0.014637 -0.024547 -0.019146 -0.002203
1458 0.029442 -0.020614 0.001531 -0.016993 0.027583 0.028948 0.025705 0.028208 -0.026499 -0.003487 -0.023153 -0.021370 0.008007 0.019872 -0.024399 -0.030315
1208 -0.019276 0.027174 0.021765 -0.026117 0.013611 0.003944 0.000419 -0.021748 -0.027855 -0.017447 0.002559 -0.007507 -0.005931 -0.006631 -0.013695 -0.000856
643 0.023615 -0.019785 -0.027369 -0.024734 -0.024748 -0.020461 0.002031 0.030629 -0.012177 -0.029904 -0.020149 -0.012907 0.010552 0.031177 0.018785 -0.018952
1152 0.018058 -0.001579 0.013927 -0.004406 -0.012518 -0.012227 0.017304 0.014642 0.019763 -0.007868 -0.029094 0.025035 0.016297 -0.016660 0.011011 0.015096
1131 0.002903 -0.008167 -0.012582 0.011677 -0.003641 -0.007775 0.021097 -0.008895 -0.015931 -0.014389 -0.008152 -0.020897 -0.027335 0.006481 -0.012273 -0.003795
738 -0.024728 0.027073 0.009515 -0.003250 0.018439 0.012889 -0.006646 0.007507 -0.027208 0.028129 0.016267 -0.005321 -0.028087 -0.017040 -0.001455 -0.031103
1405 -0.021591 0.013891 0.023916 0.004421 0.026799 -0.005095 -0.008408 0.008598 0.002010 0.012500 -0.006674 0.002658 -0.029293 -0.006651 0.004149 0.019335
1579 0.026532 0.028332 0.012582 -0.005225 -0.007551 0.011871 0.006585 0.000548 -0.012952 -0.017959 -0.022988 0.006475 -0.014099 0.020448 -0.005337 -0.022335
1502 -0.009747 0.012363 0.018514 0.021663 -0.011648 0.024769 0.006318 -0.010677 -0.011602 0.007271 0.021661 0.012686 0.009753 -0.015784 -0.025308 0.027583
1186 -0.009875 -0.010582 -0.018021 -0.009991 -0.027709 -0.024067 0.026988 0.025245 0.001218 -0.009220 0.021803 0.028401 0.013854 0.018204 0.021203 0.028507
1273 -0.016935 0.014627 0.015582 -0.011888 -0.015965 0.006475 0.009328 0.000807 -0.009103 0.007644 0.027594 -0.022037 0.013143 0.028935 -0.008339 -0.015165
798 0.015989 -0.020959 -0.000835 0.005472 0.001004 -0.015678 0.012591 -0.008758 -0.026750 -0.024482 0.005576 0.001273 0.021547 -0.028563 0.019734 0.014427
1124 0.031173 0.007155 0.017391 -0.027520 -0.021932 -0.017445 -0.028618 0.016806 -0.025664 0.014901 0.010501 -0.028529 -0.011641 -0.009080 -0.026878 0.007907
776 0.015291 0.002713 0.029304 -0.006151 -0.028534 0.017387 0.013787 0.028263 -0.008216 0.013436 -0.013276 -0.017806 -0.021728 0.016465 -0.011228 -0.019506
1517 -0.015810 0.022165 -0.007146 -0.006794 -0.019435 0.026753 0.004286 0.025317 -0.002186 -0.002030 -0.017389 0.030245 -0.027262 -0.004644 -0.027290 0.013523
909 0.008391 0.012441 -0.008677 -0.015927 0.023661 -0.030705 0.029790 0.025325 -0.014837 -0.030620 -0.002223 -0.007970 -0.029736 -0.018907 0.010645 -0.013487
1567 -0.023405 -0.010147 -0.004618 -0.005011 0.023741 0.011625 0.015516 -0.013248 0.005322 0.015733 0.030887 0.006523 -0.002326 0.026182 0.007782 0.009267
1450 0.021786 0.030638 0.007079 -0.000037 0.025806 0.020451 0.008032 0.008588 -0.023753 -0.020056 -0.019703 0.007307 -0.003895 -0.011061 -0.001308 -0.020949
1204 0.009609 0.023859 -0.017423 -0.002054 0.030529 -0.010248 0.029180 -0.023856 0.029544 -0.013749 0.015248 -0.028673 -0.003285 0.008947 0.009910 -0.023242
1509 -0.018234 -0.005919 0.022034 0.025572 0.008196 -0.020687 -0.015814 0.012537 0.017155 -0.016457 0.030104 0.001761 -0.000514 0.019041 0.021455 0.013675
1560 -0.018622 -0.009119 -0.001384 0.006351 -0.016475 -0.007442 -0.012348 0.016036 0.008798 0.015533 -0.007037 0.018920 0.000877 0.002407 -0.000986 -0.020749
952 0.004534 0.017135 0.011173 0.020819 -0.004956 0.027725 -0.021114 0.024428 -0.009893 -0.022378 -0.005173 -0.015735 -0.004258 -0.028806 -0.004164 -0.023160
1414 0.017546 -0.020087 -0.010890 0.029894 -0.014705 -0.004637 -0.004845 -0.020330 0.024931 -0.013550 0.016113 -0.023294 -0.002808 0.024471 0.030007 -0.029667
1200 0.004864 0.001967 -0.005447 0.015300 -0.016694 0.000635 0.001959 -0.017959 0.010102 0.015469 -0.007694 0.008036 -0.005999 0.025649 0.022338 0.023514
807 0.012489 -0.020600 0.023361 -0.023222 0.004957 -0.026782 -0.016686 -0.015375 0.020284 0.025826 -0.004193 0.003032 -0.029081 -0.017772 -0.001020 0.000002
1538 -0.003414 0.002554 0.002342 0.006180 -0.021064 -0.002740 -0.023640 -0.012014 0.004926 -0.013999 -0.008602 0.000215 -0.007274 0.030465 -0.016528 0.020704
1278 -0.019866 0.026289 -0.009064 0.015135 0.013761 0.021949 -0.023877 0.006129 -0.011061 -0.016733 -0.016595 0.026133 -0.010769 -0.026833 -0.016122 0.020767
944 -0.031065 0.012344 0.025039 -0.010681 0.018703 -0.000560 0.017400 0.020456 0.019420 -0.008147 -0.003182 0.012561 0.000933 0.001678 0.008298 -0.025095
858 -0.030688 -0.010558 -0.028656 0.021036 -0.022814 0.003146 -0.009068 0.003080 0.002320 0.025717 -0.014280 0.005936 0.022937 -0.005493 0.030957 0.010129
1142 -0.024100 0.008672 -0.005196 -0.011571 0.021589 -0.018744 -0.019800 -0.013313 0.024256 0.013823 -0.006610 -0.011711 -0.020127 0.019093 0.023460 0.018224
883 0.008965 -0.007781 -0.023132 -0.020406 -0.008373 -0.020685 -0.029199 0.023733 -0.012645 0.000161 -0.023171 -0.016041 0.004646 0.006419 -0.025357 0.006946
1615 0.014759 -0.008698 0.018489 -0.005030 0.006757 0.029672 0.010430 0.017647 -0.004351 0.029884 -0.004114 0.025331 -0.010681 -0.018213 0.011181 0.001292
953 0.005764 -0.017964 -0.024226 0.004829 0.008611 0.013858 0.024167 -0.006730 -0.001024 -0.025651 -0.020358 -0.000593 -0.009870 0.011404 0.022585 0.017806
1283 -0.024943 -0.010371 0.024331 0.012527 -0.017962 -0.016897 0.004706 0.001183 0.019121 -0.023120 0.028823 0.009059 -0.006617 0.011608 -0.024250 0.006627
1364 -0.030050 0.002692 0.018959 -0.013033 -0.005755 0.017479 0.005155 -0.020885 0.024814 0.008466 -0.012668 0.023234 0.015910 -0.002637 -0.021338 0.022347
1540 0.021014 0.019286 -0.027315 0.022602 -0.026511 0.019858 -0.030638 -0.012489 0.003925 0.016850 -0.002139 0.006952 -0.002738 0.010759 -0.003889 0.014196
928 0.012568 -0.023778 -0.019834 0.006146 -0.026076 0.015805 -0.004148 0.023613 0.015708 0.006148 0.020739 -0.027531 -0.007058 0.000698 0.029528 -0.022116
785 0.019207 -0.005575 0.006391 -0.014314 -0.027506 0.007011 0.016750 -0.000305 0.024870 -0.013591 0.013681 0.030916 -0.005482 -0.029705 0.025356 -0.017980
970 0.009503 0.001878 0.018460 -0.007234 -0.024142 -0.001720 -0.022555 0.022835 -0.007089 -0.016896 -0.012688 -0.012172 0.010816 -0.028484 0.004415 0.020827
979 0.010445 0.006279 -0.002467 -0.010001 -0.023010 -0.029173 -0.021798 0.018806 0.012928 -0.013532 0.003977 0.014763 0.009462 -0.017372 0.000397 -0.013433
896 0.014881 -0.018865 -0.022532 -0.027198 0.020320 -0.019961 -0.021894 -0.020687 0.009455 0.027814 -0.000892 0.001123 -0.005107 0.000358 -0.000667 0.029970
1589 -0.027394 -0.016472 0.026222 0.029703 -0.030869 -0.019668 -0.008774 0.024899 0.014618 -0.020058 0.011454 0.022327 0.019409 -0.026507 0.010452 0.009827
1456 0.003159 0.017947 -0.002663 -0.008802 0.016174 0.023068 0.013839 -0.022637 -0.030557 0.016086 -0.010609 -0.016392 0.013357 0.027752 0.003486 0.028669
1486 0.001976 -0.005500 0.017647 -0.006361 0.023406 0.002861 -0.012438 -0.019292 -0.001060 0.002567 0.030808 0.009136 -0.020076 0.005587 -0.029107 -0.016252
1227 -0.019310 -0.024258 -0.028201 -0.024849 0.009514 -0.011318 -0.027443 -0.003677 0.028587 0.027750 -0.020840 0.007873 0.009940 -0.013497 -0.016485 0.029364
1229 -0.026779 -0.023214 0.019753 0.013119 -0.020094 0.026429 -0.002230 -0.017944 -0.029032 -0.028134 -0.023502 -0.005873 0.029964 -0.029296 0.012410 -0.023350
1162 -0.015345 -0.028685 -0.022784 -0.027238 -0.010471 0.019847 -0.030487 -0.029630 -0.027609 0.012829 -0.011037 0.029696 -0.011243 -0.002145 0.030282 -0.025861
621 0.025106 -0.023282 -0.030569 -0.000800 0.028557 0.019162 -0.028687 -0.023191 0.024886 -0.008676 -0.011013 0.013673 -0.003995 -0.024472 0.022066 -0.020449
1230 -0.030141 -0.006643 0.027547 -0.004283 0.005751 0.015838 -0.004706 -0.005465 0.023530 -0.002306 0.025386 0.022429 0.017261 -0.029198 0.011962 0.021182
1409 0.021625 -0.021674 0.001702 0.002285 0.011388 -0.010127 0.015477 0.020170 0.006042 0.024493 0.002199 0.018653 -0.016176 -0.016828 -0.029474 0.005608
1512 0.013622 0.001553 0.028234 0.012940 -0.025100 -0.001474 0.005488 0.004186 0.010043 -0.030746 0.008534 -0.020425 0.023977 -0.028410 0.001166 0.025503
711 -0.001999 -0.010963 0.002822 0.027120 0.024051 0.007574 -0.003810 0.011947 -0.018640 0.022214 0.016333 0.023112 0.012477 0.004758 -0.012161 -0.000986
1137 0.009212 -0.027299 0.013223 0.021217 0.011552 -0.023280 -0.026685 0.021217 -0.007379 0.011792 -0.015772 -0.011486 0.013768 -0.010422 -0.029211 0.013639
670 -0.003194 -0.030829 0.028796 0.010602 0.027738 0.022117 0.016573 0.030936 -0.026524 -0.029024 0.006811 0.016957 0.028856 0.002625 0.007914 0.012472
1277 0.023383 0.014483 0.014793 -0.001448 -0.028107 0.003450 0.010888 -0.018652 0.028765 -0.010598 0.023533 0.025876 0.006139 0.024499 -0.024036 -0.014145
1281 -0.013931 0.011669 0.009366 0.001143 -0.016412 -0.011380 0.029598 0.019958 0.006000 0.027250 0.015243 0.002916 -0.011821 -0.026923 0.029740 0.008525
1342 -0.003879 0.015577 -0.014650 0.013131 -0.010495 -0.000205 -0.029767 -0.030370 -0.000126 0.019547 0.005398 -0.026240 0.014151 0.023588 -0.028654 0.030322
1132 -0.024263 0.023591 -0.023525 -0.004400 0.008014 -0.022722 -0.009234 -0.030075 -0.006449 0.005202 0.016444 -0.015869 -0.026341 -0.010387 0.009176 0.027456
913 0.010073 -0.015158 -0.013709 -0.019464 -0.025449 -0.006820 -0.022890 0.002017 0.030891 -0.013726 0.018658 0.007305 -0.024838 0.027956 0.006570 -0.004680
755 0.029748 0.003469 0.000664 0.006837 0.018997 0.006022 0.027093 -0.023149 -0.017825 0.000891 -0.020192 -0.019789 -0.029559 -0.008855 0.000182 -0.025184
891 -0.026674 0.011482 -0.030670 -0.028644 0.019827 0.025264 0.016373 0.014307 -0.021052 0.013806 -0.026701 -0.019489 -0.000538 0.018289 -0.004315 0.023967
847 -0.012464 -0.015204 0.020028 0.027774 -0.023855 -0.015013 -0.022529 0.023570 -0.003701 -0.027692 -0.004602 -0.004465 0.021020 -0.021476 0.015874 -0.019232
797 0.022804 -0.027639 0.021628 -0.018208 -0.020060 0.011166 -0.021674 -0.014900 0.000869 -0.007632 -0.007948 0.028836 0.028851 -0.014535 0.011096 0.009669
1526 -0.029544 0.022408 0.030191 0.016439 -0.028177 -0.010025 -0.006984 -0.023085 -0.013352 0.028633 0.006628 0.020455 -0.003377 -0.000770 0.024537 0.029926
1616 -0.001212 -0.017110 -0.023215 -0.016777 0.023328 -0.008920 0.025458 -0.004188 0.018029 0.009621 -0.005431 0.011978 -0.006428 0.015167 -0.027774 -0.011034
889 -0.027221 -0.013788 0.025614 0.021241 0.015376 0.004914 0.021676 0.008584 0.020374 0.006572 0.014305 0.029753 -0.027729 -0.004380 0.005277 -0.023179
743 0.014540 0.011898 0.005655 0.021319 -0.002554 -0.008827 0.016189 -0.016938 -0.028024 -0.027636 0.026124 0.027131 0.008129 -0.017165 -0.030301 0.024722
989 0.015445 0.012013 0.006897 0.000291 0.024060 0.005579 -0.011483 0.023219 -0.027844 -0.014716 -0.003059 -0.030368 -0.011571 0.005383 0.022768 0.009405
1331 -0.005928 -0.005235 -0.025856 -0.010412 -0.030154 0.001120 -0.016905 -0.021160 0.016337 -0.024429 -0.000814 -0.028661 -0.001327 0.005456 0.012926 0.022374
901 -0.013157 -0.009722 0.020431 0.001112 -0.016233 0.020070 -0.026581 0.016170 -0.014248 -0.023964 -0.024854 0.021198 0.014418 -0.000899 -0.003724 0.008342
1488 -0.006629 -0.024709 0.016446 -0.028250 0.003365 -0.014818 0.024787 -0.018458 -0.020586 0.019072 -0.015410 -0.026740 -0.015497 -0.027546 0.000869 -0.026438
1415 -0.015345 0.016659 -0.012709 0.026719 -0.014575 0.004106 -0.024073 0.019823 -0.022485 0.005318 0.020757 0.029533 -0.003933 -0.003432 0.000091 -0.004943
1247 -0.012142 0.025030 -0.000982 0.000855 -0.015053 -0.018155 -0.019641 0.023088 -0.028111 0.013496 0.008581 -0.017434 -0.014619 0.026965 -0.008865 0.002050
1494 -0.001969 -0.027636 -0.010579 -0.022553 -0.002785 -0.017496 -0.000112 0.001714 0.022102 0.022139 -0.001392 0.007006 -0.014258 0.023304 -0.019962 0.006365
1359 0.018962 -0.010655 0.008233 -0.013884 -0.004927 0.001756 -0.011847 0.021677 0.022156 0.029638 0.002728 0.008971 0.002502 -0.026205 -0.029931 -0.010135
1220 0.029043 -0.027893 -0.002351 0.023415 0.004025 -0.004077 0.019388 -0.016110 -0.010003 0.011898 0.014543 0.018813 -0.006171 -0.022881 0.023655 -0.000534
957 -0.025838 -0.010591 0.002946 0.014546 0.008444 0.020245 0.016776 -0.020629 0.008147 -0.019642 0.006748 0.013435 0.011014 0.030532 -0.012052 0.027326
991 0.010814 0.017100 -0.000128 0.026677 0.017953 -0.028211 0.008758 -0.027542 -0.013463 0.015623 0.015290 0.028547 0.014270 -0.002784 -0.006622 0.011348
887 -0.014121 -0.010702 0.023301 0.000189 0.005784 -0.006918 0.029641 -0.008534 -0.007945 0.007666 -0.016580 0.025871 0.021472 0.013459 -0.004264 -0.005550
1129 0.028343 -0.012288 0.026484 -0.014064 0.001549 -0.005266 -0.005966 -0.001685 0.023817 0.024663 -0.026441 0.004462 -0.025990 0.008624 0.000078 0.030935
1328 0.008169 -0.018686 -0.001096 0.015316 0.009570 -0.021289 -0.030486 0.028635 0.030132 0.016363 0.009364 -0.026314 0.006893 0.020943 0.017254 -0.001394
898 -0.002321 -0.009439 0.024590 0.014217 -0.028737 -0.013097 -0.000743 -0.007862 -0.016253 0.014653 0.005993 -0.004627 -0.000245 0.027828 0.025998 -0.019801
1376 -0.007250 -0.009063 0.004171 0.009113 0.024800 0.024364 0.028852 0.028982 0.000741 -0.014785 -0.016523 -0.004593 0.028867 0.013706 0.005759 0.012182
1485 0.021909 -0.027237 0.017550 -0.009317 -0.004048 -0.018378 -0.030151 -0.004423 0.005973 0.011344 0.023591 0.028939 -0.025987 0.024813 -0.007414 -0.019395
968 0.004612 -0.009943 -0.008400 0.004820 0.020985 -0.006145 -0.009812 0.020034 -0.018807 0.028461 -0.005931 -0.018803 0.004826 0.006106 -0.016809 -0.015268
1440 0.004299 0.012007 -0.000922 -0.003957 0.005950 -0.011151 0.022076 -0.019460 -0.022617 0.023952 0.025889 0.000776 -0.005331 -0.014013 0.024695 0.022727
1255 0.021071 -0.013917 0.009619 0.003072 -0.016618 -0.004101 -0.025189 -0.014337 0.010303 0.010235 0.020159 0.002420 0.023994 0.024688 0.025778 0.000847
1172 -0.003438 0.005986 0.015180 0.016529 0.017142 -0.030197 -0.023374 0.029716 0.024981 -0.002491 0.029432 -0.011421 -0.023938 0.019029 0.022151 -0.018240
1127 -0.016709 0.011407 0.001680 -0.017473 0.023220 0.021675 0.016837 0.027018 -0.027632 -0.004813 -0.023247 -0.020342 -0.013081 -0.015457 0.029307 -0.022000
1279 -0.004112 -0.024044 0.008110 -0.013588 0.022029 0.006003 -0.024169 -0.003384 -0.028392 -0.024587 0.005370 -0.003291 0.016583 0.014437 -0.009243 -0.007719
918 -0.009480 0.004540 -0.013379 0.006888 0.000041 0.013262 0.019090 0.011392 -0.001408 0.007455 0.006476 0.023141 -0.023311 0.016220 0.025665 0.022448
1048 0.011905 -0.025713 -0.001934 -0.011745 0.004433 -0.020011 0.023301 -0.017189 0.009522 0.000666 0.014457 0.024645 0.021980 0.024850 -0.010699 0.019548
1126 -0.002804 -0.022131 -0.006420 -0.025164 0.029260 -0.029782 -0.029156 0.020553 -0.021055 -0.027343 0.023357 0.017797 0.027755 -0.006890 -0.009135 0.016457
984 -0.019950 -0.002338 0.028053 -0.023390 -0.029438 0.016186 -0.012148 0.019704 -0.012946 -0.002899 0.009191 -0.012870 0.016844 -0.003583 -0.009865 0.014972
1104 -0.001155 -0.002041 0.006280 -0.027858 0.013911 -0.020151 0.023832 0.009693 0.009735 0.004993 0.017214 0.025316 -0.017036 0.023861 -0.014835 0.015278
1238 0.024452 0.019200 0.005879 0.020123 0.022910 -0.023714 -0.026083 0.000033 -0.009659 0.001740 0.013797 -0.029010 0.002903 -0.026947 -0.003596 0.030624
732 -0.009902 0.018571 0.007935 0.011473 0.019648 -0.002531 -0.001851 -0.023591 -0.005022 -0.000977 -0.014522 -0.005692 -0.006730 0.005405 -0.001058 0.009788
1289 -0.023576 0.014427 -0.009637 -0.004880 -0.007516 0.004346 0.002279 -0.019282 -0.023295 -0.031129 0.018396 0.005314 -0.026437 0.028445 0.010172 0.021978
1011 0.008567 0.004188 0.015350 -0.009080 -0.011364 0.015252 0.001039 -0.025383 -0.012006 -0.022862 0.021477 0.026800 0.007946 0.017263 -0.010489 0.010643
833 -0.017420 -0.008220 -0.013388 -0.015375 0.030593 -0.001652 0.022499 -0.000067 0.009093 0.004687 -0.016740 -0.016569 -0.018486 0.030584 -0.002375 -0.025127
1115 -0.006728 -0.029874 0.028782 0.029239 0.001288 -0.007853 0.022507 -0.020540 0.017214 -0.027759 0.023897 0.029442 -0.011566 -0.007237 0.002996 -0.009110
1541 0.000294 0.015144 0.018262 0.008900 -0.000816 0.012449 -0.011066 -0.014020 0.004422 0.018636 -0.016455 0.010466 -0.008614 0.030771 0.029974 0.016093
1155 -0.014003 0.014780 0.000368 -0.026107 -0.024938 0.025103 0.003521 0.008402 0.008959 -0.014866 -0.022340 0.029232 -0.018002 -0.001817 0.028002 0.020592
1056 0.029483 0.030558 -0.004114 -0.017392 -0.002287 -0.014376 0.005164 0.025600 0.026125 -0.020585 -0.002847 -0.016000 -0.023087 0.024066 -0.013611 0.018142
956 -0.020787 0.016145 -0.015635 0.026026 0.000209 0.022974 0.018406 -0.002813 -0.004932 0.026777 0.013354 0.000659 0.009632 -0.007976 0.000492 0.015495
1503 0.018613 0.021024 -0.024951 0.013843 0.006158 0.031213 -0.013023 -0.024997 -0.031058 -0.014405 0.003629 -0.024217 -0.013662 -0.030520 -0.017659 0.029099
702 0.028532 0.029267 0.015865 0.001405 -0.014372 -0.030473 -0.004861 0.011378 0.016566 -0.022360 -0.007435 -0.015118 -0.009337 0.011855 -0.023136 0.026498
871 -0.012764 0.010156 0.010898 -0.024909 0.004659 0.010233 -0.007306 -0.024023 0.000934 0.000546 -0.006257 -0.011351 0.017371 0.024110 0.000656 0.017368
1244 -0.006304 -0.025254 -0.018563 0.024865 0.002970 -0.001245 0.020589 0.022083 0.026685 0.012474 0.016989 0.027594 -0.027118 0.013645 0.003488 -0.015035
1460 -0.004701 -0.002346 0.028456 0.008761 0.004016 0.009365 -0.012403 -0.012839 0.018183 -0.024895 0.004496 -0.009163 -0.001210 -0.006060 0.019575 0.019998
1038 -0.002173 -0.010768 -0.003631 0.005915 0.004523 -0.009803 -0.023143 0.020834 0.020697 -0.024315 -0.010916 -0.028053 0.025921 0.004620 0.023016 0.026702
1064 -0.017434 -0.015253 0.009680 0.028482 0.006736 0.021707 0.028685 0.028028 -0.003032 -0.015169 0.018727 0.028772 -0.026491 -0.005637 -0.014774 0.017011
995 -0.011758 -0.027987 -0.014615 0.006317 0.006426 -0.030065 0.001156 -0.017161 0.012758 0.022162 -0.010169 -0.015671 -0.021046 0.008401 -0.000885 0.016399
1426 0.000013 0.000579 -0.019860 0.013615 0.025218 0.003722 0.010083 0.003922 0.001073 0.012162 0.024799 -0.009899 0.014820 -0.017070 0.017653 0.000179
1535 -0.005868 0.015469 0.003034 -0.017642 0.013605 -0.003166 0.012943 0.019655 -0.012797 -0.028655 0.028235 0.028823 -0.012538 0.005704 0.027906 0.004323
1521 0.030161 0.015828 0.003520 0.028366 -0.004292 0.021961 0.012057 0.013713 -0.028693 -0.025747 -0.022100 -0.030507 -0.015582 -0.028060 -0.020369 -0.019315
1545 0.001930 0.021683 -0.022810 -0.019424 -0.004406 -0.002555 -0.028858 -0.020228 0.029209 0.016376 -0.008556 0.015893 -0.030184 -0.026363 0.029767 0.017280
1003 0.001454 -0.016628 0.011035 -0.024521 0.026465 -0.030748 0.025646 -0.018718 0.002181 -0.012705 -0.005351 0.025555 -0.020160 0.016369 -0.009358 0.020286
1180 0.021012 0.000297 0.008039 -0.004619 -0.002919 0.022511 -0.001734 0.023024 0.021122 -0.004851 0.017247 0.006642 0.020911 -0.010280 -0.007736 -0.024192
1174 0.025550 0.021094 0.006162 -0.017253 0.003900 0.017353 0.010071 -0.010843 -0.025555 0.001565 -0.024152 -0.020081 0.020157 0.005020 -0.026638 0.027201
1570 -0.001659 0.022547 0.029541 0.028226 0.026443 -0.004927 0.004528 -0.001843 -0.019224 -0.009859 -0.024068 -0.013255 0.016058 0.020101 0.009282 0.029819
1453 0.001741 0.027385 -0.012521 0.015549 -0.004988 -0.015087 -0.019248 0.001529 -0.018509 0.002544 0.026635 -0.007011 0.002987 0.004431 -0.020064 -0.003241
923 0.005094 0.009690 0.023176 0.003206 -0.029787 -0.016423 0.010181 0.015764 -0.017376 -0.010090 -0.030904 -0.014376 -0.007757 0.025360 -0.005621 -0.006983
710 -0.021517 -0.004833 0.018830 0.009324 -0.011393 -0.008198 -0.003486 -0.023907 -0.020965 -0.015327 0.017047 -0.025004 0.001182 0.015210 -0.018594 -0.003317
687 0.009723 -0.023093 0.017807 -0.007010 -0.026141 0.008991 -0.015741 -0.007031 0.002567 -0.021402 -0.025082 0.008691 0.013361 -0.015303 0.020701 -0.029486
1600 0.006948 0.029726 0.005567 -0.030426 0.018580 -0.028396 0.007181 0.017023 -0.012109 0.001084 -0.019859 0.005797 -0.015650 0.002148 -0.020595 0.008374
1080 -0.005227 -0.010193 0.000680 0.002365 -0.017800 -0.027093 -0.019745 0.014518 0.022007 0.007913 0.009042 0.001022 0.024045 -0.000885 -0.023386 0.021533
1355 -0.018109 0.014882 -0.013581 -0.008586 0.026374 -0.028071 0.004162 -0.003372 0.011910 0.024438 -0.027989 0.011052 -0.029146 0.019362 -0.009588 0.016057
1298 -0.016533 -0.021094 0.011227 -0.005135 -0.008889 0.006661 0.002768 0.005379 0.013239 -0.009800 0.017126 -0.013688 -0.013658 0.007166 0.017021 -0.030933
1269 -0.026261 -0.006783 0.026851 -0.029195 -0.011205 0.008561 0.015648 -0.013501 -0.012872 -0.010445 -0.011188 -0.005994 0.029170 0.020281 -0.008152 0.007833
1213 -0.006295 -0.022049 0.017809 0.024407 0.012781 -0.016391 -0.005036 0.013898 -0.017145 0.004603 -0.015844 -0.022933 0.022695 -0.023387 -0.022669 0.003850
632 0.005271 -0.022687 0.015486 0.001520 0.006683 0.025322 0.027802 -0.023809 0.018779 -0.018141 -0.005209 -0.029258 0.020758 0.004952 0.022506 -0.013344
766 -0.024250 -0.010958 -0.001220 -0.000400 -0.000945 0.020905 0.001393 -0.006845 -0.005746 0.003042 0.020749 -0.020726 0.023487 0.014655 0.029867 0.027089
753 -0.000464 0.011122 0.018877 -0.025994 -0.005936 0.011960 0.009089 -0.030045 0.008724 -0.006716 -0.019258 -0.029229 -0.005364 0.025646 -0.016246 -0.028519
1611 0.004508 0.029210 0.012404 -0.028912 -0.025066 -0.006085 0.001412 -0.007535 -0.005242 0.006948 0.008935 -0.010107 0.001413 0.028939 0.004254 -0.003341
1434 -0.025703 -0.023330 0.019139 0.011412 -0.023457 -0.022031 -0.023440 -0.001092 -0.015512 0.016138 0.014576 -0.009796 0.015600 0.013118 0.019905 -0.022977
761 -0.021678 -0.000252 0.002556 -0.001770 0.009951 -0.003724 0.007145 0.016657 0.020378 -0.009894 -0.017289 0.016176 -0.015255 0.014160 0.000961 -0.002143
767 0.006775 0.026017 -0.008525 -0.029109 -0.026130 -0.003282 0.012822 -0.008597 0.013022 0.027925 -0.015423 0.030247 -0.015825 -0.004353 0.023501 0.030903
1026 -0.024978 -0.013243 0.011139 0.007486 0.026938 0.022751 0.004013 0.016213 0.025924 -0.021361 -0.005664 -0.015992 0.000511 0.009794 -0.013692 0.018306
905 -0.006517 0.016533 0.019365 -0.000750 -0.013547 0.000712 0.024618 -0.001396 0.004353 0.001655 -0.010262 -0.009970 -0.018294 0.025952 -0.002272 -0.002477
1437 -0.005398 -0.021116 -0.027697 0.018050 -0.027865 -0.010826 0.028987 0.029242 -0.000248 -0.010614 -0.004472 0.018840 0.011836 -0.008977 0.017973 0.020023
1054 0.016332 -0.015432 0.013851 -0.019758 -0.024118 -0.024579 -0.009150 -0.000289 0.005645 -0.027125 -0.023858 0.022647 -0.010284 0.029283 -0.000409 -0.021980
1037 -0.021467 0.007197 0.021122 0.001517 -0.026144 -0.014425 -0.005087 -0.020732 0.016618 0.029803 -0.031193 0.025464 -0.022358 -0.011380 0.000562 0.015546
692 0.010118 -0.003241 0.020743 -0.002903 -0.029492 -0.026077 0.028577 -0.003782 0.006870 0.007925 -0.012642 0.014130 -0.021769 -0.002452 -0.010894 0.022135
1351 0.026198 -0.002882 0.017181 -0.004155 -0.002937 0.029106 0.008730 0.003421 -0.020290 -0.030556 -0.028080 -0.006273 -0.010520 -0.000302 -0.004801 -0.023103
888 -0.010639 -0.021817 -0.026164 0.002654 -0.000180 -0.027479 0.027213 -0.030304 -0.018197 -0.002959 0.008696 -0.023942 0.029610 -0.011533 0.030182 0.002812
1028 0.013107 0.024313 0.004255 -0.012149 -0.020354 0.027741 0.005607 0.024418 -0.004960 -0.007945 -0.031239 -0.003955 0.012781 0.028598 -0.001368 -0.029990
1537 -0.024916 0.018870 -0.004480 0.026164 -0.022215 -0.030256 -0.005990 0.022349 0.027507 -0.019598 -0.020418 -0.018876 0.024293 0.003503 0.009631 -0.000044
1532 0.000893 -0.027592 0.012953 0.027538 -0.014692 0.002399 -0.011075 -0.007075 -0.016300 -0.001571 -0.014565 -0.013057 -0.001913 -0.013371 -0.017553 0.012866
728 0.001240 -0.027592 -0.018025 0.008178 -0.022798 0.019385 0.018748 -0.021699 -0.021298 0.004061 0.020226 0.016195 -0.006016 -0.026601 -0.026279 -0.004002
1601 -0.023620 -0.023314 0.011179 -0.017073 -0.030244 0.030416 -0.005706 -0.028824 0.001792 -0.014763 0.015621 0.021376 -0.023891 0.025264 -0.030457 -0.008503
1239 -0.008474 0.018444 -0.003374 0.014658 -0.009850 -0.013016 -0.001533 0.007247 -0.013771 -0.023635 -0.024817 0.002813 -0.028687 -0.008218 0.017900 -0.014205
822 0.009808 0.013377 -0.017196 -0.012973 -0.017209 0.007020 -0.014974 -0.009648 0.010638 0.014322 0.027994 0.010532 0.005144 0.003452 0.003471 -0.000310
1493 -0.016108 0.022944 -0.022800 0.017894 -0.007556 -0.010199 -0.009431 0.010294 0.011641 -0.001229 -0.028955 0.025526 -0.018778 0.002891 -0.013610 0.007839
1501 0.005974 -0.019171 0.011340 0.017636 0.003968 0.021582 0.023107 0.029737 0.014910 -0.006406 -0.017712 -0.005035 -0.012663 0.001602 0.014921 0.023771
881 0.006615 -0.017562 -0.016645 0.025433 -0.019316 -0.017381 0.022709 0.024337 0.027249 0.001936 -0.009924 -0.004149 0.014243 0.023823 -0.019041 -0.018992
1112 0.017873 -0.000715 -0.005912 -0.021124 -0.026211 -0.001751 -0.029474 -0.006104 0.001335 -0.010485 -0.021997 0.022227 0.026454 -0.022042 0.030841 0.007840
781 -0.025297 0.024255 0.006353 0.010687 0.018760 0.028617 0.013092 0.024726 -0.011648 0.002610 0.004688 -0.010781 0.002715 0.013617 -0.006948 0.012845
1566 0.000238 -0.015300 0.023265 -0.003781 -0.016897 0.026754 -0.028314 0.001829 -0.011619 0.026968 0.005315 0.010004 0.010516 -0.025221 0.012386 0.027369
1214 0.004924 0.003089 0.030460 0.029707 0.020166 0.010158 0.019016 -0.022276 0.002587 0.013382 0.016334 0.019849 -0.003389 0.000756 0.012961 -0.016701
633 0.022055 -0.007548 0.002348 -0.028134 0.010249 -0.023143 -0.013344 -0.002294 -0.017417 -0.018837 -0.021292 -0.012948 -0.004115 -0.013097 0.010064 0.027388
1006 -0.000774 -0.018815 0.021131 0.002808 -0.017120 0.024975 -0.014645 -0.003534 -0.024006 0.015345 -0.029364 0.028283 0.017179 -0.000365 -0.009123 0.015978
832 -0.004990 -0.001769 0.003502 0.011202 -0.000538 -0.020444 -0.012784 -0.015437 0.029878 -0.016868 0.008752 -0.024633 -0.006220 -0.013127 -0.027325 -0.012700
1576 -0.001155 -0.008360 -0.016552 0.006515 0.020063 0.006130 0.002406 -0.001272 -0.000321 -0.018514 0.028944 -0.008695 0.028712 0.012760 -0.011403 -0.020387
769 0.023474 0.001529 0.025251 -0.012284 0.028198 0.020362 0.010199 -0.005312 0.011911 0.017498 0.010733 0.009337 -0.022218 0.012699 0.002959 0.013361
1187 -0.026240 0.011590 0.021459 -0.022552 -0.004613 0.026007 -0.021793 -0.014500 0.008685 -0.017402 0.006834 0.026515 -0.023108 0.017133 0.005132 -0.016790
1004 -0.017300 -0.023385 -0.029741 0.001588 -0.030290 0.022236 -0.009706 -0.017060 -0.001174 -0.020149 0.005645 -0.024196 0.004048 -0.028198 -0.010998 -0.029908
1523 0.016778 -0.024802 -0.009430 -0.029910 0.029098 -0.014554 0.000922 -0.030298 -0.023694 -0.020465 0.014860 -0.024650 0.029997 0.025084 -0.005841 -0.021973
855 -0.003836 0.009056 0.014598 -0.027372 -0.013594 0.024503 -0.028447 -0.015492 0.019709 0.027448 -0.014367 0.028043 0.019143 0.030702 0.031031 0.016734
1366 0.025687 -0.007246 -0.015639 -0.001433 0.027980 0.018196 -0.002053 -0.025217 0.029668 0.014577 0.028169 0.028954 0.012984 0.002062 0.022185 -0.016484
1179 -0.026542 -0.028498 -0.017102 0.026213 -0.012502 0.019426 -0.008398 -0.021810 -0.030465 0.004661 -0.017077 -0.020918 0.002810 0.029983 -0.007318 -0.001447
917 -0.020712 0.024690 -0.013897 0.012841 -0.029730 0.010067 0.006352 -0.004380 -0.007987 0.013988 -0.007179 -0.004256 0.028819 -0.021160 0.017001 0.004615
1489 -0.010442 -0.022073 -0.020997 -0.009339 0.017371 -0.001611 -0.025725 0.014082 0.001536 -0.009087 -0.023334 0.018661 -0.016380 -0.004036 -0.013980 -0.027252
1513 -0.027972 0.025975 0.013373 -0.002366 -0.005085 -0.027773 0.011069 0.025766 -0.003034 -0.006344 0.006632 0.018279 -0.025425 0.030312 0.024262 0.008384
1225 0.011018 -0.021215 0.008508 -0.023108 -0.027201 -0.015728 0.000528 0.026860 -0.020369 -0.008978 0.002112 -0.006605 -0.023109 0.029151 -0.024925 -0.019874
961 0.029724 -0.000830 0.007387 -0.007725 0.007549 0.028292 -0.019803 -0.016917 -0.006039 0.028178 0.010712 0.015727 -0.004713 0.018626 -0.017097 -0.000416
1506 0.008926 0.019780 -0.001282 -0.001297 -0.025011 0.008513 -0.030696 -0.007206 -0.026546 0.018316 0.011382 -0.006393 0.017878 -0.002690 0.009711 -0.014238
1249 0.012992 0.004914 0.023908 0.007179 -0.001384 -0.006663 0.010877 -0.002351 -0.017929 0.009684 -0.013710 -0.011150 -0.005483 0.015410 -0.025081 0.010071
1580 0.012310 -0.008300 0.026671 0.022855 -0.013281 0.005941 0.011044 0.009543 -0.018828 -0.030569 0.008691 -0.019125 0.010585 0.029052 0.006951 0.009789
1083 -0.006959 0.028850 0.015440 0.019358 -0.018022 0.010640 0.019499 -0.023925 -0.007011 -0.023375 0.030555 -0.027564 0.017816 0.013782 0.009291 0.004482
1153 -0.027030 -0.017105 0.009393 0.011402 0.014016 0.004428 -0.010361 0.014225 0.007177 -0.029072 -0.027038 -0.008892 0.023441 0.019040 -0.013103 -0.021015
1149 0.027829 -0.010807 -0.027342 0.009038 -0.022661 0.023090 -0.020562 0.007689 0.001547 -0.015923 -0.012722 -0.003484 0.006856 -0.003792 0.009467 0.013460
1619 -0.011649 0.001814 -0.027841 -0.011361 -0.002819 -0.003905 -0.019401 0.023602 0.001243 -0.019400 0.005991 -0.028361 0.009352 0.028622 -0.024818 -0.014412
817 -0.011143 -0.016087 0.012661 -0.030678 -0.012508 0.020322 0.018609 0.029972 0.011979 0.023897 0.005218 0.003309 0.011540 0.027465 0.002351 -0.012010
1069 0.007125 0.003247 -0.021116 0.005998 -0.027274 0.009553 0.029686 -0.020186 0.018862 0.029907 0.009464 0.021499 0.020881 -0.029067 0.014660 0.016375
1347 0.026442 -0.027791 -0.015523 -0.016105 -0.006428 0.020160 0.013313 -0.000870 -0.020976 0.007900 -0.002703 -0.019439 0.011006 0.021203 0.012158 0.030543
963 0.013232 0.030038 -0.023094 0.030609 0.029666 0.009092 0.020157 -0.019861 0.023880 0.029408 0.025668 -0.026909 -0.002784 -0.027495 -0.019991 0.019787
639 -0.026891 0.010848 -0.031198 -0.011641 0.006583 -0.013973 -0.011056 0.010135 -0.001374 0.021883 0.024876 0.013480 0.023944 0.005038 -0.026076 0.007672
756 -0.001710 -0.010507 0.008791 0.010182 -0.009453 0.017356 0.028897 0.018086 0.022495 0.011693 0.028537 0.011999 0.017960 0.004741 0.010273 0.020611
1372 -0.029098 0.010398 0.013644 -0.007328 0.004439 0.018280 0.003720 -0.020620 0.027639 0.014121 0.012763 -0.008283 0.028658 -0.018134 -0.016410 0.022923
946 -0.000822 -0.004349 0.009796 -0.005140 0.022494 0.019012 0.001251 0.014882 -0.008114 0.014817 -0.000466 -0.020461 0.028025 -0.001918 0.015447 0.020647
1275 0.007794 0.014205 -0.024984 -0.023230 -0.029872 0.024178 0.011410 -0.001572 -0.029210 -0.001481 0.025545 -0.015613 -0.021767 -0.016091 -0.023455 -0.019364
1554 0.029712 0.030986 -0.016598 -0.023685 0.031232 -0.015710 -0.018299 -0.001458 -0.003875 -0.005403 -0.014024 -0.013614 -0.001454 -0.021125 0.003535 0.031069
1166 -0.028342 -0.014151 -0.016131 -0.020025 -0.020106 0.004728 -0.028953 0.005093 0.014523 -0.010597 -0.030561 0.012230 0.013412 0.026651 0.031067 -0.003456
1413 0.011088 0.009870 -0.022530 0.025719 0.013187 0.019147 -0.019936 0.030074 0.002866 0.003585 -0.003486 -0.006583 -0.011173 -0.009302 0.009126 0.010218
1362 -0.017065 0.028917 -0.008407 0.015185 0.017841 -0.010370 0.017238 -0.014610 0.020801 0.008536 -0.021577 -0.017933 -0.001444 0.002270 0.015132 0.006023
1243 -0.022431 -0.030262 0.004033 -0.024840 0.028795 -0.019904 -0.001624 0.021889 0.024242 -0.028090 0.026238 -0.000387 -0.022994 0.014068 -0.001209 -0.006829
1143 0.011715 -0.030285 0.011670 0.003351 -0.027163 -0.028353 -0.028826 -0.029305 0.001159 -0.022155 0.027347 0.016003 -0.004963 -0.009301 -0.008592 0.009464
1280 -0.021724 0.005965 0.015350 -0.017409 0.013997 0.001626 0.009321 -0.017975 -0.003015 -0.013732 0.025026 0.029799 -0.016046 -0.017737 0.026462 0.003289
893 -0.030312 -0.025955 -0.028775 -0.005301 -0.014818 -0.016780 -0.028271 -0.004811 -0.018644 0.027079 -0.003484 0.026145 0.000158 -0.011716 -0.009665 -0.000198
1497 -0.015517 -0.022877 0.016956 0.017555 0.016325 0.017343 -0.001457 0.016950 0.024195 0.010135 0.019089 -0.030036 0.012432 -0.020271 0.030832 0.025129
1270 -0.018078 -0.025025 0.014649 0.010545 -0.028779 -0.014464 0.014723 0.005327 -0.004004 0.028989 -0.018147 0.003745 0.001063 -0.020011 -0.012224 -0.026372
971 0.011064 0.003584 0.001474 -0.013763 0.029905 -0.000376 -0.012648 0.021274 -0.020596 0.028134 -0.001654 0.001571 -0.021814 -0.006001 0.020792 0.020146
1057 0.030576 -0.006053 -0.028889 0.006468 -0.013033 -0.006112 -0.018079 0.012335 -0.010016 0.015699 0.017730 -0.009473 -0.011763 -0.015895 -0.015677 0.030798
696 -0.011725 0.028831 -0.017777 0.018764 0.018183 -0.010559 -0.004557 -0.003745 -0.017778 0.014658 0.015138 0.004047 0.019057 0.025857 0.014158 0.014062
757 -0.022453 0.006785 0.024591 -0.029468 0.024413 -0.011439 0.015725 0.008454 0.010258 0.008326 0.023378 0.025739 0.007098 0.006852 -0.019536 -0.026297
1223 0.016360 0.016069 -0.003469 0.016230 -0.000446 0.001809 -0.009007 0.006852 -0.015701 0.027717 -0.004164 0.026947 -0.028766 0.018195 0.005955 -0.021346
1036 0.006189 0.008529 -0.026678 -0.020910 0.023030 0.004090 -0.010259 0.026797 0.024628 0.023547 0.010887 0.021393 0.017355 -0.006223 0.024586 -0.001409
1393 0.001407 -0.005786 -0.005501 0.022109 -0.023128 0.007326 0.020230 -0.021444 0.010515 -0.009013 -0.021407 -0.007819 0.005828 -0.008931 -0.009670 0.024014
1514 0.028924 -0.024997 -0.029289 0.007218 -0.019516 -0.009064 -0.002330 -0.028249 0.006907 -0.018426 0.009153 -0.025896 0.029620 0.017798 -0.015270 0.029030
779 -0.000265 0.002015 0.029097 0.022626 0.026156 -0.026416 -0.018591 -0.030238 -0.018685 0.009086 -0.003670 -0.030696 -0.016620 -0.022689 -0.014129 -0.003330
1171 0.021344 -0.023187 0.027152 0.023694 -0.008940 -0.013919 -0.016479 0.011884 -0.022198 -0.017519 -0.026936 -0.020517 0.028272 0.011200 -0.002010 -0.016526
1282 -0.027994 -0.017282 0.023178 -0.031122 -0.010863 0.021275 -0.017202 0.002583 -0.015864 0.025147 -0.014643 -0.016618 -0.019366 0.019881 -0.027988 -0.022604
850 -0.016751 -0.015270 0.001337 -0.026322 -0.011324 0.001087 0.006078 -0.010610 -0.001077 -0.003503 -0.016228 0.024981 -0.013166 -0.006285 0.026503 0.017998
1095 -0.030294 0.021432 0.018914 0.008596 0.000450 -0.006646 0.017783 0.006244 -0.001886 -0.006518 0.008938 -0.000072 -0.016473 -0.009584 0.008414 -0.030371
1620 0.017946 0.021561 0.029869 0.012459 0.003880 0.018920 0.000982 -0.012210 -0.019216 0.013856 0.018764 -0.016972 0.011320 0.009132 -0.031000 0.001178
1301 -0.004510 -0.030552 0.011386 0.027238 0.024846 0.004430 -0.013302 -0.020079 -0.014678 0.029010 -0.023886 -0.030758 -0.014596 0.023387 0.019824 -0.007116
631 0.022385 -0.007824 0.002429 0.020794 0.008018 -0.004123 -0.019777 -0.024886 -0.001702 -0.022080 -0.029841 -0.009418 -0.024983 0.023781 0.016312 0.021231
926 0.008102 0.000883 0.029248 -0.021225 -0.027899 -0.022131 -0.029277 0.001718 -0.003792 0.005090 -0.002018 0.001408 0.030429 -0.020452 0.016285 0.002184
1100 -0.010207 -0.013376 0.000451 0.019489 -0.000859 -0.007831 0.014100 0.010653 0.009021 0.000640 -0.019619 -0.030662 -0.022743 0.026506 -0.021940 0.023896
813 0.001285 0.023954 0.005616 -0.022263 -0.024338 -0.015020 -0.016393 -0.006503 0.001979 -0.026079 0.023891 -0.000401 0.021203 -0.013636 -0.028483 0.016943
778 0.008069 0.002767 -0.020907 0.000249 0.008119 0.008373 0.003107 -0.024252 -0.016672 -0.017791 0.016399 -0.026953 0.030448 0.018365 -0.030895 -0.008198
1318 0.012363 -0.010953 -0.026130 0.018942 -0.016636 0.024816 -0.008487 -0.002237 -0.004121 -0.013014 -0.019260 -0.020565 0.015280 -0.018844 -0.012595 -0.012968
1455 0.020741 0.006197 -0.020201 0.010902 -0.019222 -0.003198 -0.026434 -0.025283 0.017839 -0.021688 -0.015426 -0.002846 -0.018037 -0.019336 -0.020670 0.003606
1398 -0.029860 0.014826 -0.001668 -0.026358 0.022935 0.011355 -0.008137 0.027770 0.003869 0.016097 -0.007166 -0.006112 -0.022021 -0.024154 0.021146 -0.016700
1272 -0.024373 0.016942 0.020534 -0.013667 0.027473 0.012317 -0.024683 -0.025138 0.005888 0.016881 -0.001679 -0.011161 -0.005776 -0.027229 -0.017446 0.004809
1116 0.022151 0.000058 0.029108 -0.021976 0.005705 -0.023094 0.023235 -0.004177 0.019909 -0.020632 0.008493 -0.008377 -0.000862 0.017744 0.026442 0.019164
1389 -0.016162 -0.000053 0.028578 0.026265 -0.017996 0.007998 0.026724 -0.002729 0.024652 -0.013470 -0.000924 0.027781 -0.006800 -0.003061 0.016548 -0.023319
1013 -0.030523 0.024819 0.002466 0.023958 -0.019939 0.030757 -0.027616 -0.008909 0.007316 -0.004703 0.001320 0.009582 0.016331 0.008370 0.007096 -0.014869
1524 -0.031073 0.029799 -0.024567 -0.019248 0.023929 -0.023157 0.012879 0.019275 -0.004751 0.001313 0.022965 -0.004439 -0.004634 0.010467 0.026470 -0.024197
1319 -0.017142 -0.019258 -0.016325 -0.024877 -0.027133 -0.020203 0.010085 0.015529 0.004695 -0.002120 0.020133 -0.025591 -0.014313 -0.026607 0.016410 0.007100
1140 -0.013610 -0.002436 -0.015508 -0.000757 0.021570 -0.026465 0.018200 0.014866 0.006111 0.007389 -0.006868 -0.005127 0.011235 0.025618 -0.002464 0.008803
1188 -0.014889 0.006292 -0.017293 0.000657 -0.005043 0.023485 0.028957 -0.024862 0.014971 0.000284 0.011790 -0.020468 0.009805 0.003922 0.018863 0.012096
921 -0.006422 0.026076 0.024416 -0.027619 -0.026829 0.022547 0.008220 0.003080 -0.011897 0.013035 0.006429 -0.003906 0.001230 -0.027954 -0.031233 -0.001650
1009 0.024811 -0.011962 0.029725 0.001980 0.017077 -0.004274 -0.025840 0.017350 0.014858 -0.028063 0.015769 0.020870 0.006789 -0.028361 -0.022560 -0.016612
980 0.008278 0.013417 -0.021804 0.014178 0.003116 -0.001590 0.013845 -0.000406 -0.024977 0.024632 0.018504 -0.002216 0.025155 0.030106 0.020148 -0.002894
1164 0.020045 -0.004428 0.000939 0.013614 -0.024483 0.004624 -0.029900 0.004147 -0.009710 -0.024178 0.020588 -0.009027 -0.017604 -0.028876 -0.018916 -0.017180
1308 -0.023395 -0.028905 -0.007302 0.003572 -0.017650 -0.028788 -0.013994 0.007703 0.019426 0.012522 0.025967 0.028418 -0.012812 -0.003638 -0.005824 0.010433
1294 -0.012254 0.023092 0.006275 0.019684 0.015773 -0.030631 0.002026 -0.019177 -0.028041 0.022177 -0.017158 0.008427 -0.005458 0.024126 0.004703 0.005796
920 0.007957 0.029415 0.020483 0.020236 -0.026575 0.024159 -0.014816 0.007432 -0.002577 -0.014220 -0.020087 -0.018426 0.030228 0.025928 -0.014985 -0.030273
1474 -0.002205 0.008391 0.020941 0.010934 0.019064 -0.020888 -0.022099 -0.029035 0.007019 0.017501 -0.019921 0.017849 0.008858 0.018370 -0.019991 -0.023292
1176 0.011354 0.000773 0.017245 -0.015790 0.001574 -0.009780 0.021969 -0.024207 -0.021292 0.014820 -0.020055 0.010859 -0.023098 -0.025234 -0.000854 0.005790
1427 0.001258 0.020108 0.003843 0.006626 0.029544 0.018959 -0.017768 0.028359 -0.013848 -0.008813 -0.015507 -0.029593 0.001703 0.013049 0.017098 0.008000
1481 0.025437 0.005303 -0.027567 0.002068 0.021895 0.007631 -0.023205 0.014723 0.025723 -0.014849 0.022328 -0.018779 0.017245 -0.000975 0.002328 0.012816
1203 0.011298 -0.019871 0.003048 -0.011515 -0.007763 0.008824 0.028216 0.015335 0.026879 0.005883 -0.027443 0.025031 -0.020416 0.018123 0.022639 0.028879
1484 0.013958 -0.004648 0.007515 -0.002280 0.008832 -0.019732 -0.017422 -0.016283 0.020826 -0.030723 -0.007133 -0.020164 0.021795 -0.010968 0.015063 0.009642
1022 0.019957 -0.012822 -0.022633 -0.018881 -0.014047 0.007599 -0.012989 -0.024595 0.008094 0.019936 0.004833 -0.019344 -0.027066 0.021251 0.028834 0.003369
1433 0.012591 -0.006926 0.002142 0.014299 0.000383 -0.026453 -0.030469 -0.014554 0.018781 -0.022412 -0.009408 0.002766 -0.030854 0.015829 0.022514 0.013012
1321 -0.022450 0.023594 0.005209 -0.019348 0.030587 -0.030191 0.030971 0.012118 -0.011779 -0.022220 -0.012865 -0.015293 0.021243 -0.016471 -0.000999 0.005272
1594 -0.025228 -0.018992 -0.006908 0.030856 -0.026186 0.029051 -0.006336 0.022742 0.003934 0.026704 -0.014598 0.010108 0.027680 0.003114 -0.029098 -0.025160
854 -0.016696 -0.022711 0.027128 -0.029373 -0.024730 -0.029705 0.001644 -0.025077 0.006017 -0.000672 0.009781 -0.013590 0.023731 -0.018966 -0.004808 -0.007943
987 0.027147 0.018915 -0.004471 0.014913 -0.008020 -0.008575 -0.003277 0.025985 0.031189 -0.021357 0.007707 -0.011756 -0.031037 -0.018490 -0.017317 0.017550
1096 -0.000406 0.008194 -0.013513 -0.020238 0.023198 -0.026277 0.030869 -0.002433 0.021098 0.003117 -0.002149 -0.012068 0.010267 0.010465 -0.031066 -0.022343
1477 0.013620 -0.008907 -0.011909 0.021583 -0.003093 -0.000168 0.015485 -0.001577 -0.009873 -0.025786 0.000329 0.018746 0.023500 0.016080 0.025027 0.005205
894 0.005023 -0.002612 -0.011992 -0.018631 0.027751 -0.007493 0.018349 0.019134 0.020773 -0.009138 0.025292 -0.028803 -0.005303 0.005971 -0.015053 0.023622
861 -0.029249 -0.009803 -0.014180 -0.000741 0.030538 0.028592 -0.017704 -0.026940 0.019573 -0.024428 0.024350 0.009347 -0.010661 0.015979 -0.028533 0.011266
1335 0.029126 -0.022948 -0.026958 0.004886 -0.022403 0.015757 0.018075 0.001018 -0.023014 0.005936 0.018473 0.000418 -0.024959 0.017708 -0.000771 0.020634
1068 0.024550 0.008039 -0.028374 -0.001684 -0.019522 -0.020361 0.013612 0.010458 -0.025030 0.027966 0.019198 -0.008249 -0.006180 0.018877 -0.003665 -0.021100
1107 0.029425 -0.000824 -0.024197 0.010831 -0.006732 -0.000026 0.028393 -0.016869 0.001111 0.001790 0.008953 -0.016712 0.010296 -0.010132 -0.020013 0.004060
1303 -0.024711 0.007008 -0.012938 0.006752 0.020627 0.019723 -0.001695 -0.001630 -0.012170 0.024086 -0.016961 0.003158 -0.000098 -0.005204 0.021466 0.000579
1546 -0.011261 0.002149 0.023275 -0.011752 -0.003655 0.025019 0.014115 -0.019781 -0.012193 0.017175 -0.000289 -0.025417 -0.010032 -0.007958 0.019809 -0.028280
945 -0.022131 0.004221 -0.016996 0.027584 0.029391 0.018150 -0.029386 -0.012758 0.013682 -0.016454 0.018431 0.018837 -0.025161 -0.022502 -0.022218 -0.021845
916 0.012906 -0.023406 0.009821 -0.021656 -0.017427 -0.023926 -0.015206 -0.005320 -0.018808 -0.002756 -0.025953 -0.001209 0.029038 0.013209 0.020301 0.013515
1070 0.009829 -0.010606 -0.021698 0.003716 0.018332 0.016376 -0.001019 0.005124 0.018542 0.030226 0.018733 -0.006129 -0.014942 -0.029147 0.009344 -0.028674
758 -0.023691 -0.026143 -0.014870 0.017475 0.020248 0.023299 0.013974 -0.024840 0.003532 0.021237 -0.015506 -0.006160 0.017177 0.017242 0.008826 0.031058
1145 -0.011663 -0.011691 -0.008818 0.009921 -0.013164 -0.021920 0.021453 0.014150 0.020483 -0.010033 -0.029940 0.000508 -0.020436 0.012813 0.005373 -0.007516
1367 -0.026944 0.006758 -0.023875 -0.021697 0.020367 0.014680 0.029730 0.023309 -0.002449 0.012680 0.019430 0.018720 0.025175 0.001029 0.017606 -0.004684
831 -0.000179 -0.020382 -0.001649 -0.000367 0.015440 0.011015 0.007086 -0.002292 -0.025035 0.001198 -0.015766 -0.030459 0.004573 0.022934 -0.031147 0.029744
1193 0.018783 -0.019100 0.003910 -0.000491 -0.009129 -0.007741 0.007519 0.019238 0.015009 0.028006 0.022942 0.005876 -0.001342 0.025893 0.021332 0.009735
1451 0.014646 -0.000770 -0.017435 0.028157 -0.026716 -0.024156 0.027500 -0.013461 0.030131 -0.019111 -0.030806 -0.021718 0.005351 -0.030958 0.021988 0.003380
929 0.014025 0.014828 -0.022383 -0.022000 0.017771 -0.000772 0.005046 -0.026255 0.016962 -0.005617 -0.006152 0.007293 0.017396 0.028939 0.009465 -0.001836
1388 -0.009947 -0.023149 -0.023964 -0.011599 0.006879 0.024513 -0.000070 0.019107 0.030311 -0.012009 -0.007997 -0.021814 -0.031143 0.007275 -0.017525 -0.011852
1258 -0.020659 0.027019 0.014375 -0.019614 -0.002563 0.029890 0.020026 0.024608 0.016376 -0.030624 0.014557 0.029102 0.020005 -0.022149 0.008285 0.014815
895 -0.004999 0.018738 -0.011338 0.005737 -0.022787 -0.015809 -0.008961 -0.021660 0.005167 0.024341 -0.028980 -0.002670 0.010623 -0.026003 0.003986 0.005781
1031 0.001664 -0.021647 0.001581 -0.003459 0.025115 -0.003229 -0.002460 -0.026398 -0.019033 0.007060 -0.016100 -0.018539 -0.013823 -0.011930 0.013314 -0.009800
849 -0.005371 -0.018645 0.023023 0.012447 -0.023740 -0.007921 -0.010376 0.008405 -0.026802 0.013792 -0.021951 0.000295 0.005267 0.000958 -0.017942 -0.024708
1168 -0.022124 -0.009962 -0.026694 0.011883 -0.015506 -0.031158 0.026737 0.018501 0.010904 0.000695 -0.011344 0.013050 -0.002599 0.014034 0.007930 -0.000593
1446 0.013055 0.027897 -0.030273 -0.011458 0.030244 0.008283 -0.021577 -0.007228 -0.012176 0.009205 0.028762 -0.023128 0.003003 -0.018694 0.020017 0.026837
1592 0.021772 0.022847 0.022053 0.021642 -0.026551 -0.010048 0.013636 0.008622 0.015713 0.023176 0.006856 -0.029000 0.017436 -0.031165 -0.016561 -0.023736
1397 0.017080 0.026835 0.024728 -0.003819 -0.000942 0.022900 -0.018242 0.016752 -0.000790 -0.016262 0.021069 -0.028835 0.013412 0.027353 0.011009 0.020912
962 -0.028602 0.009733 0.026760 -0.019902 -0.014954 0.011838 0.028188 -0.002610 -0.000231 0.007887 0.007293 -0.025764 -0.007580 -0.017725 -0.028887 0.006938
1014 -0.026856 -0.001750 0.024151 0.007536 0.022241 -0.004612 -0.014079 -0.001645 0.007269 -0.000730 0.026706 -0.021898 -0.024196 -0.009726 0.025811 0.022990
1144 -0.014240 -0.007301 -0.011767 0.013462 0.001066 0.022259 -0.021848 0.000493 0.030980 -0.023228 0.014323 -0.021365 -0.009039 0.000596 -0.027412 -0.026349
1097 -0.003447 -0.004822 -0.010643 0.007547 -0.009087 0.005758 0.007436 0.017926 0.027195 -0.018724 0.004748 -0.012811 -0.022172 -0.022412 0.017305 -0.024396
1558 0.025024 0.030890 -0.027364 -0.006637 0.029042 -0.022868 -0.030752 0.007691 0.021943 0.000868 -0.030352 0.030055 -0.026852 -0.013531 -0.017740 0.013040
981 0.025671 0.007440 0.017892 0.000345 0.006277 -0.014130 -0.007619 0.025508 -0.016499 0.009632 -0.020945 -0.002453 -0.028985 -0.005274 -0.008154 -0.003450
838 -0.023055 0.014762 0.014846 0.020722 -0.016470 -0.026214 0.005832 -0.022105 0.017727 0.000733 0.016959 0.000313 0.020194 0.007426 0.016787 -0.007815
771 -0.016267 0.014578 -0.025926 -0.011783 0.010634 -0.011770 0.015728 -0.026769 -0.020008 -0.022608 0.014203 0.024059 0.000607 0.018337 0.002394 -0.001940
1184 0.028134 0.020923 0.014201 -0.002640 -0.010914 0.027333 -0.027686 -0.017098 -0.009454 -0.003590 -0.013823 -0.024592 0.000256 0.001722 -0.003840 -0.002571
1593 -0.027655 0.010422 -0.009617 -0.017767 0.002286 0.003997 0.000812 0.010751 0.006833 -0.015077 0.025875 0.017821 0.002165 -0.019511 -0.027291 0.009500
983 -0.013066 -0.026891 0.007161 -0.005329 -0.026645 0.015018 0.003674 -0.005633 0.028880 0.005899 -0.000892 0.018617 -0.007590 0.003342 0.003831 -0.020023
1312 -0.026876 0.005704 -0.002977 -0.018886 -0.022301 -0.029043 -0.009938 0.023468 -0.018517 0.023359 -0.015239 0.018847 -0.000249 -0.022830 0.006538 -0.019487
840 -0.026337 -0.004662 0.028590 -0.018607 0.006869 -0.006259 0.009285 0.025423 0.031023 0.008112 -0.019311 -0.011145 -0.020411 -0.018308 -0.008890 0.022094
1296 -0.018402 -0.001775 -0.021021 -0.004719 -0.018521 0.005840 -0.023435 -0.000017 0.012399 0.005458 -0.002657 -0.000260 -0.028400 0.019047 0.020278 0.003227
1254 -0.011071 0.009436 0.022264 0.020520 -0.014782 -0.030611 -0.003939 0.005040 0.000451 -0.019785 -0.014442 -0.019021 -0.006632 0.024683 0.003010 0.008911
1386 -0.014719 0.020639 -0.002245 0.016551 0.012288 -0.006319 -0.010966 0.030434 -0.010400 -0.023866 0.011553 0.011665 0.011890 0.026787 -0.027713 -0.004081
1586 0.005315 0.027615 0.005272 -0.020220 0.015212 0.024106 0.025900 -0.002390 -0.030751 0.011422 -0.009516 0.004011 0.003380 0.022498 0.023319 -0.010576
848 -0.002168 -0.011801 0.016462 -0.005822 0.030063 0.021010 -0.029545 -0.001081 0.023756 -0.001705 -0.000394 0.012911 0.003603 -0.000804 -0.010823 0.018953
1078 0.018474 0.006061 0.027451 -0.028046 0.025764 -0.011839 0.017384 -0.007413 0.010200 0.020671 -0.005387 0.005400 0.018755 -0.005660 -0.019101 -0.010116
925 -0.008563 -0.020851 0.010192 -0.000599 -0.020091 0.021842 0.006082 -0.000729 0.000207 -0.016786 -0.015427 0.024003 -0.003883 0.026995 -0.016448 0.024362
1575 -0.007278 0.014427 0.025957 0.014989 -0.004935 0.029568 0.010310 -0.000104 0.021004 0.030093 -0.018435 -0.030711 0.013348 -0.024741 -0.019756 0.011607
1590 -0.026495 -0.027518 -0.003924 0.022432 -0.028533 0.024757 0.008271 0.025046 0.023454 0.022558 0.010038 -0.030559 0.020286 -0.025789 0.017234 0.008760
1356 0.031216 -0.015615 0.015002 -0.007531 -0.030442 -0.019699 0.008109 0.000092 -0.027657 -0.007424 0.029758 0.000825 0.016996 0.001268 -0.004779 0.030971
1533 -0.001238 -0.006154 -0.016888 -0.025355 0.008280 0.016910 0.002196 0.002237 -0.002855 0.016682 0.022089 0.020194 0.027493 0.002329 0.020183 0.008910
1292 -0.009918 0.023070 -0.019442 -0.008714 -0.016025 -0.003832 0.026267 0.005967 0.010055 -0.013025 -0.007920 0.007002 0.010733 -0.013388 -0.020989 0.001880
975 -0.015247 -0.003447 0.005178 0.008264 0.028704 0.007012 0.030175 -0.006692 -0.017423 0.030765 -0.023182 -0.027647 0.006758 0.021077 -0.019675 0.010980
1032 0.000981 -0.000885 0.004091 -0.017913 -0.018708 -0.022202 -0.030222 -0.017335 0.026960 -0.006269 0.027315 -0.014387 -0.029839 -0.010841 -0.003199 -0.018252
669 -0.010354 -0.010478 0.003861 -0.017903 -0.023480 0.027113 0.015896 0.011810 -0.021021 -0.000809 -0.017291 -0.020411 -0.004655 0.023823 -0.016890 0.018235
1086 0.006539 0.030066 0.016036 0.020826 0.016640 0.021123 -0.023217 0.025999 0.029239 0.011268 -0.024400 -0.019228 -0.024420 0.019412 -0.013541 0.009462
1522 0.020694 0.028665 0.025968 -0.004310 0.017939 0.018993 0.013944 0.024514 0.020153 0.025954 0.009790 0.011477 0.005333 -0.004242 0.016343 -0.018265
1390 0.027624 -0.013113 0.016830 -0.027808 -0.022793 -0.014220 0.020251 0.013040 0.000343 0.020964 0.001956 0.026627 -0.020920 0.017090 -0.012389 -0.014910
977 0.015077 0.024865 -0.004043 -0.015297 0.016410 0.004077 -0.020376 -0.019289 -0.012626 0.016876 0.023938 -0.028330 -0.026946 0.006664 -0.016971 -0.011857
1234 -0.026842 0.013159 0.003593 0.024706 0.026120 0.025829 -0.030345 0.008829 -0.023050 0.008037 0.029693 -0.009999 -0.006833 0.002933 -0.017127 -0.012273
1557 0.023297 0.016097 -0.025808 0.028935 -0.025396 0.005618 -0.027868 0.009348 -0.028534 -0.012973 -0.012224 0.000484 0.001865 -0.006237 0.000414 -0.004398
1469 0.016354 -0.029264 -0.030221 -0.027588 0.000850 -0.000260 -0.013679 -0.029142 -0.019964 0.027012 0.013584 -0.001198 0.012666 -0.013773 -0.015245 -0.009998
1584 0.016692 0.028794 -0.024148 -0.030045 -0.000905 -0.024177 -0.017952 -0.020385 0.009754 -0.000266 -0.010478 0.003204 0.010234 0.015875 0.017591 0.024326
1079 -0.003809 -0.019910 0.010629 -0.025750 0.022942 -0.024572 -0.023460 0.031087 -0.019095 -0.007834 -0.025209 0.003700 -0.017568 0.024878 -0.011521 -0.003567
1403 -0.024458 0.017547 -0.004150 -0.000299 -0.026513 -0.013537 -0.002005 -0.002355 0.019146 -0.006259 -0.030468 -0.023191 -0.009434 0.006845 -0.020172 0.015708
941 -0.024954 0.010417 -0.005147 0.015249 -0.000239 0.029660 -0.017001 -0.029213 -0.012779 -0.003619 0.024193 0.027625 -0.001303 -0.018786 0.001729 0.024881
1290 -0.021104 -0.002563 -0.006590 -0.023062 -0.021781 -0.009609 0.008347 -0.014409 -0.004520 0.022114 -0.019143 0.022749 0.002022 0.021689 0.017668 0.014963
1287 0.017272 -0.000080 0.028491 0.011219 -0.029079 0.019610 0.017384 0.004966 -0.027064 -0.004250 -0.016013 -0.004605 -0.025296 0.028884 0.013076 -0.012485
1169 0.001224 -0.028022 0.008886 -0.020177 0.011770 0.018005 0.029216 -0.001839 -0.011601 -0.027999 0.001404 -0.021280 -0.031086 -0.025976 -0.007069 0.004634
1400 0.023402 -0.024431 0.022409 0.018378 0.001825 0.026272 0.012020 -0.004714 -0.020807 0.016831 -0.018051 0.020008 0.005312 0.022484 0.014175 -0.018112
1447 -0.011885 -0.021929 -0.025034 0.025359 -0.003936 0.018599 0.008804 -0.028153 0.008612 -0.013771 0.014380 -0.005614 0.031024 -0.018641 -0.000951 -0.024216
1384 -0.029926 -0.002090 0.027533 0.002888 0.015873 -0.004316 0.029837 0.010213 -0.027382 0.020589 0.014677 -0.007243 -0.008650 0.012841 -0.006361 0.009554
877 -0.010790 -0.009781 -0.014074 -0.026856 -0.002573 -0.016956 -0.015960 0.017943 0.023930 0.028098 -0.007229 0.005092 0.019183 -0.015194 0.024291 0.015705
1315 -0.022147 -0.008958 -0.030490 -0.021937 0.030643 0.015090 -0.011459 -0.014932 -0.007607 -0.029073 0.023075 0.011091 0.008153 -0.014231 -0.008374 0.008147
1374 0.000985 0.005500 0.014342 -0.013263 -0.016960 0.027310 0.004346 0.015144 0.021005 0.009004 0.010823 0.015226 -0.015147 0.031064 0.004120 0.026065
1263 -0.007106 -0.014326 0.004801 0.020028 -0.004006 -0.009058 0.015418 -0.019406 0.022200 -0.014928 0.018840 0.031005 -0.014205 0.012211 0.023801 0.005380
1449 0.028393 -0.029992 0.003905 0.011129 -0.027841 0.003098 0.008275 0.021572 0.005788 -0.009816 0.006216 0.023650 0.021254 0.013645 0.008059 0.013217
1072 0.024708 0.008727 -0.024010 0.010876 -0.023299 0.016807 -0.015519 0.027346 0.017605 -0.020886 0.002129 0.025815 -0.029153 -0.030142 0.025906 0.030924
1090 -0.002289 0.005160 0.018466 0.015232 0.027004 0.006725 -0.004324 0.000425 -0.013561 0.014651 -0.030752 -0.016728 0.026888 -0.015452 0.028161 0.029666
1406 0.027200 -0.005163 -0.020877 -0.025028 0.017749 0.010311 0.011250 0.021791 -0.012493 0.013611 -0.017221 0.023961 -0.004193 -0.029617 0.021246 0.007131
999 -0.003072 0.007407 -0.011220 0.020452 -0.002084 -0.026355 -0.004198 0.026574 -0.019485 -0.019919 0.016280 0.018740 -0.021760 0.023663 -0.029689 0.028850
870 -0.028049 0.023849 0.022618 0.024690 -0.024624 -0.003773 -0.027059 -0.022045 0.030654 0.005557 -0.001774 -0.029952 0.025890 -0.023142 -0.025930 -0.023550
1568 -0.024292 -0.000007 -0.021034 0.030136 0.004277 -0.021105 0.019530 -0.013636 -0.026140 -0.022865 0.004927 -0.019559 0.025116 0.020309 0.017182 -0.007879
1059 -0.016258 -0.025063 0.031035 -0.013192 0.001723 0.017367 0.022238 -0.008441 -0.008432 -0.016329 0.021607 -0.028560 0.018778 -0.017500 0.017608 0.016961
1379 -0.020828 -0.018154 -0.020868 -0.016951 -0.007945 -0.015080 0.021825 0.024090 -0.020184 0.021832 -0.002285 0.013726 -0.018005 -0.007336 0.020390 -0.009116
1547 0.015155 0.000840 -0.026336 -0.020249 0.003558 0.017173 -0.010354 -0.030889 -0.022493 -0.029030 -0.008432 -0.014349 -0.023046 -0.004574 0.014856 0.021755
879 -0.012260 -0.030613 0.005634 -0.026542 0.012761 -0.028760 0.011447 -0.021662 0.023111 -0.029309 0.025416 -0.022144 0.005346 0.027416 -0.025270 -0.002850
1061 0.009953 0.021514 -0.017186 -0.007489 -0.026838 -0.001725 -0.007861 0.014385 -0.010969 -0.007494 -0.022072 0.008911 0.008605 0.000980 0.000380 0.020390
1211 -0.019373 0.015314 0.020050 0.022805 -0.024350 -0.006916 -0.011880 -0.026229 -0.011280 -0.003002 -0.029961 0.014975 0.022349 0.027854 -0.016898 -0.015622
1020 0.022642 0.030270 -0.004234 -0.002771 -0.024254 -0.004666 -0.025668 -0.015126 0.017163 0.027540 -0.002630 -0.002058 -0.016756 0.000310 -0.013843 -0.024992
1327 0.014640 0.011425 0.024990 0.002088 0.027567 -0.004750 -0.008178 -0.006116 0.003299 -0.016812 0.010665 -0.023325 -0.029022 -0.012342 0.024940 -0.026284
1092 0.005642 -0.003359 0.009652 0.005266 -0.018552 -0.011900 0.016917 -0.014279 -0.003861 -0.003717 -0.003838 0.006706 0.000781 -0.025538 0.017563 -0.023237
1046 0.008150 -0.001388 0.004157 -0.021866 0.017179 0.003718 -0.021160 0.023277 -0.024076 -0.000423 -0.028342 -0.007161 0.018835 0.007513 -0.006645 -0.028423
1170 0.014350 -0.011871 0.029148 -0.029895 -0.011757 0.029302 -0.004030 -0.008746 -0.007839 -0.017042 -0.007930 0.029735 -0.024052 -0.002476 -0.002107 -0.010000
1201 -0.010163 -0.000813 0.021255 -0.014786 -0.026317 -0.026782 -0.012617 0.009944 -0.001131 -0.029638 -0.014104 -0.000698 0.029729 -0.005728 0.021618 -0.000561
1613 -0.023613 -0.019559 -0.016299 -0.011754 -0.022496 0.029197 -0.019701 0.006695 0.006985 0.025709 -0.027633 0.029884 0.027877 -0.016635 0.013242 -0.024886
910 -0.028994 -0.018448 -0.019009 -0.013311 0.020474 0.015261 0.029817 -0.030918 0.011276 0.025072 0.011848 0.001829 -0.020757 0.006119 -0.005714 0.023286
1109 -0.023235 0.009439 0.028584 -0.007019 0.013284 -0.020963 0.006036 0.013956 0.024528 0.002411 0.022021 -0.022452 0.015854 -0.000698 -0.001211 0.013210
1352 0.015632 -0.019585 0.004927 -0.026650 -0.022786 -0.016152 0.010525 -0.013358 0.027651 0.030985 0.011306 0.009259 0.028218 -0.025171 -0.010920 0.028353
1000 -0.001689 0.017990 0.027898 0.002857 -0.017054 -0.002613 -0.025227 -0.011760 -0.018431 -0.011822 0.025023 -0.010462 -0.007931 -0.000069 0.025176 0.027768
1209 0.025322 -0.024966 -0.020192 -0.028438 0.011929 0.024934 -0.030731 -0.030277 0.024010 -0.009812 0.023126 0.007300 -0.017277 -0.002891 -0.003405 0.015593
1134 -0.009795 -0.016600 -0.030401 -0.020836 0.025606 -0.012164 0.018114 -0.028883 -0.023166 0.023380 0.030101 -0.028182 -0.027343 0.013475 -0.013618 0.024922
1027 0.001576 -0.027233 0.005392 -0.027068 -0.000814 0.030765 -0.004316 0.007116 0.007151 -0.007220 0.011631 -0.000793 -0.015282 0.014612 -0.027759 -0.028141
783 0.024075 -0.030325 0.001819 0.026590 -0.020164 -0.000085 0.022324 -0.010582 -0.012072 -0.024440 -0.022530 -0.006255 -0.021133 -0.019220 -0.011135 -0.015475
1599 -0.010641 -0.023545 0.028405 0.018415 -0.013978 -0.003943 -0.026703 -0.027164 0.026287 -0.015343 -0.003294 0.029391 0.018102 0.005628 0.030946 -0.013644
1066 -0.010139 -0.027570 0.019813 0.020706 0.008437 0.012641 -0.030609 0.002167 0.022383 -0.009185 -0.029903 0.020343 -0.006641 -0.012525 -0.006065 -0.013621
841 0.010459 -0.026218 0.014156 0.027195 -0.014736 -0.030470 -0.027158 0.026317 -0.020762 0.018591 0.005334 -0.003280 0.015537 0.020812 0.022040 0.002700
701 0.003589 0.020290 -0.019209 -0.021987 -0.004219 0.000781 0.007539 -0.029690 -0.026056 -0.005667 -0.007193 -0.026505 -0.026385 -0.017834 -0.014685 0.021963
1550 0.005503 -0.010585 0.002958 -0.010780 0.012196 -0.023472 -0.028119 -0.014403 0.020444 -0.021561 0.019709 0.026747 0.009653 -0.008187 -0.014539 -0.012538
1189 0.020612 0.013935 0.000933 0.005046 -0.009578 -0.026504 0.016895 0.000678 -0.007255 -0.028715 -0.027985 0.005246 -0.002389 0.022245 0.003549 -0.003985
1074 -0.002553 0.013534 -0.026336 -0.002407 -0.025838 0.029500 0.005962 0.020245 -0.024657 -0.016949 -0.008548 0.013606 0.012434 -0.022131 0.014267 -0.023082
1504 -0.026492 0.019888 -0.001991 -0.027746 0.019904 -0.021238 -0.028007 -0.012593 -0.028668 -0.024943 0.000359 -0.020690 -0.024793 0.002255 0.013105 0.012046
1098 0.023565 0.018638 0.022718 0.015455 0.028893 -0.009175 -0.015741 -0.013059 0.004435 0.023475 -0.002596 -0.008576 -0.011374 0.021769 -0.023511 0.013952
1349 0.010469 -0.030875 -0.018406 -0.007726 -0.001785 0.024888 0.025137 -0.013234 0.018059 -0.016032 0.010864 0.022763 0.029591 -0.003114 0.019020 -0.004968
1016 0.004732 0.017751 -0.006962 0.028595 0.001457 -0.027078 0.006816 -0.030437 -0.014846 0.005998 0.007148 -0.006607 0.016584 0.030952 0.016942 -0.007718
1123 -0.005733 -0.003160 0.001899 0.018228 -0.028564 -0.000530 -0.011402 0.010687 -0.026370 -0.009843 -0.011772 -0.027933 0.015726 0.027521 -0.013273 -0.013494
966 0.007570 -0.023136 0.017403 -0.001207 -0.030921 -0.010567 0.017855 0.008956 -0.000902 0.024981 -0.010657 -0.021362 -0.011098 0.011008 -0.029447 -0.026173
936 -0.007464 0.024049 -0.026466 -0.001726 -0.027183 0.003995 -0.026577 -0.004059 0.014936 0.019686 0.002734 0.019653 0.015231 -0.023554 -0.018885 -0.008525
1428 0.021218 -0.019948 -0.017047 -0.009809 0.026715 0.000734 -0.025914 -0.005098 -0.022722 0.004856 -0.006397 -0.022338 0.022535 -0.030336 0.014232 -0.016582
1025 0.025581 0.018525 0.000781 -0.003299 0.019087 -0.023326 -0.020428 0.002778 -0.019084 0.026106 0.018545 -0.008826 0.008957 0.000240 0.030812 -0.009057
1581 0.006575 0.020215 -0.013435 -0.005339 -0.003537 0.018790 0.024609 -0.005060 -0.013547 -0.028833 0.005890 0.011158 -0.028840 0.000230 0.013422 0.014262
1311 -0.002250 0.001553 0.011173 -0.017348 0.001362 -0.016328 -0.000547 -0.015672 -0.021325 0.009554 0.025716 -0.005179 0.006124 0.011235 -0.016522 0.021401
1108 0.007948 -0.018750 0.016815 -0.019981 0.014757 -0.010025 0.009528 0.007681 -0.022208 -0.004588 -0.007170 -0.022618 0.012632 -0.010747 -0.000712 -0.029432
1157 0.008646 0.015250 0.023136 -0.015795 -0.016526 0.028618 -0.030963 -0.020469 -0.000950 -0.018759 -0.030302 0.000126 -0.010512 0.013413 -0.020655 -0.017655
844 -0.024257 0.009414 -0.010240 -0.011440 0.025327 0.006711 -0.006932 -0.015077 0.030317 0.018658 -0.011771 0.028378 0.003657 0.022734 -0.007135 -0.016475
992 0.014958 0.009343 -0.017279 0.022150 -0.013030 0.016254 0.023242 0.018406 0.005853 0.000299 0.010132 -0.022023 0.011099 0.013487 0.027736 0.004617
791 0.006059 -0.005382 -0.000527 -0.009779 0.003050 -0.000850 0.003311 -0.021007 -0.021954 0.012955 0.030706 0.006396 0.018359 -0.023277 -0.007875 -0.024528
1543 -0.022582 0.001958 -0.011210 -0.018343 -0.020185 0.012823 -0.009405 -0.010616 -0.014184 -0.011654 0.024756 -0.023337 -0.020068 0.002690 -0.027446 0.018223
1346 -0.003269 -0.027514 0.006737 -0.031159 -0.006511 0.027994 0.003621 -0.003636 0.031106 -0.021650 0.011313 0.023978 -0.001536 -0.004431 0.019187 0.012229
823 -0.000907 0.012483 -0.019352 -0.017233 -0.024468 -0.012357 0.019103 -0.008490 -0.030938 0.015408 -0.020879 -0.018314 0.024457 -0.003731 -0.004891 0.022914
1241 -0.007307 -0.022803 -0.002819 0.030350 0.013532 0.008983 0.010812 0.010299 -0.028988 0.008695 -0.027887 0.013127 0.005559 0.001465 0.014138 0.024871
1019 -0.030336 0.007150 0.022190 0.001597 0.002827 0.023151 -0.014630 -0.012048 -0.024470 -0.005767 0.024082 0.009023 0.000588 -0.004649 0.027668 -0.031245
1430 0.011659 -0.006610 -0.026166 -0.005811 -0.011067 -0.011943 -0.008440 0.019163 0.011008 0.018870 0.000996 -0.015555 0.001534 -0.014985 -0.012502 0.003081
1075 -0.024525 0.022017 -0.011127 0.007590 0.005415 -0.028956 0.001935 -0.022387 0.010394 -0.026521 0.021954 0.004749 -0.013965 0.030347 -0.023781 0.006539
875 0.012123 0.017018 -0.016914 0.011591 0.009807 0.019539 0.015044 -0.014193 0.001473 0.024759 -0.017105 -0.024344 0.027549 0.025869 0.022349 0.019700
1266 -0.004079 -0.025900 -0.010491 0.022333 0.005403 -0.030155 -0.030868 0.008996 0.019285 0.016347 -0.028146 0.003284 0.013149 0.031220 -0.007284 -0.007965
1159 0.007741 0.029177 -0.000041 0.026631 0.015339 -0.007417 0.000646 -0.024273 -0.006155 -0.013938 0.019345 -0.002581 0.009379 -0.001365 0.010168 0.018166
1462 0.030387 0.006003 -0.018118 -0.010072 0.026866 0.003921 0.003532 0.005693 -0.003318 0.011892 0.021243 -0.003048 0.000532 0.016678 0.019792 -0.016891
1373 -0.029930 -0.017430 -0.006193 0.022894 -0.008395 -0.022620 -0.004825 -0.012933 -0.020848 -0.016231 -0.020917 -0.004020 0.017424 -0.010034 -0.018318 0.017318
1329 0.029764 -0.018414 -0.005939 -0.015481 -0.010515 -0.010541 -0.026222 -0.002976 -0.002495 -0.020153 -0.019348 0.028623 -0.024902 0.029546 0.021647 -0.025783
794 0.028306 -0.002378 0.027986 -0.028255 -0.011843 0.028528 -0.011701 0.000751 0.022222 -0.028011 0.005920 -0.024003 0.014914 0.019812 -0.017752 0.023186
787 -0.007291 0.020676 0.002152 0.017113 0.027140 0.023700 -0.004119 0.002101 -0.002991 0.014606 -0.012784 -0.020883 0.011754 0.013544 0.008683 0.006070
1113 -0.016530 0.010246 0.016353 -0.021873 0.015276 -0.020038 0.001939 0.002676 -0.008429 0.017351 -0.003225 0.012718 -0.013639 -0.020642 0.030925 0.019738
1217 0.026688 -0.012694 0.019749 0.025007 -0.012576 0.029663 -0.021849 0.015409 -0.020173 0.013265 0.018304 -0.004959 -0.010244 -0.003762 -0.015459 0.025116
759 -0.021457 -0.016847 -0.019122 0.019308 0.024780 -0.016814 0.002195 -0.010360 0.028205 0.016345 -0.025746 0.015531 -0.001205 0.000129 0.009375 0.022400
1030 -0.025869 0.002029 0.006938 -0.024205 0.016017 -0.003938 -0.013732 -0.006755 0.001402 -0.029257 -0.017665 0.002685 0.016481 0.026075 0.008258 -0.025206
1505 0.005342 -0.015690 -0.020373 0.025769 -0.001635 -0.001976 0.013963 -0.006876 0.022037 -0.009502 -0.018578 0.027515 0.004069 0.015744 -0.009559 0.026364
1181 -0.019665 -0.000608 -0.011562 0.026481 0.000922 0.003021 0.030254 0.007070 -0.011553 -0.028476 0.024922 0.027667 -0.008300 0.018072 0.000085 0.008903
1548 -0.008892 -0.002784 -0.000869 0.005828 -0.020368 -0.005563 0.022415 -0.012025 0.001455 -0.028357 -0.029795 0.006888 0.002460 0.017283 0.021232 -0.000789
1464 -0.024916 -0.013814 -0.001641 -0.016909 -0.029819 0.012509 -0.000143 -0.017168 -0.026458 -0.022058 -0.020925 0.020450 -0.026056 0.028322 0.005940 -0.010538
1605 -0.015330 -0.007347 -0.001010 -0.004808 -0.000645 -0.006368 -0.020698 0.015952 0.017897 -0.009928 -0.007948 0.022504 -0.014846 -0.023285 0.029863 -0.015833
1507 0.012696 0.017185 0.001733 -0.016640 -0.004337 0.020732 -0.026034 0.009413 0.022478 -0.010747 -0.001684 0.011925 -0.020540 -0.019562 0.009418 -0.011129
837 0.008011 -0.030114 -0.008052 0.021986 -0.024546 0.028549 0.018834 -0.006148 -0.022974 -0.029465 -0.009386 -0.019425 0.025891 0.026767 -0.016533 -0.015667
1114 0.002632 -0.001309 0.011908 -0.017744 0.015165 -0.008402 0.010461 0.030251 0.006136 -0.029851 -0.029055 -0.025305 0.009874 0.029156 -0.011824 -0.019018
1236 -0.003437 0.024263 -0.023992 -0.028084 0.028766 0.019729 0.015418 0.002280 -0.015269 0.011963 0.023255 0.012686 0.020251 0.021068 0.001291 0.005462
947 0.010843 -0.010940 -0.012900 0.006980 0.021383 0.019762 0.029850 -0.019660 -0.001251 0.017447 -0.028081 -0.010264 0.008514 -0.003896 -0.025776 0.003745
922 0.011281 0.026981 0.025623 -0.009442 0.007280 0.015444 -0.029567 -0.024106 0.008144 0.000950 0.009386 -0.003095 0.028213 0.023836 0.006338 0.009324
1439 -0.014093 -0.025929 -0.000696 -0.029172 -0.019955 -0.028080 -0.026054 -0.026147 -0.014452 0.027415 -0.002885 0.005160 -0.018863 0.030100 0.022798 -0.006465
1196 -0.017982 -0.010304 -0.005737 0.020094 0.011722 0.010460 0.023460 -0.002704 0.029199 -0.000878 0.011429 -0.016825 0.022206 -0.028403 0.024314 -0.027641
1381 -0.002471 -0.026770 -0.012369 -0.028111 0.028094 0.011417 0.024848 -0.021947 0.003174 0.016930 -0.005568 0.000378 -0.010065 0.002845 0.005283 -0.021290
1304 -0.028686 -0.025941 -0.020034 0.004952 -0.001199 0.012478 0.004906 -0.026989 0.029555 -0.015665 0.022894 0.028638 -0.019179 0.028429 0.022265 -0.019717
1300 -0.003871 -0.025077 0.006854 0.001055 -0.003733 -0.024109 -0.013252 -0.026374 -0.028706 -0.015620 -0.025993 0.001479 0.025364 -0.014951 0.017237 -0.020262
1029 0.024766 -0.030726 0.005668 -0.013215 -0.016469 0.002554 0.018391 0.026149 0.028835 -0.000465 -0.011676 0.024253 -0.022225 0.031228 0.005781 -0.025545
1602 -0.004941 -0.005025 0.020066 -0.004999 0.002854 0.013559 0.027191 0.030537 -0.014747 -0.005780 0.004553 0.022621 -0.024443 0.030874 -0.014966 0.026998
1324 0.026052 0.003817 0.016906 0.028709 -0.017049 0.003120 -0.009274 0.011077 -0.009906 -0.019290 -0.020108 -0.027683 0.002127 -0.006072 -0.026591 -0.002404
967 -0.014513 0.002258 -0.029329 0.010781 0.030737 -0.027684 -0.014077 0.026505 -0.014692 -0.004319 -0.024038 -0.017024 -0.011780 0.005259 0.016504 0.022224
1017 -0.016918 -0.001927 0.010405 -0.016570 -0.030982 0.023168 0.021310 -0.011257 -0.006502 -0.023831 -0.021389 -0.001460 -0.024321 -0.004577 -0.017121 0.007068
803 -0.011748 -0.000624 -0.022864 -0.023141 -0.023481 -0.021830 -0.022412 -0.013483 0.022885 -0.005445 -0.029177 0.022346 0.001791 -0.028497 -0.015058 -0.022226
745 -0.025844 0.000516 -0.009717 -0.013565 -0.019475 -0.029966 0.013499 0.005198 0.001364 -0.007598 -0.022272 -0.022530 -0.006895 0.021232 0.020599 -0.023925
1256 -0.024126 0.008830 0.016391 0.004179 -0.011420 0.008669 0.026068 -0.021628 0.002473 0.016664 0.018034 0.023277 0.024062 -0.026430 0.020801 -0.004775
800 -0.019306 0.016882 -0.007995 -0.002555 0.010314 0.007707 0.026227 -0.017945 0.000022 -0.015085 0.003129 -0.014296 0.019334 0.023754 0.017573 -0.014466
1102 -0.020651 0.023955 -0.004794 0.007045 0.003014 0.030644 0.007277 0.000947 -0.008160 0.016278 0.024183 -0.007569 -0.004020 0.010140 0.015533 -0.003769
1392 -0.010040 0.030602 -0.012576 0.003700 0.028296 -0.027247 0.005108 0.026341 -0.017394 -0.018783 -0.025014 -0.012813 -0.009499 -0.004734 0.009662 -0.017745
1139 -0.000248 0.016174 -0.012650 0.010899 0.024386 0.004023 0.021830 0.013286 0.001971 0.014276 -0.004520 0.018235 0.024153 0.025079 0.012046 -0.023710
1309 -0.020539 0.024294 0.020458 0.004062 -0.030477 0.005179 -0.000728 -0.028456 -0.021566 -0.002047 0.017441 -0.024756 0.011076 0.017979 0.020789 0.019366
804 0.012079 0.020180 0.019883 0.008870 0.028047 0.026971 -0.029982 0.008757 0.007720 0.029682 -0.016937 0.007784 0.028341 -0.017775 -0.029796 0.001713
746 0.000620 0.017374 -0.031120 0.028903 0.016734 -0.028287 0.014543 -0.021968 -0.022588 0.020441 -0.003353 0.007800 -0.007743 -0.022757 -0.011088 -0.015677
1452 -0.006813 0.022860 -0.028659 0.017067 -0.011344 0.005810 -0.026963 -0.002626 0.008436 -0.004629 -0.027374 0.020546 0.014923 -0.016741 -0.027048 0.011103
1438 0.019305 -0.018395 -0.008992 0.006626 0.024042 0.016979 -0.009566 0.022383 0.009974 -0.026962 -0.021343 -0.004380 0.000934 -0.027328 -0.004667 -0.028399
793 0.011286 0.017373 0.027780 0.010759 -0.026913 -0.028944 -0.025540 0.012166 -0.008143 -0.001199 0.018976 -0.029866 0.015354 0.013982 -0.021912 0.027714
972 -0.026551 -0.005255 0.019404 -0.021724 0.014603 0.003185 0.011685 -0.001583 -0.030362 0.011209 -0.021535 -0.018748 -0.007016 -0.029999 -0.006041 -0.009307
1564 -0.019022 -0.026831 -0.004080 0.010512 0.015121 0.017020 0.023990 0.018149 -0.029396 0.014096 -0.000115 -0.030165 -0.026835 0.007418 0.030559 0.005195
1044 0.012358 0.006860 0.013973 0.019554 -0.010746 -0.008966 0.026013 0.009517 0.009516 0.007060 -0.022524 0.018414 0.003163 0.005305 0.015428 -0.024847
1539 -0.013954 0.012761 -0.007160 0.022113 -0.016549 -0.001202 -0.028999 0.004349 -0.014060 0.018423 0.030121 0.025539 0.009012 0.019225 -0.030693 0.015010
1106 0.029382 0.007658 -0.001312 -0.006627 -0.030106 -0.024478 0.013971 -0.011369 0.030679 0.006487 -0.019759 -0.006798 0.019204 0.025408 -0.028871 -0.006777
860 -0.012499 -0.003199 -0.018973 0.019864 0.010210 -0.009743 0.026985 -0.026725 -0.011063 0.012946 -0.006328 -0.023228 0.026839 0.031236 0.029404 -0.012354
1325 -0.008106 -0.017269 -0.029501 0.018846 -0.005612 0.013740 -0.026709 0.012445 0.005570 0.000710 -0.002442 0.019217 0.027732 -0.030437 0.019410 0.018068
1034 0.002027 -0.022497 -0.025386 -0.023761 -0.023554 0.027388 0.000443 0.025745 0.016049 0.011493 -0.013701 -0.008430 -0.010974 0.010124 -0.027514 0.031245
1233 -0.006357 0.008865 -0.031027 -0.009115 -0.024507 -0.028361 0.030005 0.024231 0.021598 -0.011372 -0.010954 -0.017278 0.011372 0.003008 -0.011107 0.008894
1358 -0.014088 -0.000931 -0.015865 0.013557 -0.001293 0.022065 0.023184 0.028416 0.003025 0.009665 0.023023 -0.028426 -0.018603 -0.027888 -0.006430 0.026041
1067 -0.026219 0.010460 -0.001262 -0.019121 0.010170 -0.021902 -0.013262 0.005206 0.004945 -0.024805 -0.016442 -0.011675 -0.023363 -0.006651 -0.022798 -0.011304
795 -0.023607 -0.000226 -0.004587 0.023661 0.024267 0.005452 0.002945 -0.011001 0.023387 -0.029775 0.008502 0.022974 0.017109 -0.011826 -0.006082 0.022563
815 0.024193 0.003134 0.023816 -0.003533 0.010663 -0.020734 -0.016013 -0.016195 -0.011172 -0.027620 0.001949 -0.007923 -0.030757 -0.025234 0.001285 -0.003197
801 0.001251 0.020309 -0.031157 -0.005589 -0.011864 -0.000864 -0.001716 0.014083 -0.005235 -0.027098 -0.005957 -0.021902 0.005352 -0.015645 -0.009553 -0.016987
924 0.014987 0.018699 -0.004074 0.028681 0.008954 -0.025119 -0.021099 -0.023451 -0.029044 0.021791 -0.008579 -0.018982 0.029460 0.005180 0.026558 -0.014861
1295 0.004300 0.006797 0.028328 0.011055 -0.013225 -0.009940 0.013578 0.022226 0.014908 -0.024137 0.018856 0.009202 -0.016047 0.005401 0.025322 0.015325
958 0.020151 -0.025174 -0.021803 0.022306 0.010272 -0.024671 0.018855 0.012042 0.022598 -0.026065 -0.028856 -0.003161 0.026630 0.004847 0.028989 -0.005437
1047 -0.018869 -0.021958 -0.022595 -0.029238 -0.010985 -0.025438 0.001727 0.024927 0.029285 0.015719 0.024369 -0.022504 0.025830 -0.013121 0.031011 0.020630
1330 0.024389 -0.002816 -0.000103 -0.007279 0.006958 -0.017384 0.018109 0.026737 0.012551 0.013226 -0.023177 -0.016218 -0.014088 0.011369 -0.016316 0.009241
1530 0.016591 0.028797 0.010056 0.021339 0.013485 0.002531 -0.015909 0.028471 0.023510 0.010689 0.013449 0.003850 -0.007543 0.004142 -0.024008 0.006457
752 0.008586 -0.017033 0.004826 0.001559 0.030909 -0.010986 -0.013372 -0.022369 -0.006548 0.026508 -0.010634 -0.019193 0.000680 -0.027068 -0.017902 0.010909
1299 0.018325 0.029577 -0.012130 -0.026073 -0.013958 0.024592 -0.016484 -0.020228 0.001912 -0.023199 0.008407 0.017775 -0.025941 0.020527 0.028534 0.023979
1173 0.015203 -0.024408 -0.004128 -0.016325 -0.029340 0.010367 -0.028836 0.009035 -0.021288 -0.010706 -0.001729 0.010228 0.021001 0.023504 -0.003409 0.014425
906 -0.004952 -0.025919 -0.007842 0.028230 0.003529 0.000231 0.025045 -0.024589 0.010927 -0.002144 -0.018178 -0.028852 -0.030050 0.020753 -0.023376 -0.025263
1442 0.022869 0.020436 -0.023711 0.026738 0.003515 0.006982 0.020594 -0.029172 0.024120 0.014431 -0.000487 -0.000357 -0.002328 0.023223 -0.001835 -0.021416
1073 0.003781 -0.002807 0.030606 -0.016111 0.008222 -0.010641 -0.025102 0.020279 0.020966 0.000128 0.014046 -0.000273 0.005601 -0.003454 0.007668 -0.023456
763 0.002933 -0.028261 -0.014599 -0.020357 0.027308 0.006906 -0.022246 0.004493 -0.011620 -0.000429 -0.023282 0.000609 -0.001289 0.020151 0.022830 -0.028230
954 0.004885 -0.011704 -0.010710 0.023323 -0.011519 0.005843 -0.003433 -0.000691 0.017374 -0.000090 -0.021507 0.009514 -0.016565 -0.011105 0.016598 0.002010
1498 0.001656 0.029228 0.003142 -0.025829 -0.001431 0.018284 -0.000136 0.030853 -0.021020 0.025586 0.001732 -0.017652 -0.015625 -0.029573 -0.005477 -0.017066
1443 -0.029100 0.030653 -0.023476 0.007600 0.004041 0.010904 0.029379 0.021397 0.028305 -0.022188 0.015811 0.020767 0.009853 -0.023734 -0.029012 0.005903
938 0.025361 -0.009437 -0.017654 -0.007393 -0.001300 -0.012050 -0.017246 0.001847 -0.009532 -0.012541 -0.022847 -0.028695 0.019029 0.002179 -0.017053 0.012314
1055 0.027202 -0.007627 -0.017590 0.027299 -0.005980 0.017968 -0.024167 -0.011333 -0.008422 -0.004877 -0.017784 0.014988 0.020637 0.026154 -0.006243 0.006244
1005 0.024581 0.018072 0.027180 -0.026963 -0.004833 -0.002009 0.025973 -0.012611 0.005990 0.011082 -0.009180 -0.000615 -0.023536 -0.000944 -0.006431 0.028331
974 0.017526 0.019163 0.000471 -0.022922 -0.022836 0.004647 -0.006609 0.004137 -0.018191 -0.026867 -0.021193 -0.017048 -0.027330 0.025166 0.005509 0.028998
996 -0.015126 0.002416 0.017823 -0.025749 0.028604 -0.000051 -0.027029 0.000098 0.017677 -0.005060 -0.026718 -0.031071 -0.007977 -0.028981 -0.021640 0.004750
1316 0.013002 -0.010432 -0.007371 -0.008301 0.016317 0.010436 -0.008917 0.028283 -0.006178 0.016133 -0.000200 -0.002206 -0.029777 0.030639 -0.021216 0.011133
782 -0.009063 -0.022447 -0.008219 -0.028209 -0.005841 -0.011075 0.030560 0.005680 -0.023574 -0.023455 0.016913 0.001824 0.005610 -0.028711 0.014607 0.029393
1482 0.003817 -0.020906 0.023832 0.000975 0.018597 -0.030145 0.025627 -0.001901 -0.020381 -0.001909 0.001486 -0.027500 0.005582 0.002948 -0.027930 0.020066
948 0.029787 -0.013738 0.027904 0.014556 0.010655 -0.004587 -0.020295 0.009125 -0.007008 0.010780 -0.022222 0.030486 -0.004418 -0.015712 -0.027349 -0.025877
859 0.011757 -0.002597 -0.011587 -0.026290 0.031187 -0.003397 0.015105 -0.013110 -0.013556 -0.029467 0.025461 0.023970 0.020356 0.022154 -0.015173 -0.027698
1119 -0.008641 -0.005218 -0.026862 -0.022984 -0.015276 -0.013578 0.019783 -0.026732 0.002093 0.021015 0.003502 0.013482 0.007405 -0.012779 -0.029928 -0.009302
1156 0.021220 -0.005757 -0.018483 0.017048 0.002717 -0.022520 -0.025238 -0.007591 0.029619 0.029591 -0.013585 0.020184 -0.004268 -0.008481 0.025798 -0.019616
1224 0.026287 -0.012061 -0.026919 0.020338 0.020515 -0.023209 0.002940 -0.005155 0.030648 0.020378 -0.020581 -0.009991 0.002724 0.006207 -0.006029 -0.013888
1192 -0.017523 0.000709 -0.012577 0.014562 0.026017 0.024300 0.021099 -0.002128 -0.028401 -0.029083 0.012236 -0.010006 -0.004042 -0.006025 -0.021744 0.026881
1306 0.011474 0.000593 0.029960 0.002135 -0.020110 0.024861 0.015819 0.011876 -0.019881 -0.025241 0.015814 -0.003161 -0.001764 0.006451 0.003135 0.029248
1491 0.006426 -0.028589 -0.028027 -0.004489 -0.021381 -0.005203 -0.003323 -0.021519 -0.011449 -0.004286 0.005155 -0.008839 -0.012131 0.027048 -0.022705 0.009346
1421 0.005948 -0.023387 0.025672 0.002935 -0.012656 0.020741 -0.018245 -0.012893 0.001565 -0.025931 0.009651 -0.013832 0.015246 0.011397 0.023728 0.015833
1476 0.010656 0.027324 0.030196 -0.020394 -0.017024 -0.000882 0.011021 -0.018952 0.011182 0.020909 0.001671 -0.026813 -0.027183 -0.012290 -0.018701 -0.006336
1483 0.020553 0.024012 -0.018619 0.022892 -0.027269 0.000107 0.002999 -0.028676 0.003410 -0.028708 0.022912 -0.026087 -0.006069 -0.025795 0.002343 0.026850
886 -0.000653 -0.020814 0.003939 0.009100 0.004129 -0.000880 0.010517 -0.029812 -0.026942 -0.018490 0.000904 0.030402 -0.026582 0.003646 0.014814 -0.026794
1478 -0.019070 -0.024276 -0.026538 -0.020213 -0.018206 0.014793 0.018847 0.002249 0.017087 -0.019249 -0.015867 -0.007367 -0.012807 0.012130 0.008691 -0.002471
1205 0.001400 0.027175 -0.015791 0.025645 -0.009196 -0.003685 0.001136 -0.024198 0.003993 0.024286 0.018372 0.013827 -0.006270 0.030794 -0.010553 0.019426
1549 -0.002150 -0.002751 -0.012598 -0.019840 0.006516 0.001285 -0.026483 -0.020330 -0.021614 -0.025345 -0.012973 -0.003596 0.027809 0.020581 0.029999 0.018712
765 -0.027665 0.013992 0.002323 0.027471 0.027785 0.025904 -0.017623 0.010530 0.008552 0.012401 -0.023703 -0.023714 -0.022477 0.019155 -0.014202 -0.020644
1117 -0.005144 -0.027172 0.006044 0.004205 0.008842 0.013259 0.013992 0.003381 -0.019639 -0.015630 -0.025398 0.000594 -0.009837 0.010668 -0.028706 -0.015320
1261 -0.008422 0.005032 -0.025306 0.028233 -0.000180 -0.028332 0.030904 -0.008676 -0.008755 -0.002826 0.012482 -0.017353 0.019895 -0.012321 -0.018936 0.001397
1146 -0.006978 0.009556 0.028665 0.017640 0.003349 -0.009842 0.013530 -0.006485 0.017789 -0.024319 -0.024832 -0.015447 0.005079 -0.027475 -0.025354 -0.031055
864 0.029993 -0.006447 0.024359 0.004623 0.025224 0.011711 -0.025848 -0.011408 -0.002242 0.021180 -0.004642 0.006960 0.022190 -0.025085 -0.016040 0.016215
1120 -0.021848 -0.024936 -0.012497 0.027476 0.015484 0.011331 0.004366 0.022213 -0.015058 0.005048 -0.001349 0.004648 0.016782 0.028981 0.031158 0.025137
934 -0.018857 -0.011797 -0.022331 -0.020800 0.014414 0.011119 0.009365 0.004071 0.022988 0.025737 0.024330 0.009790 0.021866 0.007284 0.000230 -0.004157
834 -0.002571 -0.005484 0.007940 0.023834 0.004287 -0.020957 -0.009858 0.029127 0.009648 0.029315 -0.015365 -0.012177 0.018192 -0.001697 -0.010542 -0.021114
1248 -0.012989 -0.012466 -0.013818 0.012800 -0.012242 -0.017970 0.002991 -0.004996 0.026537 0.003333 0.031024 0.012004 -0.017566 0.001798 -0.001643 -0.015051
1226 0.019515 0.009352 -0.005320 0.013496 0.015664 -0.012883 0.011684 0.005733 -0.023894 -0.011483 0.000709 -0.026904 -0.010193 -0.002232 0.025847 0.026748
1190 -0.004038 0.002937 0.009537 0.019938 0.010409 -0.017949 -0.031146 -0.014997 -0.029246 0.010476 -0.009025 0.015278 0.007761 0.001211 -0.014255 -0.016005
1154 -0.015325 -0.024851 0.015644 -0.020734 -0.010857 0.019203 -0.012693 0.025317 -0.026961 0.002278 -0.003418 0.029724 -0.004319 -0.009609 -0.001922 0.015170
1130 0.007536 0.000743 -0.011375 -0.003634 -0.028722 0.018645 -0.015370 0.002505 0.022276 -0.001417 -0.002314 -0.015131 -0.012977 0.018173 0.001195 0.019743
914 0.013442 0.026103 -0.028865 -0.007337 0.030951 0.012751 0.012701 -0.027072 0.018077 -0.028679 0.007376 0.016195 0.004250 -0.028882 0.025592 -0.025645
1370 -0.001643 0.021224 -0.025471 -0.007535 0.003439 -0.023424 0.010976 0.001594 0.012563 -0.016264 0.015603 0.021810 -0.018553 0.022997 0.029149 -0.023554
1237 -0.023443 0.021174 0.000944 -0.025025 0.010251 0.008998 -0.024028 -0.021904 0.011018 0.005201 -0.012390 -0.014144 0.000159 -0.009499 -0.015319 0.011837
836 -0.028244 0.012692 0.012752 0.023946 0.020552 -0.001152 -0.021113 0.005836 0.003925 -0.012059 0.030647 -0.013555 -0.005931 0.023181 -0.029032 0.000726
931 0.023946 0.024024 0.007179 -0.014804 -0.020172 0.003615 0.011000 -0.013361 -0.012500 0.020608 0.026722 -0.024906 -0.019887 0.015983 0.029114 -0.013103
1473 0.019822 -0.008991 0.006773 -0.022475 -0.011709 0.019162 0.020922 0.014787 -0.023073 -0.014891 0.013683 -0.031206 -0.012119 0.002882 -0.006002 -0.028815
1245 -0.012121 -0.006960 0.004613 0.007691 -0.024368 -0.021760 0.004519 -0.005366 0.024538 -0.000522 0.023401 -0.004569 -0.011627 0.019804 -0.003800 -0.022845
1598 -0.009410 0.001224 0.011537 0.030204 -0.001196 -0.023166 0.017064 0.021901 0.014119 -0.012527 -0.016547 -0.019117 -0.026534 0.024665 -0.014059 -0.029103
773 0.021931 -0.024922 0.023025 0.007979 -0.021297 -0.024254 0.021328 0.011367 0.022648 0.015472 0.000962 -0.001633 0.019984 0.028193 -0.010680 0.017325
1583 0.017174 -0.016251 0.012839 0.018972 0.003484 -0.021046 -0.011047 -0.011640 -0.024785 -0.028357 0.004351 0.026649 0.014006 0.008604 0.007772 0.015437
1472 -0.023252 0.025886 0.019456 -0.001559 0.007614 -0.027219 -0.014526 0.023063 -0.010035 0.024224 0.001850 0.003399 0.029325 0.020515 0.005516 -0.014524
1313 0.008887 -0.027773 0.013602 0.006935 0.030444 -0.024513 0.020259 0.020325 -0.011251 0.017859 0.002033 0.003139 0.011209 -0.017861 0.020518 -0.022440
1062 0.017270 0.019895 -0.021644 0.030464 -0.023783 0.007063 0.006466 0.001116 0.011441 0.005309 -0.014628 0.011030 -0.017077 0.000724 0.007833 -0.013594
